encog,BasicNetwork,java,3.4.0,1,1657221305500
[BASIC]
[BASIC:PARAMS]
[BASIC:NETWORK]
beginTraining=0
connectionLimit=0
contextTargetOffset=0,0,0,0
contextTargetSize=0,0,0,0
endTraining=3
hasContext=f
inputCount=784
layerCounts=9,76,101,785
layerFeedCounts=9,75,100,784
layerContextCount=0,0,0,0
layerIndex=0,9,85,186
output=0,0,0,0,0,0,0,0,0,0,0,0,0,0,0,0,0,0,0,0,0,0,0,0,0,0,0,0,0,0,0,0,0,0,0,0,0,0,0,0,0,0,0,0,0,0,0,0,0,0,0,0,0,0,0,0,0,0,0,0,0,0,0,0,0,0,0,0,0,0,0,0,0,0,0,0,0,0,0,0,0,0,0,0,1,0,0,0,0,0,0,0,0,0,0,0,0,0,0,0,0,0,0,0,0,0,0,0,0,0,0,0,0,0,0,0,0,0,0,0,0,0,0,0,0,0,0,0,0,0,0,0,0,0,0,0,0,0,0,0,0,0,0,0,0,0,0,0,0,0,0,0,0,0,0,0,0,0,0,0,0,0,0,0,0,0,0,0,0,0,0,0,0,0,0,0,0,0,0,0,0,0,0,0,0,1,0,0,0,0,0,0,0,0,0,0,0,0,0,0,0,0,0,0,0,0,0,0,0,0,0,0,0,0,0,0,0,0,0,0,0,0,0,0,0,0,0,0,0,0,0,0,0,0,0,0,0,0,0,0,0,0,0,0,0,0,0,0,0,0,0,0,0,0,0,0,0,0,0,0,0,0,0,0,0,0,0,0,0,0,0,0,0,0,0,0,0,0,0,0,0,0,0,0,0,0,0,0,0,0,0,0,0,0,0,0,0,0,0,0,0,0,0,0,0,0,0,0,0,0,0,0,0,0,0,0,0,0,0,0,0,0,0,0,0,0,0,0,0,0,0,0,0,0,0,0,0,0,0,0,0,0,0,0,0,0,0,0,0,0,0,0,0,0,0,0,0,0,0,0,0,0,0,0,0,0,0,0,0,0,0,0,0,0,0,0,0,0,0,0,0,0,0,0,0,0,0,0,0,0,0,0,0,0,0,0,0,0,0,0,0,0,0,0,0,0,0,0,0,0,0,0,0,0,0,0,0,0,0,0,0,0,0,0,0,0,0,0,0,0,0,0,0,0,0,0,0,0,0,0,0,0,0,0,0,0,0,0,0,0,0,0,0,0,0,0,0,0,0,0,0,0,0,0,0,0,0,0,0,0,0,0,0,0,0,0,0,0,0,0,0,0,0,0,0,0,0,0,0,0,0,0,0,0,0,0,0,0,0,0,0,0,0,0,0,0,0,0,0,0,0,0,0,0,0,0,0,0,0,0,0,0,0,0,0,0,0,0,0,0,0,0,0,0,0,0,0,0,0,0,0,0,0,0,0,0,0,0,0,0,0,0,0,0,0,0,0,0,0,0,0,0,0,0,0,0,0,0,0,0,0,0,0,0,0,0,0,0,0,0,0,0,0,0,0,0,0,0,0,0,0,0,0,0,0,0,0,0,0,0,0,0,0,0,0,0,0,0,0,0,0,0,0,0,0,0,0,0,0,0,0,0,0,0,0,0,0,0,0,0,0,0,0,0,0,0,0,0,0,0,0,0,0,0,0,0,0,0,0,0,0,0,0,0,0,0,0,0,0,0,0,0,0,0,0,0,0,0,0,0,0,0,0,0,0,0,0,0,0,0,0,0,0,0,0,0,0,0,0,0,0,0,0,0,0,0,0,0,0,0,0,0,0,0,0,0,0,0,0,0,0,0,0,0,0,0,0,0,0,0,0,0,0,0,0,0,0,0,0,0,0,0,0,0,0,0,0,0,0,0,0,0,0,0,0,0,0,0,0,0,0,0,0,0,0,0,0,0,0,0,0,0,0,0,0,0,0,0,0,0,0,0,0,0,0,0,0,0,0,0,0,0,0,0,0,0,0,0,0,0,0,0,0,0,0,0,0,0,0,0,0,0,0,0,0,0,0,0,0,0,0,0,0,0,0,0,0,0,0,0,0,0,0,0,0,0,0,0,0,0,0,0,0,0,0,0,0,0,0,0,0,0,0,0,0,0,0,0,0,0,0,0,0,0,0,0,0,0,0,0,0,0,0,0,0,0,0,0,0,0,0,0,0,0,0,0,0,0,0,0,0,0,0,0,0,0,0,0,0,0,0,0,0,0,0,0,0,0,0,0,0,0,0,0,0,0,0,0,0,0,0,0,0,0,0,0,0,0,0,0,0,0,0,0,0,0,0,0,0,0,0,0,0,0,0,0,0,0,0,0,0,0,0,0,0,0,0,0,0,0,0,0,0,0,0,0,0,0,0,0,0,0,0,0,0,0,0,0,0,0,1
outputCount=9
weightIndex=0,684,8259,86759
weights=##0
##double#86759
   0.1925840481,0.4344001046,0.6442405898,-0.0723697572,0.184509952,-0.6771553231,-0.0657204155,0.3258997018,0.0101295099,1.3183775796,0.6608868119,0.8502814884,-0.0918346853,-0.1167698634,0.5660208463,0.8315613848,-0.3309187468,0.615794588,0.5539418085,-0.8677502536,-0.7730556158,0.4129636855,-0.6990820118,-0.0172123303,0.1601123625,0.0027866458,-1.9193481629,0.3268533279,-0.0664157421,-0.2566002681,-0.1967237092,0.1724560069,0.9430698664,-0.5115635076,-0.7285365013,-0.6792180801,0.4999373931,0.0018256526,-0.7159525945,0.5170231095,-0.521550328,-0.9675360322,-0.1993509975,0.6530567903,0.7762100938,0.885184953,-0.4428115943,-0.8541453233,-0.2471583663,-0.6717757391,-0.3829068728,-0.3420994607,0.1703317323,-0.2980896768,0.8481197534,-0.4979083509,0.488082399,-0.6900107113,-0.0565520543,-0.4269163955,-0.331134071,0.5034278137,0.6182906621,0.4285857413,-0.170176583,-0.4561303098,-0.8941418581,-0.8777894174,-0.1887166565,-0.1473763029,-0.2375544523,-0.2267163897,-0.3880137776,-0.6982479045,0.8142647966,0.2262132229,-0.13353106,1.1075832751,-0.8983969407,-0.4952137194,0.8569751482,0.396361629,-0.0349443249,0.3319282024,0.4169801382,-1.142824065,0.4655744804,0.2884540205,0.6011608961,0.3603456855,-0.606631165,-0.8021666226,0.1934923088,-0.1772676011,-0.6480394473,0.3536760186,0.3567546226,-0.4509810876,-0.4361949076,-0.1481315527,0.9377412585,0.7524389365,0.4188791609,1.0294386471,-0.0112121601,-0.6500656342,0.5506590248,-0.1315077963,-0.8359914926,0.1304068505,1.0823268246,0.6926923312,0.2228951869,0.8042923181,0.0782513102,0.421978245,-0.1543336605,-0.1055849674,0.9604815521,-0.207722159,0.3448921592,0.329721702,0.9297816209,-0.8550278706,0.6412180399,0.6313039891,0.8732681172,-0.2071607489,0.6992472264,0.6248526171,0.9674430896,0.0844184866,1.0559672679,-0.360282317,0.5190852108,0.0327443067,-0.685830558,0.4268871559,-0.2073849716,-0.1762755857,0.0425590019,-0.7164567468,0.2565353041,0.0466327232,0.7832389572,1.0213698012,1.1004723499,0.2620799944,0.483695501,-0.171489143,0.5574322156,-0.5242598217,-0.5569132457,0.6103077747,0.6467748331,-0.3576836811,0.1123830081,-0.7038178825,-0.1936616798,0.0768165607,0.3810387511,-0.7498288182,0.8431574204,0.4256987804,-0.1415906401,0.6880976808,-0.066627626,0.9558951723,-1.2622847116,-0.2485681518,-0.9492403417,0.7176468189,-0.1521014025,0.688597715,-0.5529039139,0.6251643373,0.7886848471,-0.0783229002,0.2123720267,0.6228070969,-0.7141491266,0.8369699382,-0.9887323921,0.321692613,0.448803294,0.4543551561,-0.9173925558,0.6366355217,0.4390400979,0.5555851623,-0.7920200776,-0.9063129307,-0.9507587156,0.2070041818,0.5981973457,-0.0247859305,0.1343236431,0.5926042437,-0.7320935958,0.1872636942,-0.646951129,-0.8621393455,-0.6074466,0.5566949944,0.2066543191,0.1505452138,-0.7819767389,-0.4550190128,-0.7219528366,0.8418853966,0.6823747166,-0.5334094164,-0.8656628747,-0.0654460638,0.435356674,0.6533001668,0.0685662861,0.6385347242,0.3097944917,0.5240888076,0.0506844049,0.3602058743,0.7565985793,-0.2306356266,0.6536625044,-0.138001071,-0.4666828546,0.8436772107,0.2016632979,-0.8474096452,-0.3783090766,-0.6080742103,0.1122822406,-0.1367930048,-0.931115023,1.1299314208,-0.1364966742,1.0097791607,-0.9733534675,0.1955082034,0.8739133673,0.995928071,-0.1286599051,-0.6721907982,-0.9587208072,0.6866316186,-0.9075595147,-0.0707082904,0.6615396692,-0.0950465524,0.3360448282,0.6459993352,-0.2399411063,0.0895266727,-0.0799038368,0.0623247031,0.181739246,-0.0714083006,-0.5409495025,0.2284187132,-0.553999792,-0.4610194802,-0.5448558878,0.7145807674,-0.5971219304,-0.3760521991,-0.7633550637,-0.6664873923,0.8229467355,0.6951692154,-0.5232081614,0.0656958963,1.2642210386,-0.8638099345,0.5388210068,-0.0676387256,0.7733381414,-0.4646870798,0.5548540659,-0.4985110982,0.6480882703,-0.7424533124,0.1842407399,0.8771502759,-0.5296556573,-0.0677883412,0.7396035504,0.1910823181,0.5404193461,0.1954048465,-0.8779251647,-0.0209434874,1.0615194583,-0.8674757119,0.2524450251,0.0184661114,-0.2428628732,0.3612024212,-0.888698636,0.8371246565,-0.6789387257,-0.1195101425,0.3703879924,0.9818676291,-0.9502755671,-0.712869561,-0.0708949469,0.0861257263,-1.0102323725,0.2866936068,0.7023462206,-0.2653693463,-0.1534691067,-1.050514051,-0.8990560849,0.5135779666,-0.3968271738,0.356266321,-1.0438595054,0.2565874083,0.279640954,0.6535291396,0.3267409602,-1.0867278259,-0.9487217692,0.4663552414,0.2510398445,0.1709062212,0.4010410419,0.132470805,-0.0317040462,0.5382053973,-0.7552693547,-0.549780732,-0.9237132704,0.145876922,0.8579964772,0.272118558,-0.9405894879,0.3941196705,-0.3454171215,0.2047550396,-0.7910987526,-0.3514472721,-0.9862042658,0.75705244,0.4588385161,-0.3760993205,-0.2993704976,-0.5506266298,-0.3236786161,0.0532751884,0.4899572913,-0.8055837537,0.1100619899,-0.7676144898,0.4321270554,0.0083534909,0.3651003764,0.8465296969,0.686127844,-0.8111352217,0.2150848258,-0.648800253,-0.0216105833,-0.8182896846,0.4430370626,0.8010341679,0.1802081266,0.7846407464,-0.7032199313,-0.4153284993,0.7118079126,-1.0943432507,-0.8654179339,-0.4935270643,-0.9904660074,-0.1377291876,-0.5011838097,0.682638099,-0.0695527317,0.9410341612,1.6103003982,0.3718344837,0.9128217524,-0.8071757351,0.9608711274,-0.5426170314,0.0841242697,1.4026451654,0.5229291522,0.4125276207,-0.800980428,-0.6584768042,-0.1732944959,-0.2011384038,-0.748073667,0.2041276592,-0.0079748873,0.1149881938,-0.536543869,-0.4949232086,0.2231374412,0.7047408863,-0.0955137435,0.9633021031,-0.3816564502,0.4407680442,0.7017343768,0.8667924697,-0.7408720673,-0.2744512558,-0.1845520599,-0.459363555,-0.0845019323,0.0216672807,0.0290321163,-0.7455668478,-0.3722777832,-0.9573332264,-0.0890914962,0.8768590905,-0.1053212971,-0.5052638051,-0.6984406023,-0.1564913955,-0.1596747287,0.4159542871,-0.0295212159,0.8238430483,0.4753902828,-0.8369213268,-0.9422831613,-0.1078037133,-0.26873335,0.6798022307,-0.7143169506,-0.8155017137,-0.9342319293,0.9053294684,-0.7466706887,-0.641354905,0.4916515995,-0.2847599439,-0.0671946615,0.0154118785,-0.060835149,0.1534650539,0.7296964797,-0.9180681737,-0.2961802255,-0.5271876246,-0.0871308082,0.3444414981,0.7672753231,-0.415879425,-0.6941643627,0.4188758805,0.1448099856,0.0109995486,-0.7395442568,-0.1152333102,0.0060834869,-0.5238642998,0.2782943813,0.431840365,0.0702696921,-0.0737215512,-0.6845774364,0.3935789509,-0.0142012756,-0.0453007461,-0.7438583037,0.1505923625,0.6628567276,0.2862317731,0.4828779284,-0.270558838,0.1907097004,0.8238073683,-0.5058753671,0.2712893188,-2.0737892547,0.2537351928,-0.3721206481,-0.5292372656,6.8285968243,0.6705308253,-0.1914186137,0.2838803677,-0.9191805228,0.5249539206,0.522148107,0.4495342457,0.0853992248,0.396115385,0.1325550735,0.700801975,0.8475575126,-0.6801696238,0.6721486568,0.7655500293,-0.7012976359,0.5619717223,-0.15241502,-0.645266193,0.5069937663,-0.2992263395,-0.1364781484,-0.9558752677,0.8122291335,-0.856421454,0.9028456262,0.5911266335,-0.7690312117,0.3703694015,0.2374719401,-0.9823722944,-0.7414370749,0.4971126793,-0.9960003257,-0.5881025302,-0.1985565168,0.7722028919,-0.0495353276,-0.4440027203,0.6894642152,0.25072204,-1.1557783882,-0.7817640025,-0.299989953,0.4532858317,0.3990886862,0.9956564176,0.218018946,-0.3111642711,0.4105722044,0.1507206807,-0.4565487095,0.2671395806,0.3402103553,-0.0472648945,0.6469544465,-0.3383315842,0.9700614147,-0.4567919845,0.5903614211,-0.0511622121,-0.6045845481,-0.6071179458,-0.6170307225,0.0106309145,0.544426,0.8293952081,0.0238352741,0.3269240858,0.3510513713,0.5834648878,1.148814322,0.6370640822,0.0950901967,0.8068972623,0.0357589449,1.2096144827,-0.7128725402,0.8896171378,-0.3079737003,1.7260330504,1.0104490726,0.7257175061,0.8308181285,-0.1675333399,1.0315838394,-0.5395535922,0.3065066797,-0.6176819362,0.3610722597,-0.7331270925,0.0106699437,-0.752363859,0.8884541229,0.8676846458,1.0109575029,0.4652514801,-0.4687185522,-0.2408945587,0.9618584829,0.2884100817,0.306291616,0.0848172987,-0.179504717,-0.1136212714,-0.5659644981,0.8449765691,0.6893959415,-0.7556033446,0.2292368724,0.251703329,-0.4265884503,1.0655137437,-0.5740686022,0.2197825614,-0.7421102067,0.5747719685,-0.3398256339,-0.7367824751,1.0963379217,-0.6988941669,0.4900837593,-0.9114334188,-0.5837251826,-0.7036691787,0.36190036,0.7450956079,0.8494009019,0.3097521452,0.8671799473,0.2144400699,-0.4570600365,0.4574714333,-0.9030304895,0.4717756788,0.033430843,-0.621915861,0.0584054863,0.0130436594,-0.606991656,-0.0855296578,0.0283203381,0.581332918,0.8958347252,-0.7998424677,0.8706884555,0.6106758816,-2.5196956649,0.1541750935,0.0723781263,0.3440408297,-0.1960224939,0.3554105305,-0.8153241529,-0.0639219797,0.5931997789,0.5957106685,-0.0617487513,-0.9842820679,1.0687410804,0.0035005534,-0.5498689378,-0.851203278,0.0705434373,-0.3514886563,-0.1867285788,0.3415022491,-0.8497180217,-0.4570324786,0.8771944675,0.7018267565,0.2762808279,0.350484124,0.5372800652,0.8309565616,-0.4875545823,-0.5108455918,0.2986742735,-0.797807823,0.4994565225,0.25738061,0.5913918629,-0.5041684183,0.3545196913,-0.948841146,-0.6409809012,-0.9196864328,-0.0066366605,0.8628523153,0.8811058656,-0.5077244271,-0.0873214216,0.8446298992,0.7383522657,0.7040464182,0.5316852869,0.0634989271,-0.9796819936,-0.8560932422,0.3947448311,1.7100773404,0.1602369386,0.275244288,0.8698052516,-0.3333581779,0.8306273313,-0.6398192415,0.4121192305,-0.8467670166,-0.9087532502,0.6976112747,0.1138033121,0.3367761572,0.4658526876,6.2654999739,-0.4768980663,-1.0634141892,0.5468747334,0.3029531466,-0.5977432448,0.4823521351,8.6457698584,0.1389284713,0.0307859179,-0.0016346276,1.2759141667,0.7170600119,0.7257139214,-0.998909202,-0.2493732056,0.4098964528,0.4938845395,-1.5509205605,0.0046858768,-0.2793408123,-4.3604631074,0.7849791076,-0.6105917773,0.5356757164,1.3323763415,-0.6580910479,1.3663642241,0.7282738425,0.1728668496,0.7509026019,-0.0556516038,0.5341553095,0.8138409665,0.4688930081,-0.4033691975,-0.1321322604,0.7605674143,0.0361977208,-0.032028748,0.8377056963,0.2093621378,-0.1727018869,-0.9176990121,0.3965612487,-0.9125795975,-0.1176599436,0.9408902252,-0.3892413012,-0.7987206615,0.4775737193,-1.1324556246,1.1603875691,1.1232671412,4.4671028241,0.1415234592,-0.1677640545,-0.8285094777,-0.3148858621,-0.2743341812,-1.2393909757,-0.4215115812,0.5720808135,-0.0355409787,0.7212409853,0.4323867303,-0.1798602386,0.8942013428,0.3606172675,-1.0885333035,-0.8496525046,0.7235327551,0.4462081504,-0.266673764,-0.0235264838,-0.4778070765,-1.1148006015,0.6455137318,1.0350983555,-0.668378004,0.14737262,-0.6576998142,-0.819882362,-0.3876819817,-0.9300191973,-0.2956596025,-0.2896848822,0.3637991912,0.4938483171,-0.8302345968,-0.9579170221,-0.6834638368,0.3114553947,-0.2059800983,-0.7544202029,-0.4278299072,-0.7464572846,-0.7905855593,-0.1728979486,-1.0114783894,-0.8163887903,-3.0903316879,0.9372892991,-0.2309318783,-0.1542768719,0.8144289166,-0.0807666854,-0.7086853859,0.8635455239,0.861508758,0.0114954565,-0.8348369557,-0.6294083098,-0.188687151,0.4643988838,-0.2876067937,0.088469349,-0.9307589112,-0.8040612843,-0.3640549377,-0.7555991426,0.5033863615,0.3595567071,0.5242166463,2.0796789186,-0.2751951927,0.9573884955,-0.247640161,0.923479546,-0.7240102831,-0.1755212785,-0.3938803367,0.8819148574,0.278072967,0.8846660941,-0.3168213092,-1.891833782,0.6899092731,-0.1917886578,-0.069053289,-0.8446643665,0.2475080867,0.9885668887,-0.7888192103,-0.4624565648,0.2673050497,0.8401333691,-0.3033248937,-1.412988883,-0.6756317067,0.5904236137,-0.0361730072,-0.6234180873,-0.1080107847,0.0680194039,-1.3613338927,-0.821444502,0.2908563408,-1.9006802738,-0.7352670134,-1.6856964543,-0.5488471775,-0.130998617,0.0660838509,0.1221764859,-0.0085485225,-0.0738566117,0.1976288551,-0.8744165835,0.5538782693,0.1007206809,0.4822444852,0.529213557,0.0209917392,-0.4124737516,0.471586845,0.0646854848,0.5222968849,-0.2448028804,0.5399415898,-0.5094646271,0.077214034,-0.9629601534,-0.8558283091,0.7979585333,0.1905947471,-0.4090480295,0.8470983073,-0.5492361678,-1.3890035376,-1.1308626979,-1.201945933,0.5887964782,-0.3174576388,-0.7111819513,-1.1152116109,0.622717666,0.4246697569,-0.6770395897,0.6587089049,-0.2562608665,-0.4749332875,6.948661632,-0.6667440607,1.7279642275,0.0541161479,0.0241186922,-1.1471953264,-0.0041253213,-0.2960310504,-0.6949388856,-0.9345351775,0.2942131955,-0.9302822595,-0.5060163805,0.764928893,-0.7882504134,-0.2393812046,1.0636730382,-0.1638516922,0.2643332445,0.1963306447,-0.4107875919,0.3650626498,3.6848123736,-0.1007270351,-1.139090105,0.7982603121,0.0757196603,-0.2905834413,-0.5562884601,-0.7906420284,-0.4612819292,1.109681056,0.1742440587,0.0297133662,0.8256431674,-0.7840418142,-0.3073129016,-0.4307724023,2.5229980509,0.2577966179,-1.0001061649,0.7314541605,0.5451552083,-1.3785495351,0.6166833347,1.2522038345,0.443442004,-0.0040148915,-0.3051147724,-0.6595475403,-0.5701494817,-0.1717872201,0.9308594828,0.6689731187,-0.5133630405,0.0700896617,0.7499702617,0.8795931258,-0.6159595096,-0.8339511383,1.527941817,0.2539743842,-1.7699768662,0.4255489407,-0.062645324,-1.0125602869,-1.2496846382,0.7660597675,-0.759564564,-0.1562462398,-0.8771271152,-0.4360975509,0.5737374588,0.0633077594,0.8558439987,0.0771670599,-0.3021536002,-0.0061306224,0.8888591221,-0.8909072555,0.522098072,0.8442338368,-0.4216381117,0.270811555,0.5481589059,0.8224480584,0.5792720984,-0.2447421855,0.076078086,0.1258873903,0.2719969848,-0.1611413312,-0.5466544965,0.1728333851,-0.8150574958,0.4444690763,-0.3127070986,0.0031201746,0.2856976033,-6.0922253002,-0.5584148927,-2.1112386375,-0.0054667373,0.8715216997,-0.9617402663,0.231045456,-0.6880088237,0.7939161885,0.4893327235,-0.3947955564,0.5108554831,0.8642942974,-0.9945243123,-0.9955701839,-0.332945521,1.0106413662,0.2006814656,0.0688107615,-0.8107746606,1.5443478202,-0.049348982,-0.3800634692,0.3548087794,-0.476109074,9.9240803131,0.6088075795,0.4803811114,-0.4717868756,-9.2651183644,-0.1444578101,-0.2334488305,-0.8084609677,0.6211689552,1.5229751847,-0.7913838911,0.0236483276,-0.4349702434,-0.1997441906,0.1461962526,-0.6682560595,0.5614717164,0.9613962278,0.624063476,-0.9536316359,-0.0034957668,0.2714228838,0.8302606802,-0.8742821117,0.7526965387,-0.0541850825,0.5892783144,-0.4830439376,0.9693929686,-1.7910894982,2.5987190852,-0.8645945439,0.5456472532,-0.7170851443,0.1223991897,-0.0333237485,-0.4016064362,2.1599124945,0.4381425724,-0.8980542581,0.4058890287,-0.2917635287,-0.6652599791,0.5487782244,0.6519529551,-0.4016057171,0.1837121861,0.4972281342,-0.0450320599,-0.6551791023,-69.5461617683,-0.3028646777,-0.7155745971,-0.0568555689,0.2211656997,-0.3310634644,0.7540246374,-0.1224657606,0.6969752124,0.8431729747,0.8853880964,-0.4557730219,0.2659436488,0.2995935964,-0.5385817248,0.7068461825,0.6055040898,0.3278063243,0.1209408804,0.811838767,-0.9348989234,0.7447331523,-0.0067217123,-0.4875200407,0.0894473864,0.1802055888,0.7686524765,0.6893156294,-0.6980842802,-0.7333900001,-0.020490535,-0.6102097108,0.1079017192,-0.5959068796,0.7658566754,0.2798393526,-0.3019346103,-0.5611273469,-0.0416458137,-0.0421851581,-0.163376447,-0.9852635091,-0.7743528148,-0.2847056242,-0.4929398753,0.5573925022,0.3018550202,-0.7647662189,0.8245037816,-0.9705758498,0.8586627257,0.7656528189,0.2453203737,-0.1777043848,0.1111645643,-0.2964101011,-0.5992824082,-0.7741881342,0.5064874479,-0.6174770275,-0.5763931803,-0.1947471116,0.6624556811,-0.061392445,0.7652270847,-0.7745472843,-0.4981601115,-0.1352837732,-0.6700273684,0.0645696335,0.5011603393,0.1128794034,-0.6746883405,0.9539182381,0.3125066101,-0.112912377,0.7232985713,-0.7003026515,0.696410049,0.5014682817,-0.2966615614,0.5613024962,-1.0513526189,0.7610857058,-0.9244068241,0.6518731564,0.5393126444,0.6472970211,0.7030458187,0.005498736,-0.38394013,-0.0739578373,0.5308043144,-0.4310374859,-0.9111670996,0.2373890525,0.3487799984,-0.556062147,0.5463336217,-0.5516159238,-0.2660286095,0.0123368938,-0.5206865979,0.0425099751,-0.3426721914,0.2989191312,-0.1750996259,0.3324611562,-0.1010186116,0.3379328537,-0.8237023677,0.8079982716,0.2293180104,0.5036175837,0.1502674895,0.8685024015,0.5653767199,0.0575948203,-0.211519984,-0.9785116264,0.6204364219,-0.1237965063,0.0095229717,-0.7617098447,-0.3991534946,0.0555469268,0.7399453643,-3.1293195329,-0.6011544266,-11.2664612435,0.9337200197,-2.3433012496,-31.4724325734,-0.3404191203,-0.5090358117,1.0580246585,0.8018968578,-1.1701047819,0.6682814917,-0.3012060345,-2.2100762561,-0.9747016866,-0.4951152498,-0.4249243941,0.7609162144,-10.0918004284,-0.3494747404,-1.864700299,-0.0076115174,0.0349171177,0.4636926736,-0.4270644715,-2.176854846,0.4060756472,-1.5472221082,-0.2308517376,-1.4122924084,-0.5199160683,-1.0897776437,-0.1030119407,-0.7849205488,-1.3279025238,0.1954218134,-3.0953948617,3.0933575109,0.3161687322,0.6245627801,-10.4760655178,-0.75293732,0.1125530703,0.3139585513,0.4076975317,0.4533812892,0.8476635851,-5.4238973476,0.4751534376,-0.9585270198,0.645560641,0.6079514954,0.2180804233,0.5571087352,-0.0628279654,-2.0275531941,-2.3269213795,0.6881520312,-0.7764523691,0.1014040843,-0.0890284799,0.2749066897,-5.190602047,0.5534162101,-0.3688456098,0.5063443332,-1.2435768769,-0.7359111237,-0.5070758812,-0.2582058331,-0.5246768299,-0.7297286189,-0.0750846917,0.9380338005,0.5171314442,-1.3122571365,0.1167351163,-0.6407877955,-0.077436294,0.1512159348,-4.8387184856,-0.214259802,-0.7584016732,0.2216671531,0.5385990071,-0.6552233435,0.2632296996,-0.1535207271,-0.7629836572,-0.6625099595,-1.6705822775,-0.4522988308,0.7905793246,1.1573830734,-0.1291437206,0.2921835245,-0.5812492933,0.8540983229,55.6255756771,0.0236495789,1.1505396472,-27.9360690732,0.7547326203,-16.8094169521,0.4111243248,0.1037333028,-0.094610665,0.1717572284,-1.2313207232,0.498841913,1.0612123918,0.3922750211,0.1767223489,0.6211215256,-10.0268387073,0.1073677496,-0.7526639792,-0.8053393726,1.1490894044,-0.7358599563,1.0003874061,-0.0537688511,-0.8043071636,0.5810038004,-1.3874920148,-0.1669262759,-0.7628246978,0.2312432295,-0.8756600599,0.2369554851,9.469889918,1.1273224012,-0.4774742861,1.1011335909,0.4133476136,2.4292709349,0.3877080247,0.2960591367,1.1435543194,0.0804550912,1.1339816725,1.5104085833,-0.7006944793,0.3907839702,1.2729849013,-0.0739873681,0.2680037174,-0.1242407182,0.075014426,0.4175778007,-0.5956089895,0.1943373504,-0.3509462062,1.2079964932,1.7422732178,1.4859266379,-3.3975865591,5.5441824829,0.8353765536,-0.6820670885,1.1514854144,0.8683286829,0.8264853251,27.3716614369,-1.0781132162,-0.50828289,1.2285018631,-0.6394992578,1.1056184794,-1.1982650198,0.896675262,-0.0963695207,1.1634985735,0.8738173874,-0.158065399,1.2966492537,-0.5340998458,0.1142389429,0.7418956458,0.711170504,-1.334221782,6.9867084911,0.2349262881,-0.4430088603,-0.201427884,0.8416599453,0.5811385526,-0.196094723,-0.3119966759,0.2993031994,0.7309706658,0.9609532107,-0.5078432624,-0.2094416412,-1.0317932709,-0.0900471748,-0.2796367793,-0.5294730202,-0.7600375452,-0.187027122,-0.0867378145,0.4516834605,12.1034594084,0.8008851059,26.849502235,0.0094203736,0.168461162,0.2097091787,-0.8222589358,-0.5253138648,0.5073946913,-0.6829850668,-11.2020682062,-0.5373964675,-0.3853389725,8.5000939666,0.7484378038,0.4589341443,0.0979378473,0.3097848151,-0.751840018,-0.454148487,-0.3703112355,-1.0128409805,-0.4421632226,-0.5962833027,-0.1319883876,-0.2671802328,-0.3629747107,0.2924940794,-0.5627934764,0.2140811379,-0.9518797836,-0.6588598412,-2.7249955098,-0.7030361542,0.5643767673,0.3301092656,-0.7934502567,-1.4053790021,-1.9829659141,0.9042077473,0.2687425143,0.7326101171,-0.6382228075,-0.6107639281,0.6138740538,-0.4104315461,-0.8820201687,-0.8173853868,-0.9912902847,0.2332352486,0.6842732591,-0.0742594659,0.3118668369,1.0594670523,0.5976327304,-17.5490404438,0.0263588489,0.8691832938,-0.8516802421,0.6011575007,0.1081441011,0.0774740683,-3.722825686,1.5145901488,0.6975799667,0.8179978835,-1.0310765469,-0.0409972864,-0.3513397636,-0.8298794349,-1.364316788,0.4616354931,0.0190562546,0.3268079799,-1.359234422,-0.1460269565,0.3946562545,-1.1134326421,-0.5514478458,0.4805718566,0.7770895547,-1.0830016757,0.4701454914,-0.4126903517,-0.111906575,0.2088182722,-0.1639312372,-0.9009813735,-0.3577532944,-0.101619922,-0.4780799667,-0.6745725867,-0.604212931,-0.1720411621,-0.9801457297,-0.7635451628,-0.6583552175,-0.6847993153,-2.1276352256,0.8994050536,-1.4409499515,-1.1973716643,-0.1060866653,-0.9599677136,0.6150699634,-0.1168057902,-0.5777177497,-0.0497684916,0.180086205,0.7971003853,-1.1704322914,-0.239138488,-0.3894649702,-0.2890275407,-0.7961026109,-1.4127001171,0.758682982,0.674800307,-0.8803355937,-0.2312310357,-0.6897289186,0.2590595787,-0.2420040118,0.1689801921,-2.1391644868,-1.0262207416,-0.7065047082,-0.8700408674,0.2117998287,0.7015439016,5.1974427683,0.0223457274,-0.4222188395,-0.3892194844,-2.670125556,-0.2017495173,0.071732344,-1.7650633177,-0.0491160079,0.0202083123,-0.6545705717,0.9560713374,0.0139681356,0.0712843527,0.0444429129,0.8157720107,-0.0910880144,0.3389078117,0.3383331133,-0.0968236216,-0.6888711184,-0.2366215157,-0.0794347555,0.5827212912,0.2262003651,0.0203354905,0.2769016243,-0.5554016981,-0.2927810856,0.060004054,0.0233027543,-0.6974854374,-0.98410092,-0.8224814174,-0.4924745885,-0.6625008157,0.0232792902,0.1859780143,-1.3530116628,1.0058296817,-0.0995112901,-0.634104194,0.2251991789,0.1133073415,0.0576844019,-0.6690107115,0.0081555713,0.4696871591,-0.6122739272,0.4389996845,-7.1759328529,0.8079382691,0.5497087867,-1.0141624368,0.0932985151,0.5055570879,-0.2646086161,-0.8552788735,0.6967512503,-0.0211159606,1.0806744666,0.6515897792,0.9508787135,-0.9505637167,-14.0003832985,-0.5621873533,-0.7041286692,-0.0355391067,-0.3384473865,-6.3691832068,-1.0701682571,-1.7753618547,19.1073398913,-0.2196155324,1.4512211578,0.7307909856,-0.6449602498,0.9253203238,0.9631866177,-2.5802217492,1.0463972962,0.7422298306,0.4910516274,0.231501942,0.4015733421,2.5120330154,0.2639629959,-0.0672204685,-0.6185967529,0.3809113573,-0.8785144129,-1.0838766407,-0.2940261541,-0.6620207803,-1.0942521136,1.7379050875,3.7002961221,0.4941124826,-0.4235026833,4.8250981329,0.1572165547,0.7822519536,0.7629678101,0.3418810472,-1.1498357959,0.318370915,-0.6506413542,-0.3494499159,-0.9629591922,-6.8090408628,-0.1358270723,-0.9523571109,-0.7142263001,0.3261644365,-0.9984415764,0.8341201355,-0.1829006145,0.4542260027,0.7153145468,0.1854527873,-0.769950747,-0.791214635,-1.1165198354,-0.2115515987,0.6514514228,-0.3478603016,1.8042045265,-1.0207360232,1.3213806837,-0.6736585266,-0.3450796457,-0.4519226648,-0.7920561185,-0.0611513181,-0.1233897247,0.6249175517,-1.0487594485,0.4828926157,-1.1342625807,0.2956460418,-0.8408797278,-0.6667374357,0.0714881193,0.6360861256,0.3647768236,-0.5055677504,-13.0987248637,5.1203506839,0.9637312141,0.175924163,0.2486835952,1.2567469535,0.0532843172,-0.8724441382,0.5493500492,-3.3958521066,0.4540849215,0.0814709924,0.441704537,1.0146553611,-0.4874784314,0.2210260661,-1.4109298169,-0.2666485984,0.1920600992,-0.1632228654,-0.6850114987,0.1210655971,-0.2302265593,-1.0135087318,-4.5262080955,0.0817202975,-2.2523133732,-0.4453756133,-0.1817135979,-3.3114117465,-0.2836745597,0.8854516361,0.4926568991,0.6187582693,0.5222929762,0.3976955361,-0.3551076839,0.7572438409,-0.567102616,0.0197713812,0.2531919403,-0.7210823905,0.4560208193,-0.5651834861,-0.9920751878,-0.4163827774,-0.8601032939,-0.6032753398,0.3325042103,-0.3506301199,-2.1146396427,-0.4638438801,-0.9680639527,-0.7434668181,-1.0572266522,-0.3765348671,-0.2554759317,-0.0631021384,-0.8192729918,0.9809747355,-0.0933363848,0.4151711013,0.2911268336,0.0311847324,-0.1377488186,0.0515832502,-0.7356737396,-0.3654047032,-0.5457486301,0.73544172,-0.7815211025,0.4965048411,-1.1741509338,-0.0334594531,1.0664672957,-0.308182052,0.1160384287,0.3769963792,-0.5702198874,-0.33906552,0.7378197135,-0.5195693754,1.533219876,0.2969568895,0.6682777678,0.286431371,-2.4867652815,-0.5135634389,-0.6520892663,0.5147692884,-0.183115645,0.563293065,-0.003270979,1.060819042,0.6163958698,0.1474952223,-0.366480608,-0.1967604732,-0.0663199881,-0.5825503674,-0.1934323607,-0.3941380423,-0.4640287106,0.6969680805,-0.8830432709,-0.1289844433,-2.4295677122,0.43212244,-0.2125105827,0.3169230267,-0.5119990844,-0.0168272774,-0.5882491845,0.4713395551,0.9172793131,-0.335954811,-0.7644989334,0.5815516507,0.8604499184,1.8377434523,-1.6365637278,0.3917704119,0.7020334733,-0.4746081506,0.9918767345,0.6270281197,0.9329462756,-1.7457035508,-32.6885124954,0.7037456719,6.5833727372,0.0464246762,0.8607100842,1.9112658339,0.6411832197,0.6042599251,2.4399362493,-1.5115433766,-1.6466792755,0.443577016,-0.8036243092,0.5698994258,-0.6619274773,19.3477783344,-0.7652318788,-0.0814644739,1.642725763,0.6700005003,-0.5860317275,0.3595546189,-0.3865723648,-1.3054854147,1.6217783735,-0.75168374,-0.6149901883,0.2199237934,-0.0539035251,-0.825052716,0.57629863,0.4072883043,0.6997471236,0.3554601253,0.7158502193,-0.4117541672,-0.9988370951,0.3863794426,0.0387557405,0.5490337969,2.5335336309,0.2855084345,-0.1481681866,0.7466754714,-0.0302858763,-0.088156911,0.6801626797,1.3276616839,-0.8779682697,1.0976884013,0.6388281758,0.348873784,-0.2164494019,0.6116943125,0.6972575908,-0.2986656518,2.8329459539,0.0612973111,-0.8952496361,-4.4476719726,7.9366657461,0.5827977242,-0.1074194511,-0.8069365564,-0.274341768,-0.6215225607,0.6794204892,-2.187530256,-0.7598028375,0.5143626631,0.0998271423,0.2301084624,0.8742895436,-0.5304015918,2.1783433532,2.9589159289,0.2270467573,0.2980793719,0.4539646411,-0.4592557603,6.9415280113,-0.2560367135,0.6362889482,0.2907973751,19.1401268032,0.1254746923,-1.0378702688,0.3274451894,0.062462238,0.9995322931,-0.6084135206,-0.6530055601,0.7246209963,2.201866723,0.409940437,-0.7948341712,0.33632155,0.4071895294,-0.2171339201,-0.4906111001,-0.0286407869,0.4852149463,0.1537891442,-0.1001136718,0.4109251791,-0.4447944651,-0.4648007515,0.0695024425,-0.1881110538,0.4416640605,-0.865629665,-1.3115642691,0.6947184755,0.3921895547,3.4357199696,0.1560342354,0.0605200937,0.4840265851,-0.955767033,0.295363671,-0.6874061875,-1.1132386637,-0.7130035245,-0.4567433141,1.7667738798,-1.2190619161,-0.2694323033,0.2977220619,-0.6296943202,-0.210018102,-1.3219767696,0.233091461,-0.9646919712,-0.1928135138,-0.753721068,-0.9542554183,-0.8685912836,-0.5927030278,-0.2590148901,-0.8456883158,0.8753772758,-0.8310874498,-0.9720148563,0.9040114162,-0.0537749455,0.2565429823,-1.1482188354,-0.7959770605,-0.4875733238,0.1081075147,1.3133912981,0.6054326236,-0.9416870917,-0.3152582707,-1.0363679353,-1.002303744,0.2799872578,-0.9749903012,-0.2004809344,-0.824350787,-0.3552759995,-1.0522351801,0.4018542517,-0.6894503697,1.5473442663,0.2091525723,-0.6113232508,-0.1096733662,0.2672949589,-0.8430110564,-0.6183363208,0.964327989,-0.4287529459,-1.0329268317,0.114767343,-0.037622002,-0.0301917333,0.4580207685,-0.2266730342,0.1715169119,0.253130795,-0.4185303872,0.419973198,0.4322687227,-0.208378362,0.8718130703,0.2326893639,1.0043949031,0.1785759096,0.4835931606,0.2124457296,-0.2295967884,-1.0032680894,0.2538434057,-0.8849557414,0.13479159,0.1372066416,-0.0391568333,-0.1780048743,0.3387623506,-0.0576935903,-0.646850999,10.3228183347,-0.1197302087,22.68516903,-0.5134413041,-0.2403988619,0.2349721233,0.4517985562,-0.5103877753,0.7534365578,2.5285924736,-0.8214297729,-0.6448140997,-0.3056811025,-0.2293731311,2.2144157843,0.5396547551,-0.3733697035,0.1540472949,-0.4765021558,-0.2596860915,-1.0179564046,-0.7233837359,-0.3826779046,-0.9365481018,0.1201464821,-0.7095840422,0.7241678254,-0.2914289028,-0.0227470122,-2.72405328,-0.3306008442,0.6145615762,0.5454966839,0.4631414148,0.2796460245,-0.1188192201
   -1.0751421547,3.5208489993,-0.6857368025,0.0974114405,-0.8367418471,0.068486162,-0.4715266445,0.5592149051,0.2024102293,-0.0239648456,-0.4406932524,0.0676116522,0.1553384603,1.2666315129,-0.1989737578,0.438491312,0.3217136911,0.4828931438,2.8479715924,1.4495342971,3.0581686603,0.8518759248,0.4379250227,1.2727774418,-0.6220615161,0.1299899082,-0.4229342131,-0.2478656157,0.7918793822,0.197950609,-0.4707950888,0.0744513437,-0.5917236106,0.9007214054,0.4602549052,0.6140473286,0.0049810438,-0.4032036102,0.6707128665,-1.4771804611,-0.2378454247,-0.1247790903,-0.8893459141,-1.9165574679,-0.4641406395,0.7038381349,2.1408710732,0.0906264503,0.0248685605,0.3706146801,0.3375339701,0.9943518659,-0.4345395951,1.4195130014,0.5199812904,-0.7005016042,0.8264794233,0.3260415819,-0.4573212557,-0.7186982755,0.1712187016,-1.3173384347,-6.3514435698,-1.0139343433,0.7707794193,1.5229705596,-0.6222723829,-0.5975727745,-0.9994943649,0.7575878135,-0.2249826903,1.0814315043,-1.2267606209,-0.7340912898,-3.3191467417,0.6061947264,0.2843365154,0.6118276085,0.2619809236,0.8013280211,0.6800412753,-0.074866594,-0.3172284702,0.7232515985,0.3949715274,-0.7367637157,-0.6029263504,-0.8076462914,1.4222985928,1.8972852319,-0.6142169959,-0.0976201489,1.9612976828,0.1362461933,0.605335176,0.4392023643,-0.7433811888,-0.7282774188,-0.1292011103,-0.814195241,0.2398410261,6.8873362063,-0.5918410345,-0.0116943602,0.5431448162,0.2739590511,-0.5354369728,-0.8844843921,-3.6932069903,0.8194013996,0.3247599226,0.5158681993,0.0846268302,-0.0189417072,0.4565160339,-0.3662323975,0.315673199,0.3000807668,-0.3043533878,6.1716408842,0.8078556939,12.1811697552,-0.1922003861,-0.6632410086,0.404805405,-0.0526621617,0.2812856486,0.6585652449,0.9312942504,-0.4803035128,-0.4993529089,0.044298117,-0.6373924039,-1.0349721345,0.345432323,-0.8937124208,-0.2552188092,0.9128974848,-0.6211097599,-7.477235806,10.4355097605,-0.5545053054,0.7354774958,-0.0777849697,2.0110625232,0.7487346529,-0.6139993743,3.66741101,0.0960879599,0.5643609348,0.9842141614,0.1465855472,-0.2049515071,-0.8972116617,-0.0877504414,0.2595678121,0.8414575448,-0.1945129508,-0.4887894772,-0.5637628547,-0.0355942548,0.8924531547,-0.9265832229,0.4443864556,0.8157779254,0.1836653871,-0.3745125127,0.6615250181,1.5468275031,-0.3167974025,-0.1576810954,-0.4740745766,0.9107934965,0.775618421,0.8454737285,0.3111618135,-0.751933954,-0.366259433,0.5634146106,-4.3287357104,-0.5670875789,-0.1530572771,0.4247134229,0.3713138445,-0.7337385615,0.4279924731,0.8181943455,0.5639067936,-0.0935382059,0.5619406184,-0.2701678196,0.3036088244,-0.1288468636,0.0948733873,0.5341144334,-0.7346168609,-0.0094966672,-0.0916516114,-0.7397493939,1.1785667797,0.3538636731,-0.7721889906,1.5223975626,-0.1309954028,0.3301115265,-0.7996729707,-0.7321108302,0.5138053814,-0.3321477927,0.3769463812,-0.5242957891,-0.1541074013,-0.5643329713,-1.0670089297,-0.1348663517,-0.7248518198,0.0253095954,-0.9675200851,-0.9930537936,0.1301305084,-0.260949465,-0.4146366418,0.9783624607,0.1130096474,-0.2844625792,-0.0950181784,-0.4231884187,0.2168646594,-0.1290474491,0.9848721013,0.547648549,0.7414996347,0.1086588779,-0.3572727281,-0.0554109853,0.2226488217,0.0740115142,0.4482168386,-0.574230743,-0.3968492214,-0.4452843931,0.2569226702,-0.4866259307,-0.3040577799,0.5741565859,0.4192893444,-0.4128322631,0.1472733022,0.0642587628,0.6388567115,-0.2935019775,0.6348078039,0.120129631,0.9136391146,-1.0423619903,1.0859049103,-0.5479937957,0.5259464195,-0.7210904789,-0.4925839949,-0.3440616762,-0.2883785483,-0.5937166915,0.9578051631,0.8454646637,0.4796936553,0.2269531311,-3.4552334366,-0.5755039489,-5.569547808,-0.4290847726,-1.2861428228,-16.2180367116,-1.6460422168,4.9935356822,-0.999017012,-1.1009380513,0.8345649995,0.1170249038,0.9016117918,-1.4533645008,0.1934913683,1.0544271718,-0.0918711731,-0.353801257,-22.4042626187,-1.1611452207,0.4107797023,0.5131442217,-0.6892627024,-1.0239967033,-0.1170213017,-1.9916239526,-0.9076829728,-8.3054204145,-0.8223139231,-7.6382457163,0.4951739611,-0.8217192582,0.6517558281,-0.6935139796,-0.8182646325,0.4635932749,-6.1696364443,1.8545401552,-1.072482849,0.6230801647,-414.7231580153,-0.7998522231,-0.8264621908,-1.5948104875,-0.2607221804,0.7637354385,-0.4460176639,-1.3346025733,-0.8899194232,-0.8080497803,0.660693969,-0.8854731505,-0.1605456109,-0.8217464132,0.5701761655,-0.5216260085,-8.7033078818,-0.6197177946,-0.1668229781,-0.0435461697,-0.309681778,-0.4694664262,-1.1191823997,-0.5248462519,-0.6268419171,-0.4133996082,-0.115875936,-0.5327696743,0.1338963492,0.6467117698,0.8823560194,0.021943592,0.3300576357,-0.695093057,0.7981167526,-1.2922631667,0.6704051919,0.4568315925,0.0610057068,-5.5992263802,-1.2758626362,-0.0137426092,-1.6930851574,0.9020040989,-0.2285128397,-0.4243084097,0.8545819933,0.3377139086,-0.9613667499,0.2520201298,-0.6791507327,-0.7123427582,1.3606328623,0.2443692851,-0.6487576239,0.892044387,0.7899734315,-0.0585109978,1.1964569556,-0.7994598297,0.6549905032,1.0152844099,-0.5486466269,16.0597881557,-0.2768166251,-0.8046640165,1.4863126768,0.0936595531,-2.2804873624,1.3399445771,0.3384510552,-1.2057252414,-0.8301553944,1.0479339931,4.2409928002,-0.0317634116,1.0372121981,0.0333534101,0.9207672454,-0.7964389849,-0.7889264821,0.2766584338,-0.3037144376,0.565057551,-0.2283217302,0.9445494848,-0.2689728842,0.5445345698,-0.8779456971,0.5239872273,-0.8083906534,0.6655237839,-0.4957383028,-0.6346941067,-0.5617599703,-0.871768961,-0.1120143291,0.6994580158,-1.4047870107,0.0606285253,0.3158904386,0.5752418338,0.9327581845,0.8371111765,-0.300218845,0.6273761658,0.4083002671,0.8624074856,-0.022941769,-0.6788905162,1.3284681796,-0.2865964829,-0.5809375386,-0.1065589255,0.1623653888,3.3059103244,-0.3212713404,2.0722270155,-0.1806024402,-0.1344516845,0.121459112,4.7533059097,0.7572734162,1.0942535133,0.2262424976,-0.597841744,0.2513757684,-0.9684360034,0.0770489003,0.8122957701,0.0303577409,0.8714957389,-0.557452128,0.1918929354,-0.8117913255,0.3275239891,1.2344349949,1.0250883343,-0.9971786125,0.4317694751,0.5394756293,-1.380899419,0.0210310468,-0.8158980119,-0.0547682608,0.6802449386,0.7328137251,0.2172534181,1.1913614166,-0.0087400225,0.0910494275,-0.0459339434,0.3806973325,0.6887249367,-0.1415490533,0.2233734829,0.3233792152,0.3108108408,-0.309508944,-0.2424927521,1.0301737046,0.2595059841,-10.0487217996,-0.779712984,-6.2687833005,0.9892428777,-0.3906910922,-0.7075402195,0.4358758558,1.1335826021,-0.181459004,1.3076827555,0.1292656744,-0.1255044642,0.0090962337,-24.8073233352,-0.2730867829,1.4238777931,0.3671716862,-0.7839694607,0.4588159074,0.1181912563,1.0329123801,-0.2828587017,0.135635937,0.5207790876,0.2809883643,3.7829493706,0.0975445697,3.4652505189,-0.595057397,-5.918558636,0.6201787736,-0.8639774015,0.3952714193,0.0967796339,1.3872496718,1.0261530508,2.0295603731,-0.1048350887,1.479177883,-0.007677589,-0.8019511508,1.0174764577,0.8292777079,0.4925315645,0.2127107897,0.8602872991,0.8804180867,-2.8173097007,0.2832650483,0.1420168633,0.1111909754,0.0538234948,0.1110150394,4.1544917743,-2.976738962,0.2693512267,-0.3525812282,-0.1862163589,0.3398228276,0.6371420197,-0.0435273151,1.1681072344,1.196353094,0.9495380873,0.1694713269,-0.5356213724,0.2181405256,-0.5365279384,-0.1656598055,-0.7925938533,0.1514652552,-0.7596601336,0.6229846773,-0.3699069978,1.0769299775,13.1395486235,1.5638694298,-0.2858083515,-0.1194376937,2.5112141262,-0.8404211795,-0.5865405285,1.0535278294,0.9422188503,1.035676233,-0.8519178579,-0.3107207284,0.4967407521,-0.5388952055,-2.7158192995,0.4277417898,0.4761337374,0.4774470267,0.6994266472,0.2619648027,-0.4114928741,0.4980602099,0.3504574667,-23.1086810987,-0.7410349127,0.5803521977,12.3003798903,-0.4499447888,4.8439029508,0.3049565546,-0.326283681,0.8980402893,0.8205530201,0.3991399518,-0.230851518,0.7798310418,0.1277005208,0.1563620515,-0.2499834541,-1.0069725667,0.5505522185,-52.4862217463,0.7115036861,-0.9079245259,0.3516560408,-0.4962804746,3.7178758882,-0.7835026492,-0.0008273664,-0.7252900457,-0.6899333769,4.7763815901,0.1295568012,-10.8599904404,0.0938575622,67.537069027,0.959677295,-0.8748262413,-0.9287619609,-0.0296419883,2.4811314477,-0.5675467993,49.9080988753,0.2284084137,0.3431445021,-0.0128154888,0.4010124998,0.5526255145,-0.1798518223,-5.5901832182,0.3282989834,0.1467398619,-0.4213455623,-0.0925679884,0.3325973549,0.0438269808,-0.5769001669,0.4503396507,-0.2072989076,0.0637188416,-8.347944377,-1.6111063247,-11.1686574417,-0.9824122654,0.9577227127,-1.9370250417,-112.4898105021,-0.4745073339,0.0809410346,-1.6648467958,0.5302632136,-0.0001083196,0.6209787443,0.4940701742,-0.9590048803,0.3538984485,-0.2045356784,0.6269621962,0.4044429355,-0.5959905805,-0.4687617336,-6.4004391805,-0.0269526951,-0.0119023826,-5.4337497701,-7.2606259642,17.5911491538,0.6072233538,-0.2241203855,-1.1432331447,-0.7462826869,-0.6031453798,0.5864247506,-0.1304422373,-0.1895185681,0.1165480043,-1.1822176308,-0.3690865114,-0.3859528376,1.7632989084,-0.8711745632,-1.0389524661,-0.3032903813,-1.7659354934,-1.2445182972,-0.7372464212,-0.8207117455,13.0879012786,0.5832492774,4.7858122181,0.9328897326,-0.4587074781,-0.4183566057,-0.4876698618,1.0492526989,2.1690454356,-1.3765880521,0.2950862725,-0.6010008263,-0.5292777335,1.4711312743,-0.5762475849,-5.8697000139,-0.3393041182,0.5201453037,0.256505269,-0.1654788849,0.3942628337,-0.2588663275,-1.086692436,0.3181638344,-2.3649240121,-0.4717405714,-0.8980898193,0.4867267571,-0.4933134586,-88.3223163877,0.1704503553,0.5751209365,0.0165345016,-0.6999350106,-2.4418819282,-0.4657593864,-0.9547546336,-0.4031410178,0.7418581926,-1.2089170985,-1.0141682623,0.2238406846,0.0472550833,-0.8169401493,0.6642932654,0.0597377402,0.2093468295,0.3008817428,-0.1051571302,-0.3026576046,0.2212750232,-0.4984954882,0.5808061812,0.1128509316,-4.6525199625,-0.6085233652,-13.7132287888,-0.8805941056,0.7122131296,-0.2621843819,-3.8844485304,-0.334216216,0.0014245709,0.7295704509,-0.502247647,-0.0717859739,0.1378938406,-0.3926986475,0.3359644799,-0.0302370121,0.2378908871,-0.0472527158,0.2338233361,-0.186800319,-4.7012205829,-24.5193232419,-1.1159731929,0.1394089763,-0.6633462834,0.1108302594,-16.133905871,-0.8443875383,0.4449002765,-1.0220629484,-0.2544141222,0.5553525371,-0.167245592,0.18875509,-22.4606509901,1.1019484892,-0.6130133651,-0.9811130637,0.6308568667,-2.9897517087,-0.9229165064,0.5023466462,-1.0388989056,-0.3493943378,0.468050209,0.4910483977,-0.5353946237,-0.5309371655,-0.3405326431,-0.3046028086,-0.3094068161,-0.1167536563,-1.4701325514,0.4939890872,0.0815871749,-1.07738639,6.2934283547,-0.8073568148,-0.6590279323,-0.0592156924,-0.6646474193,-0.0004924813,-0.638431387,0.7751996172,0.097793224,-0.7437756899,0.6622077773,-0.1084079451,-0.0731604677,0.3986097476,-0.564074426,-0.0971159113,-1.9392013494,-0.8190065604,-0.5651218598,0.1681782204,-0.9899576572,-0.6062612383,-0.4663787149,0.4505015126,0.0217914086,0.8671985394,-0.9397704675,0.8038959975,0.0836262314,0.6038937908,-0.0829090439,-0.2511005857,-0.379998613,0.8984788537,0.898848757,0.4586085063,-0.7868315437,0.1567933401,0.7424761942,-0.7567677249,0.8500595758,-3.6098113099,-0.9017266076,0.1300315584,2.7864818992,-0.3293920738,0.56973678,0.4724863605,0.4335272582,-0.545167759,0.5877410947,-0.4281067506,-0.1055820982,-1.5587594366,0.0480188535,0.3326386597,0.0012522731,-0.014680025,0.7940592937,-0.8372594292,-0.8808501563,0.2076824999,-0.1518023696,0.3697182994,-0.4425675788,0.8848180251,-0.330628868,-0.2326891171,0.0060867407,0.2407896345,-0.1586313021,3.8629153879,0.9030762955,-0.3414365283,0.2838645455,0.795458166,-0.882227802,0.9934421777,0.8287799274,-0.6469095687,1.2468448057,1.2653418169,0.7171641971,-0.8738621187,3.7058203731,-0.769355574,-0.0722291385,-0.0526123832,-1.5454774528,-0.3536580863,0.1858078027,-0.6357955759,0.5286099147,0.2016291544,-1.2264516407,0.9606904028,0.6776856568,-1.4625367143,-0.4180087519,0.2668075894,0.1551172829,-1.3698165053,0.5008207,0.3281522107,-0.8865943338,-0.6117433526,0.2729743851,-0.7783649586,0.1314511029,0.682690268,0.2470904932,0.3863772858,-3.2824556373,0.5852873706,0.3668244175,0.3995469039,1.2695102464,-3.5289105525,0.3129486052,-0.279994148,0.0603598183,3.6520152262,0.6051401396,0.9479639568,-0.723215292,-0.1073236063,-0.3427260266,0.7952136708,0.4359821412,1.5550390341,0.4818131064,-0.7439636628,-0.5167581317,0.3732752157,0.7454239054,1.5010369453,-0.3506130405,-0.3449012135,-0.8953665039,-0.4735003364,-0.7101112085,1.0482657421,-0.2704928684,-0.7070000349,-0.0613208541,0.4062006844,0.1963192073,0.1634889622,0.0716026066,0.144702403,-0.2809578248,2.3546572872,1.0592215298,1.1360077651,-0.501790743,-0.6946713117,-0.7476615969,3.816523682,0.2582400794,0.1050002747,0.4998545505,1.3602476214,-0.9345971102,0.1600630285,0.2641665862,0.4217718626,-0.8481137445,0.0528718838,0.270916391,-0.2023593383,0.604863182,0.9751001549,-0.600069931,-0.2127730902,0.6503578146,1.5468185751,0.5961177281,-0.3800249323,0.4451593962,0.7510261175,0.7604276652,-2.5116913661,-2.0167339711,0.086707302,0.13045149,-0.0690313875,0.0185010913,-0.7534866443,0.8121686231,0.4655174191,-0.8443466936,0.3507859169,-0.0179122821,-1.5383042513,-0.8047177834,7.2111282299,-0.0357926784,0.5155552505,-0.5313789446,-0.2321328187,-2.7616287189,1.0406413136,0.5723022139,1.0413968587,0.4971239227,-0.5764778853,-0.2742980096,-1.3264778378,-0.6355541542,0.2213432961,0.4902618023,0.3201155915,0.594388812,0.8165793775,0.216583163,-0.2737898712,0.8606610702,0.2170160042,0.3101780536,-0.605893299,0.5186253927,0.1624343673,3.4083306981,-0.3064308403,0.3247535093,-0.6205241421,-0.4531808917,-0.205871822,-0.2989137751,6.1517961095,-0.2521061735,1.0702671733,0.6604872576,-0.1973988666,0.0544676052,-0.8868671695,0.145512017,-0.4165965337,-0.1467796745,0.4429189019,-0.7592027862,0.8519233085,-0.003510809,-1.3354287627,-0.088949558,0.9300129996,0.8239985108,-0.9413483469,0.6621110695,-2.1961171759,-0.1870243187,0.5700795751,-0.0064996618,0.4810378369,0.2997857588,0.49796189,0.6698826962,-0.1387538638,-0.6038415643,-0.8615142369,0.4449243985,1.1011196449,0.3503726388,-0.9491287173,-0.3650469962,0.7749424214,-0.1996399113,0.372578619,0.0352047791,-0.8946343341,-0.5193134649,3.2987788633,3.6409776889,0.908707247,0.2815149757,0.4038541551,-0.5309185431,0.3400692813,-0.0703652263,-0.7856590184,-1.1642465032,-0.5587660737,-0.6388306233,-0.8006461458,0.5323371707,-0.4389117408,0.9411524087,-0.3080895698,-0.6989850491,0.5826986742,1.114838507,0.3812621422,0.5980177456,-1.182030008,0.5326909177,-0.3028216482,1.4153033907,-0.6611418556,-0.0980206419,-7.5003758941,0.2705812314,0.841584842,3.2081758528,0.0523736423,0.7431146281,0.7524197498,-0.9364716616,-0.3055207886,0.8912883942,-0.4233665535,1.0282205761,-0.527970713,-3.2443092383,-0.4349465388,-2.2650231715,0.2212060785,-0.2136335938,1.8497651167,0.2439488852,-0.3427376138,-0.4164207028,-5.8001033814,-0.4648499888,-0.057889379,0.0864631394,-0.4584733597,-0.121918914,-0.2946729004,-0.4666112552,-0.538181725,-2.1030477231,0.2341189123,-0.0195660659,1.2824122084,0.4637881755,0.2464400904,0.6419355842,0.7471116319,-1.0975485073,-0.7615512243,0.1368299186,2.5354895844,0.3610572774,-1.2996637355,0.665554691,-0.200777107,0.18554824,-0.4555536582,0.4114532875,0.7397240391,-0.3809427667,-0.6910153441,-0.3443122797,-1.6533502819,0.7083971745,-0.8026612734,-0.7376633393,-0.2076370339,-0.7300560987,0.3543536945,0.3968894774,-0.9071598721,0.5945913526,-1.1800327477,-0.5523236943,-0.5094693304,0.4447983405,-0.6845502796,0.0686842397,15.7433834026,0.4039622468,-0.7556481103,0.4644827942,-10.6250042679,-0.104253052,0.7901069971,0.6881160979,0.4260187189,-0.7889069794,-0.100107504,0.3640584079,-0.7726243266,-1.1076800433,-0.7646334171,0.066299039,-0.2586383192,-0.5663987972,0.5674170696,-0.1058078207,0.2764468785,-0.1330985446,0.1252340867,-1.0768164684,0.6602507964,-0.0059392642,0.3119827784,0.0716333539,0.4881705106,0.6742529117,0.5304773086,0.3818549982,-0.8067305907,0.7091558124,1.5221398577,-0.4522957581,-0.5512078377,0.5723685608,-0.8313842311,-0.6069731537,0.1388639388,-0.72494509,-0.3517415538,-0.3203452557,-0.268399646,0.8654905552,-0.3402696465,-0.4033485899,-0.3919318308,-0.3222150052,-0.447646396,-0.8054460108,-0.1160278738,-0.1926244409,-0.7769359313,-0.5572498937,-0.3567085827,-1.0974086985,0.5191123837,0.4865449957,-1.0274136532,-0.1662634554,0.1496559114,-0.3265655189,-1.5054742075,0.6830421618,-0.9480208101,-1.0995013706,-0.0332715287,0.1450850857,-0.2324297615,-0.2741003635,-0.8306590563,0.1693256288,0.136131294,0.416988717,-0.1420531074,-0.1568822362,0.1306276361,0.5285766698,-0.6933786547,-0.2857006105,-0.6358250568,0.193096304,-0.5666537655,-1.0711547392,0.2717381202,-0.9940161151,-0.8835601545,0.3625701193,0.6410632379,-0.3448087935,-0.2741786633,-0.1824381401,0.3290035445,-0.0431629744,-0.149517995,-0.8562386978,-0.6945668598,0.3789651305,1.3429192262,-0.6380008302,-0.6144389992,0.1250709681,0.6062299013,0.5383425534,-1.068743098,0.8071401219,-1.6314990435,0.206041631,0.3421017358,0.0156509487,-0.5248798207,0.6916117596,0.5784535757,-0.5876131479,0.2229861447,-0.194312792,-1.5869666448,0.6688598887,-0.8866671123,-1.1902636441,0.3040540451,0.3538042603,1.1160446081,0.1671074395,0.3208024317,-0.3133506783,-0.4713661899,-6.037934474,0.2644328216,-0.0069706833,-1.6061624025,0.9433180519,-0.4380131558,-0.9475325097,0.7005803889,4.7274163683,-0.2846831604,0.753707355,-0.9429594637,-0.4283310835,-55.6614721863,1.1559493929,-2.8668859794,-0.7827762449,0.5757421811,1.5847086703,-1.0809216737,-0.1760145587,-2.0040073866,-0.7706660027,1.8247946752,-1.0190696314,-0.2478937326,0.4012578939,-60.0355661353,-0.6573481926,-0.1869086904,-0.8643516002,-4.0325984459,-1.9541531258,0.3157218189,14.5862549369,2.8685106158,3.4365129312,-0.9438349009,-0.4399299913,0.5922037629,-1.0368276397,-0.6228139252,-1.0682887102,0.5565462446,0.1623537518,-1.1998538477,-0.3586210609,-0.8961093791,-0.6353262137,-0.9920172842,1.6919406672,-1.9624395525,-27.199733047,0.0379175393,-232.0851789426,-0.2656133153,0.6778010529,-0.2407690985,-1.4582701745,-1.0431127438,-0.0520230147,0.6073142207,-1.1206855193,-1.1995002003,-1.1135032377,0.1654881967,0.7757948052,-0.1778697651,-0.7453915664,-1.1698515541,-0.7974471121,-1.3921384279,-11.7853649732,-30.1162098134,-1.0329587552,0.0198709547,9.9531189659,-6.907950425,26.5949209652,0.1830039892,-0.9087289753,0.1678301552,-7.8159315805,-0.046409075,-0.8669690696,-0.5493699154,-0.6004768578,0.4500859087,-0.363282834,-1.1099100787,-1.0592717224,0.954114221,0.8788638667,0.7177136138,-0.6689388435,-0.1054531369,1.5089860177,-0.5173762627,-0.0521913535,-7.5986319076,-0.7074422333,-46.8593090246,-1.053647356,-1.0899580603,-0.671022906,0.8850111113,0.481232888,0.6583834846,0.4490266183,-0.1455506519,-1.0625531151,0.2915492113,-5.6741697298,-0.2802148332,-0.7053041158,-0.4382851365,-0.220699618,0.8437519435,-0.831320087,-0.390435375,-0.8143195922,-0.1589404904,0.4201456085,0.9095408862,0.1987811005,-0.6549018945,0.9481369646,-0.6806113918,-0.8534157497,0.4835418726,-0.6130646297,-0.9352376058,1.0707377152,0.4756531216,-0.8772797696,0.5646670401,0.756414733,0.7277927532,-0.8907187441,0.3924023591,-0.03029963,-0.5874194905,-0.7168370647,-0.8316367892,0.6607724543,0.821133246,-0.0595008228,-0.6942234984,0.4247693565,-0.265492258,0.6740474819,0.4683854521,-0.998841658,-0.0209621367,0.3291264351,0.1930565301,0.1653902587,-0.9720907519,0.2650337379,0.674540215,-0.3715248539,-1.0071772597,-0.5517512677,-0.7583171913,-0.6256680411,0.3583976046,-1.0343679404,0.4029267278,-0.9645385456,0.1266216157,0.6840391555,0.7424220465,-0.2936759382,0.394313088,0.5412749409,-0.4328172323,-1.0119688505,-0.952265312,-0.5423621464,-0.7284945198,-0.7314613675,0.5978604989,-0.0187915255,-0.4858505583,-0.7630532251,-0.2820939478,-0.771900753,0.4514678968,-0.2249139025,-0.7552568427,-0.8967353161,-1.1069065401,1.19612243,0.3756644489,-0.0233104376,-1.0331693701,3.4528486052,0.3766343834,-0.3879765696,-5.6811674337,0.047267105,-1.1805504794,0.2545235226,-0.3760725299,0.7628091401,-0.4634406608,1.6617873541,-0.8943138711,0.4170509444,-21.5016216558,0.6206791819,0.6916129188,-0.501026676,-0.7513996796,-1.1086802775,0.6103288861,0.0942758338,0.5715840246,-0.3793545942,0.5468570359,0.5195483848,-0.601578211,-0.4509317425,-0.9061096163,0.1098358115,0.5069943995,-0.7352273351,0.7609227727,-0.3960078035,-0.3044852608,-0.5355076285,-0.5536743259,-0.8649292838,-0.694805796,0.7206091246,-0.0251406218,0.412577351,-0.2152481712,-0.9213630698,-0.3513620909,-0.0745284444,-0.2402208567,-0.2839864782,0.8555869854,0.4001010603,-1.39309175,-0.0025207635,0.0588953698,0.0584785381,0.251961044,0.4719463259,-1.0669602334,-0.2497797837,1.2577169152,-0.5635117731,-0.9573071725,9.025120275,0.5236957247,0.4954156771,-0.2833301885,-0.7819798101,0.1945721061,1.3402445033,-0.8078224316,-0.4373459562,-0.8873147986,0.6596675073,-0.1375937877,-0.4392467227,0.4164812445,-0.7148158116,0.6791174966,0.1728609238,0.1540364948,0.705721071,-1.248322264,-0.3515173408,-1.0140586071,-0.7440211346,0.479187073,-1.1274522672,-0.8928180109,-1.5692980499,-0.1125828541,0.4390767345,-0.5280632877,0.8774249361,-1.7223088721,-1.1747028133,0.0886910309,0.7237733077,0.3251496345,0.1723953243,2.2231772709,0.5901032742,0.7893857908,-0.4716820061,1.6430919062,-1.7423602125,-0.2220192038,-0.8860334669,-0.5193523068,0.3105174127,-1.7721376364,0.037163834,-0.565820323,-0.1491457097,-0.4843223755,-1.2535951574,0.8029717714,-0.3151071708,0.7021261558,-0.7529164463,-0.718509915,-0.8087624277,-0.3758478779,0.6192097737,-0.6638961892,0.419284707,-0.8724864634,-0.705042245,-1.078875911,-0.0106964613,0.7741204566,0.435306051,-0.39234358,-3.2156837499,-1.0173537459,-0.5795351262,-0.0322730286,1.2883854276,0.8548633463,0.629133548,0.0959773608,0.2464264203,0.3859162338,0.9778476598,0.2903744257,-1.7307651285,-1.122440708,-0.2888426126,0.5852771109,-0.7663970332,-0.8216615743,0.2274053065,-0.0625879766,0.3141923741,0.9279119126,-0.572676058,-0.0748373,0.6501851576,-1.9421165083,0.4851986913,0.2695927605,0.0737710841,0.7660376934,0.0252232136,3.019106696,0.2593479794,-0.2607317139,0.6247065339,-0.5735801622,0.1047766027,0.7368128738,-0.3532623291,0.304715742,0.2696586205,-0.871542437,-0.6488521704,0.4109232292,-0.4191823627,-0.6217728757,-0.7020747011,-0.545110856,0.703057978,0.1530560533,0.2134918022,0.0438669318,0.0261531717,0.1827318534,0.1709879382,2.4884020376,-0.4136775577,-0.2874184469,-0.844812717,-1.5043841554,-0.2494354673,-1.0264872172,3.1227305266,-0.6899803057,0.8675480827,-0.8649326667,2.0715377315,-0.2073713122,0.8950380792,-0.2653169697,0.3725256475,0.6804415249,0.6737165857,-7.822978929,-0.9884546869,0.5543598279,60.9475043235,-0.7127107068,-1.3314806358,0.7282679629,0.1538018176,-2.2243087067,0.8534878086,5.7368608323,-0.9443004227,-1.1883218093,0.3292567161,0.0029468439,-0.5551219639,-4.2058756774,-2.3952873424,-4.5918129093,-0.9186997639,-0.699075488,-0.5945730594,0.6302076502,0.1445567968,0.5088091246,0.4538155222,2.0789137914,-0.8906758516,0.8067965216,0.6259020073,-0.0716634614,-0.4550785917,-1.3735516809,-0.32582441,-1.1045447413,-0.0720849534,-0.6582633933,-1.422736406,-0.7563093602,-1.1916590278,-0.0398111209,0.7477046006,-0.2450405674,-34.4568892411,0.2704772707,-1.2088548963,0.8374397808,0.2141987647,-0.7212059402,-0.6730875441,-2.1041496833,-0.605763253,-5.4845541625,1.16529495,0.5311757613,0.2758099171,0.9854964385,-2.4232453587,-0.8002711123,-3.7036969276,-0.8995661851,-0.0041632735,-0.5619815074,-1.9420918519,0.3045688917,-0.6746217088,0.963294902,-0.2484993242,-0.0601456746,-1.1411855436,-0.8121828546,0.2189128458,-0.8853747646,-0.8519131986,0.2012875793,0.8218268962,-0.8324535008,-1.167487573,-1.3921624574,0.2203413144,-1.0801838163,-0.2249008009,0.2319163927,-23.1879557378,-0.7512172766,-1.265688834,-1.0129542524,0.0867488954,0.3192032833,0.7670162488,-0.0700806764,0.818966506,0.0482854587,-0.4370747256,-0.6257998463,0.1503317082,-0.2478642596,-0.1264367588,0.1785413444,-0.2355085581,0.3880767428,-0.814182613,-0.998905318,-0.4900367749,0.6805559282,0.5528826145,-4.4399717266,0.10410938,0.5651989836,-0.0199763997,0.4098356683,0.1171351952,-0.2264647697,-0.4147807433,0.9969657703,-0.4100253918,-0.5655546364,0.7348548173,-2.1749189366,-0.2170083699,-0.6154086937,-0.0424399213,-0.7875837171,-0.7083983702,0.4879119842,0.0032610729,-0.4667174363,0.2906851722,-0.0605559254,-3.3347368267,0.528161173,-0.1749044832,-0.090835575,-0.1301919848,-0.2848369117,-0.5212552411,-0.9622914353,-0.22567657,-0.7282321331,-0.1512379373,-0.7473960515,-0.3785786042,0.4472208852,0.2450710845,0.7049000355,0.4255872078,0.4639923459,2.7682533217,-0.4464823191,-0.3901133402,-0.1011617072,-0.4232409096,-0.6327567431,-0.8354660285,-1.2026272542,-0.4543701897,-0.3650831154,1.4802032763,0.8035233903,-1.0726583555,-0.6008966648,-0.9067344876,0.529655972,0.8397300994,0.2099101074,0.2827263065,-1.2327036636,-0.0723425379,-0.4892635446,-0.5059870235,0.9453954587,-0.6146575862,-0.1110233467,-0.6405065419,0.7780924436,-0.3635546089,-0.0638994794,0.2755267385,-0.5713721605,-0.6430845229,-0.5343620326,-0.321487319,0.1266611427,0.8597591334,0.5359188175,-0.4284726448,0.1135970877,-0.6583995473,0.3085496932,-0.0157100773,-0.7825280102,0.1423706898,0.0279012877,-0.6729146873,0.0099993516,0.5598708981,0.7992445227,0.5518920949,0.5981969007,0.4397646888,-0.0252573131,0.4487742765,0.8455033192,0.8259948564,-0.3165849039,-0.7922071341,0.7826352009,10.4036048249,0.384193346,-0.7498560981,-0.5345509768,-0.219552932,0.0590515185,0.3966781606,-0.6595638055,0.2100605669,0.3779335399,0.4733240478,0.4044912632,0.5104868238,0.2196237691,0.6217863782,-0.4662097834,0.7390919396,-0.3723671369,0.6880675442,0.7162079293,0.63267667,0.5477647686,-0.702859831,0.0157141657,0.0167194306,-0.0474556391,-0.7761252782,1.4143655388,0.4313611819,0.2929598555,0.1892726595,1.4316491623,-0.6791478596,0.2172175843,-0.6096018986,-0.0616800198,-0.2449306732,-0.9065497337,0.8577613428,-0.4626737524,-0.3948123827,-1.0550730744,-0.4173365052,0.5782666003,0.8714213937,0.8071358525,0.1388171749,0.99015784,0.4917909238,0.1424578872,1.3668425264,-0.2358321081,-0.771751353,-0.1509155292,0.7219748627,0.1525584953,-0.2978529811,-0.8710754162,-0.3412954672,0.9092749446,-0.8190976858,0.9678177652,-0.8575545517,0.416026799,0.0319801358,-0.547340564,-1.1209908548,-0.1833089051,0.5995977375,-0.4254945917,-0.1159470675,-0.8105416214,-0.0944741554,1.6114680228,-0.4685457763,-0.0004275378,-0.5202227618,0.911255644,0.0910436153,-0.0789862843,0.0901110466,-0.6423281451,0.9395528509,0.0452735254,-0.7425700112,0.0276968862,-2.1047995568,-0.6976645298,-0.5091774387,-0.1272797229,-0.9813380937,4.7138221278,0.166229817,-0.7923322248,-0.2838817655,-0.2939597233,0.9610535075,-0.571321153,0.2659292558,0.4658102,0.9107116772,-55.8429683281,0.0831770385,-0.9440859473,-3.2564263268,-1.4439511762,0.9592950464,-0.1166614815,3.2886005335,0.1724982449,0.0807524871,-0.5912625467,-16.7346469538,-9.0258771603,-55.42624381,0.9150122053,-0.791679341,0.6969210751,-0.6197676615,-0.2922598431,-0.9346019034,-0.7124421758,3.9524729287,0.1137291347,1.0154697666,0.4502872449,-9.8335152473,0.3199753417,-15.7545502518,-0.015051101,-0.3649036056,-0.7159860694,-0.8278119644,0.1401475408,-0.091280181,-1.1985030246,-0.0303057036,0.3691165244,-0.4974924944,-2.0401658348,-0.0356450575,-0.6478686818,4.273212167,-0.4360699967,-0.8033210157,0.0268230764,-1.4795664544,-0.8137143376,-4.3766256521,0.7234747215,-1.0742809028,-0.2677957741,-2.3287571585,-11.355502792,-2.879233041,-501.9544115786,0.5707804432,0.1710561626,0.351065071,-0.4908238758,0.4831403092,0.2344443571,1.0110158637
   0.4417382288,0.9952811514,0.3232258936,-0.4069539374,0.5723855842,0.1150716774,-0.9736337283,-0.5382444299,0.8321675139,0.1107627193,-0.3368592696,-10.1333045633,0.1087773341,-1.1013492815,5.1757096443,-7.1959861869,-0.4975173287,-0.8265329218,0.2920327855,-0.2664430419,-6.9810422141,0.8986079995,0.9771846795,0.0590222873,-1.0756052323,-0.8570216569,-0.6854340602,-0.7191779504,0.1244690126,-0.8344299999,-0.1159505453,0.8780180273,-0.1240560827,0.6353597532,0.2801962675,0.1523760332,-0.6211934761,1.3662319665,-1.3050789564,-1.9477826977,0.3687246136,0.6125808718,-1.0542764375,-0.0160543393,0.7598943347,-0.6406545296,-0.2075484225,-0.7977879592,-0.9582234488,-0.5677922057,-0.2869450728,0.6988550082,0.0332272366,0.3686230256,0.4273346235,-0.322045079,0.9643862236,-1.0552115688,-0.6599648316,-0.8163262593,-0.0824038241,-0.6232275087,-0.585827707,0.3985886949,-1.0074275294,-0.8607144433,-0.3685223789,-0.0139778292,-0.3478984656,-0.6251147694,-0.0784539476,0.1075538595,-0.9226937672,-0.7755240129,0.0849465169,-0.4913481376,0.4953118738,-0.2153468204,0.698274855,-0.698085881,0.7514993225,-0.0757321869,0.0174568722,0.6594482532,-0.6766904502,-0.3614628132,-0.5857272026,1.2625298027,-0.5318261314,-0.1917229319,-0.251605488,-0.0993878439,0.1171637367,0.9854746345,-0.3235007519,-0.1339807584,0.5280893611,-1.1081806967,0.8760663312,-0.415739199,-0.4121765888,0.2968307376,0.2142936254,0.5941784891,0.6725833038,-0.4989599495,0.135609233,0.1282138912,0.0635822516,0.2096762301,-0.0944059044,-0.5827005757,-1.5872095665,-0.6980819128,-0.7560444922,-1.1738828594,0.0475927774,-0.6857098265,0.6893482961,0.2490817943,-0.4395783927,-0.2754906135,-0.9886905271,-0.9095210071,0.4127877712,0.609679445,-4.0004727915,0.3934259026,-0.4442163254,-0.8309846849,-0.4881732824,-0.6702382249,0.7183767068,-0.6531592723,-1.0940254494,0.3251713669,-0.1626504009,0.1709597146,1.3571459762,0.6492404882,1.0880401218,-0.9585414831,-0.3518699713,-0.486177136,-0.8589769841,-0.4597937501,-0.5660662146,-0.1576464821,0.0772070978,0.1620067831,-0.2936139886,-0.4740983466,0.5391756123,0.7585742697,-0.53132776,0.5142964357,-0.5055241448,-0.345661555,-0.3670967027,-0.6737128177,-0.8716320681,-26.5468631105,-0.8852644156,-1.1602798096,0.0489358376,-3.0074242978,-0.034218603,77.5233744367,-0.9215425205,0.5225519653,-0.3251824699,-0.5033735722,-1.121037847,0.9111243875,-1.7326042248,1.532287758,0.5176337351,0.042873446,0.7513429947,-0.1293241993,-1.0280306124,-0.8320126315,-1.1021677848,0.3277704466,0.3777481963,-0.4200708455,-0.2363092899,0.2300815641,-0.7781196785,0.5403792181,-0.3518964215,0.5020880238,-7.2043576519,0.4112830054,4.7803804542,0.1440086921,-1.0806112973,-0.2915046728,0.2146635208,0.4498606401,-0.2546286267,-0.5301973983,-0.2377255741,0.7009058582,0.1503371185,0.0862820463,0.8184582693,-0.345823556,0.3926036112,-0.8603249671,-0.1356035513,0.3037712232,-1.5643647406,-0.1129913933,-1.473248451,-0.5384410167,-0.0911233251,-1.8118209284,-0.7882242908,-0.144107115,-0.5274998683,0.4211283379,-0.4260259442,0.2983682331,-1.0595882491,-0.6876430014,-0.4097223335,-0.8445559948,-0.6102616862,-1.161539435,-7.2446093971,-2.4487999994,0.5032725997,0.3526414307,-0.4896645537,-3.7395200734,-3.8517238987,0.6792767545,-1.594989094,2.8907540939,0.922027168,-19.6228838266,-0.5418709976,0.5184937775,-1.5524492405,0.8827756538,3.2247383025,-8.0255227187,-8.3298913911,-0.0844082184,-0.2747492152,-0.0311560129,-4.17994263,0.9802619338,-55.4531705981,0.6869706258,-1.7686262792,-1.242954914,0.1217294707,-0.6931649948,-1.0984567665,-0.0202426846,-7.4934733441,0.2904356537,0.7270207892,0.3893609044,-1.7753367379,-0.6967194339,-2.3654038071,0.6068978057,-0.5077435498,-0.5750435295,-2.074105394,-4.1065470277,-0.8704200708,2.9379151768,-1.6102664599,1.4328672895,0.2756476843,0.4123759235,-0.6471536647,-0.3694722901,0.4955350095,0.2608820348,0.9506592234,-0.8564945161,-0.7535155475,-0.0665169605,-8.3106403077,-0.2041089618,-0.7881454444,-0.6040652029,-1.0021399389,-3.3733774656,-0.6967043587,-2.2357248987,0.7957257133,0.6946476111,-0.5092070323,-100.2955272358,-1.2214600408,-1.3181688977,-0.0291641543,0.3184078661,-0.6428480407,0.3224725367,-0.7419938386,0.8854890776,0.0110225671,-0.5866405616,-1.2200847518,-0.2350314415,-3.633385322,0.6202539805,-0.3056348742,-0.5458381039,0.7812010973,3.2316585271,-1.0801796297,-0.9779991037,-0.8041126495,0.4681686252,-2.5456904515,0.3330947748,-0.6878779269,-1.1799548658,-0.2814061326,0.591088438,-0.5249350195,-0.5540056384,-0.8475716499,-1.1257471902,4.3853591336,0.2651661088,0.6839884035,-0.074367951,0.1907581575,0.6221482297,0.074376398,-0.3709970383,-2.4768664779,-0.9938999092,-1.1487906453,-0.8889604477,0.1122821012,0.7367906235,0.1805273091,0.5455005392,-0.8830260902,-8.0942418638,0.0179174583,-1.250458079,-0.474482415,-0.2170294536,0.5505022155,-0.7798664549,-0.976751984,-5.0259801666,-0.3709562419,-0.7824211965,-1.1903076624,-0.2939165095,-0.6800259775,-2.6669091072,-0.0801006389,2.083534415,0.635074742,-1.6923979778,-0.6897413887,8.4521536331,-0.4452148111,-1.1875770204,-0.0969654411,-0.1948952815,-3.7132165081,-0.0661375362,6.6970919091,-0.1960713857,0.3669694373,-0.4019271308,-0.5366929051,-0.7371242258,-0.0950531678,-1.1525165286,-1.1153770068,0.6246888383,0.2110335707,-0.6548863248,-0.4796971505,0.0495870688,0.45557592,-0.1527140339,0.0379917465,-4.1963912824,-1.2533281378,-0.8798756123,-124.4827698897,0.5549271026,0.0467402346,-0.0969861733,-0.763801604,-0.2914003135,-2.8266109846,-0.2346165556,-0.8120503935,0.1147465255,0.5783484555,0.7921147637,-1.0231787821,0.0294567011,0.2668996654,0.0775860706,-0.2792772853,-0.6066693649,-1.5980605501,-3.1409693657,0.2887951044,-1.2436925247,2.6745352301,-1.8197846963,-2.566943529,0.5025345371,0.1145259616,-1.0465565231,-0.9210172875,-1.0815861028,0.038840984,-0.6025003757,0.7219768172,0.2535290083,-0.1143122216,-0.2015579751,-0.1388465296,0.9839672013,-0.2825201894,-0.1934419113,0.6220133081,-0.8285792416,-0.457472318,-0.7597925276,0.0700669269,-12.3593476269,0.3203498431,-0.3842784374,0.5990765468,0.0110555027,0.1389028366,-0.9825710907,-0.526876922,1.5939634985,1.2857763554,-0.8833593021,-0.1389909673,-0.5230112406,-4.1965116267,-2.4044424216,0.0188554293,-0.3974124315,0.0954646471,-1.72538686,0.9175813879,0.4045500365,0.169978096,0.6399111755,-0.3921990614,-0.3105701197,-0.3527644798,-0.2119171722,-0.1281052157,-0.3893207934,-0.1010886934,0.2256063015,-0.9514131068,-0.0262750957,-0.5506660279,0.3529296277,-0.0232593396,-0.7062917113,0.4211621467,0.6465760973,0.6817470011,-1.0972190347,-0.2166914111,0.2669542894,0.1302684141,0.0026513661,0.3677178356,-0.2180659214,0.2464118,-0.0612998023,-1.1958990794,-0.7262968696,0.9770040506,0.0017253907,0.1259776937,-0.2264051466,0.5746163296,-0.8493714484,-0.2364426712,-0.8412002623,-0.1981396598,0.2656304594,-0.1886269171,-0.6208673333,-0.0452557752,0.9824269587,-0.3896311558,-0.7682109388,0.7946747966,0.1780860826,-0.5750572898,-0.3230366002,-0.4888382465,0.1526655079,-0.9988804001,0.3647350227,-0.5156959239,-0.6391112001,-0.2491182418,0.1806506958,-0.0396893719,0.0808269761,0.4047986502,-0.9613311452,0.666759786,0.2804823825,0.4316916497,0.7059775508,1.5622342534,1.5972824273,1.4676442265,-0.0303114824,0.6260791851,-0.0071552957,-13.3241012412,-0.6118595035,-0.740068163,-0.978948363,0.5002974485,0.3885275438,0.7577799153,-0.4532071815,-9.6016070348,0.974863968,-1.0247445456,0.9843167885,-0.9667957601,-0.7594190337,1.0096145229,5.7862593019,0.0952261815,-0.1702819707,0.9284204516,0.6748522539,-0.3940025174,-0.4066590625,-0.0627495256,0.8083017729,0.7071857203,-0.7090994655,0.4459745073,1.0156239391,2.267857891,-0.3678569178,-0.8482569958,8.1688116575,-0.2808470362,-1.8917663065,0.8164366932,0.671906449,0.6194324437,-2.304196002,0.842236795,-0.600171334,0.4285625459,0.2361077435,-0.8977554003,-0.7614973642,-4.3667214912,-0.5184725632,0.9895164116,-0.4320628378,-1.0127573251,0.6634389217,0.7514472861,5.540306227,0.1165070711,7.4629906497,-0.6959418609,-0.6326631891,0.3456036844,0.3230208033,68.8937637638,-0.591277911,0.3862034856,2.0767825103,0.6460710744,-0.3681076073,-2.599071109,-0.5369694693,-0.2781478892,-0.678154594,-0.3988038219,0.2096461238,-1.6927021376,-0.6497886675,1.0765413387,-0.1155734733,0.2218225709,0.4628265451,0.7741900724,0.853658399,-0.9182501264,-0.2372707994,0.8033249238,0.9404557795,0.0673940623,0.7930292842,1.7414491538,-0.8759889157,-0.0393134491,19.9778753908,-5.4786098456,0.8614123308,0.7003829314,0.3783013407,0.9735372628,0.8943867448,-0.8423357798,0.1598875772,-0.619109409,-0.4632840343,-0.9245242089,1.3392945407,0.6342521061,0.0733163351,-0.7160657743,0.7006670558,0.1464003205,-0.8213558513,-0.1147459184,0.8236377353,-0.0512592261,0.6264079199,0.9104549591,-0.4657658676,0.5230646523,0.1108135316,-0.0789491457,0.3980657358,0.1245140861,0.8670273795,5.04812581,-0.9549070169,-0.0682015623,0.8932100197,-0.3310367765,0.2205898187,0.7351061295,-0.3457377949,0.1830964041,-0.0541255087,-0.3136775232,-0.4576514348,0.0771893233,0.6705907593,0.9191855467,0.1166141648,-0.280680109,0.0956476642,5.3778877715,-0.3336843274,-0.866933536,0.9018544514,0.3463951213,-0.0791197993,1.2361557529,-0.7504851692,-0.4158863281,-0.2181908029,-0.1772463815,-0.5207756545,-0.2948559514,-0.9354942625,-0.4644549418,0.494479743,0.5153852845,-0.2665058893,-0.4312548317,0.2013696562,-0.3527922947,0.4968567965,-0.4331574152,-0.5837433551,-0.6215483314,0.5650964323,-0.1599022585,-0.964030564,0.3375897169,0.1160716222,-0.4578211632,0.6724899742,-0.0714556968,0.0328334652,-0.9214620353,0.3558692465,-0.2104129697,0.5006377948,0.2372177892,-0.7607206165,0.5543118695,-0.8246488888,-0.4673429922,1.1212725392,-0.6849025749,0.974376477,0.8009195795,0.7110455988,-0.988170975,-0.858334271,0.8133304344,0.1743704796,1.8246939117,-1.5000217322,-0.0233512334,0.1023090102,-0.758012637,0.2714738406,0.3365489809,-0.5270431186,0.497538214,0.4219395032,-0.9270095792,-0.8167645893,-0.3849547026,0.0387029828,-0.17110549,-0.0387772444,-0.3662857728,0.8136298601,2.0628420505,0.5689507945,-0.4655359185,-0.2676950979,-0.2928470331,0.694805741,1.784298159,0.6520465857,-0.3352203487,-0.2073083203,-0.1113232157,2.0508044825,0.2329130707,-0.7803272345,0.9744191363,1.0302754493,-0.757135907,0.5038995535,0.6560879037,-1.0302422039,-0.4169150805,-0.011798987,-0.3170122347,0.0499668522,-0.1152362052,0.0190168243,0.7649157397,4.4823524543,-1.8800429037,0.1939635295,0.1673079809,-0.5389437216,0.7608352856,-0.4648485162,-0.7319269106,-0.145262033,0.8864772578,-0.351610236,0.0272679194,0.2107123519,-0.0194198224,0.6023558731,-0.0384270424,-0.3398862287,0.0127673292,0.3284884867,-0.7548363931,-0.5510870473,0.7653924538,-0.1057872527,-0.1651508046,-0.0801529657,0.1445584696,0.9217439728,0.559905128,-0.9802269674,-0.148392567,-0.2062220481,-0.1677623102,0.8413401252,-1.3009867065,0.851304502,0.3823760835,-0.7510691647,-0.5632826947,0.8807105545,0.9166698014,0.0243123876,-0.3169330701,-0.0628123411,0.3922035386,0.5608115285,0.9118690766,-0.7029848687,-0.273544111,-0.2369639954,-0.6489376869,-0.291514715,1.2066688827,-0.3736523772,0.3291517513,-0.0139825219,1.7266800408,-0.4120593913,-0.1521598782,0.7337426387,0.1450646087,0.5407496065,-0.7692105205,0.0179749355,0.7304067968,0.8099103173,0.2845472307,-2.6250383316,0.5561323927,-0.3971599896,-1.7477263669,0.703517322,0.0145045261,0.3123226099,-1.0412346842,-0.9202991411,1.0715027604,-0.2554145334,1.3427742775,-10.1175103201,-0.7226629095,-0.4987083003,-0.3092793448,-0.5472548441,-18.9068205446,0.4659860083,0.2517003503,-0.2757954903,-3.8913445849,0.5857029345,-0.891403388,-0.279436067,-2.9538135735,0.2351574418,-56.023567646,-0.950667291,-1.0983881925,0.4514450248,-0.4716574295,0.2282384869,-0.3436414994,0.4550257956,-9.6818844407,-7.7940913335,1.02981823,0.9428178766,-61.3984857819,-0.5348407619,-72.3491993046,0.6592379047,-0.2696711738,0.3381911834,-0.1051681653,-6.1182182945,-0.2981692464,-42.236032585,-0.4358969477,0.2080340718,0.6896864865,-0.616644571,-0.2168293067,-0.5488803587,8.4009933331,-0.912652364,-0.6634722904,0.3540013972,0.1520125846,-0.6971719883,-4.4881207456,0.9017537316,-0.4545106124,-5.3368959148,-6.8300689692,-14.5103607479,-1.6518806315,-380.5756461837,-0.1933029933,-0.5750088278,-3.8138536961,-15.9220929494,-0.3179014469,0.2274266187,0.4834532515,-0.138207492,-1.069350158,-0.4809607784,0.2419963474,-0.1255926486,-0.772742531,-0.9007965465,-0.4419801677,-0.437738656,-0.6804183199,5.5647177351,-17.5073073126,0.0957865442,-0.3512216878,8.2292624969,-18.8135047019,-11.3843321287,0.6070486387,-0.3103131807,0.2621945813,-0.6482125306,-0.3535343627,-0.363119837,0.1488378792,-0.667676651,2.3445317862,-0.5175677592,0.9539966555,-0.8687684758,-9.1858028458,-0.02050551,-0.5331502454,0.4082714147,-0.4559748698,-0.7505647491,0.7347039009,-0.7934255999,2.5514223335,0.4953023841,5.4783637041,-0.2079847684,0.0768261763,0.1671841226,-0.2641420597,0.6760714498,0.2346426654,0.5732483725,-0.8398636925,0.9898339942,-0.1803156162,9.7621010838,-0.2401968336,0.4629611599,-0.1700261253,0.1899713303,-0.1041764755,-0.7676991733,-0.2983982429,-0.7654234614,-0.2230834893,0.6043389502,-0.6919267819,0.7291952445,-0.3787580813,1.948122299,-0.0683969367,-1.9402107883,0.4513683142,-0.0490897732,-0.8709823535,-0.7977938706,0.0137433543,-0.2541466939,0.9785540175,0.6377272574,0.6742216936,-0.0870204691,0.2745197353,0.3130884015,0.3627629749,0.3216054064,-0.2551813012,-0.9151873711,-0.6214418633,-0.5923985122,0.514334867,0.1509614973,-0.8678757083,0.1692912897,-3.5541676208,-0.7655602253,2.8337838307,0.7056677651,-1.3199148083,-0.277816428,-0.3759300888,-0.985471442,0.9510238025,0.1798753005,0.2387398596,0.0501823291,-0.5221875591,0.6990367064,-0.9951013472,0.6475432422,-10.6345521899,0.0492397885,-0.7905223491,-0.801431438,-0.0877660465,-0.3667468801,0.0905181737,4.4341239157,0.652222805,1.0024252545,-0.0260831093,1.3899648007,1.9568230209,0.4790926793,0.0266736822,0.3358855581,-0.6791339179,0.4660074932,0.1815297859,0.1914291845,0.075664812,0.0612013471,1.285302554,-0.4827936283,-0.2698378193,-61.0870769505,-0.5204747423,-0.3712656624,-0.1816955873,-2.490522051,-19.5168904665,0.7897361752,-1.1597152836,1.1478210399,-0.8437883163,1.3941959378,0.3148699077,0.4783975339,0.4158427086,0.6422004248,2.139420698,0.5217910897,-0.4997097266,-0.9605064617,-0.129051867,0.416373419,0.0144040205,2.0919758977,-0.6387003859,-0.5266948415,-0.7525173012,1.0711837332,-0.4597247665,3.1147833169,0.7848626957,0.6768357732,0.2350992013,-0.3754981071,0.2917968829,0.7156756776,-0.3985851108,-0.0190234299,-0.3716018293,0.7497145145,-0.6947954338,-2.0649683946,-1.794672467,-1.296629997,0.5085032422,-0.8754836519,-0.7362216435,0.9494160382,0.1334695991,-1.0639414688,-0.4872296699,-0.9791724544,1.17827602,-0.2845063648,0.0486899767,-0.4142919589,0.4308079574,-1.1200527393,-0.6893855305,0.282704303,0.8571763295,-0.9638281816,-0.0721302622,-0.2009122259,0.1622757884,0.5649196553,0.4538892741,-0.8803728252,0.8843370279,0.1527332475,0.4624011245,-100.3527350752,0.9504328243,-0.5115466667,0.2597788522,-1.0127509853,-0.9372790734,0.4698208678,-0.7458754401,-0.2843588073,0.5658680821,-0.0651751451,0.6150890147,-0.3782214913,1.843951166,0.1586253265,0.834492996,0.7236718698,1.8635472065,-0.5778082695,0.5885521213,0.2683383017,-3.1261816579,-0.3308126237,-0.8696157279,0.0747785227,0.0719842201,0.2430183506,-0.9145151058,-0.1591236536,0.6534795182,-0.5384719286,-1.0751394382,-0.1297415699,0.5074654102,0.9385367386,0.5298787988,-0.900100245,-0.2332577693,0.7922727242,-0.3803662632,0.5233447292,-0.7894896096,0.8163823576,0.213433085,0.1347467804,-0.6891729791,1.050509883,-0.3071815267,-1.0688021946,0.3779263044,-0.3113422914,-0.6575093439,-1.2670557315,-1.0435128131,-0.2841826807,0.5138939628,0.9137696428,-0.4070060182,-0.0893791908,0.8902388416,0.0182424104,0.3213170876,-2.2629770791,0.8699048753,-0.5354602923,-0.162205836,0.2094157404,0.038718907,-0.2553336676,0.9410202448,-0.3135460637,0.2878571288,-1.7224981615,0.5133705477,-0.8899247879,-2.4370680819,0.5067039836,0.494972412,0.9044698027,-0.6912341471,0.9160747878,0.351655712,-1.3726633833,0.873704475,1.0166381263,0.1773333175,-0.0919081961,0.108004375,0.6654105055,0.066153027,0.3785185183,3.7413701281,0.9033054198,-0.657404716,0.5851835258,-1.198076662,-0.418506328,-0.208333306,0.1942531892,0.9049419429,0.3242805154,0.9076331339,-0.230236082,-0.7053071059,-0.5142174982,0.5232740237,-0.5526822904,0.3825682498,-0.7001473636,-0.5510949192,-0.1244898643,0.516766203,0.5833028127,-0.1454742346,-0.1495127621,-0.3569361637,0.0673260474,-9.8036329951,1.015486459,0.320460762,0.7920784638,-0.1885853496,0.3666539147,-0.1902184277,-0.0127226891,0.1819625108,-1.3439768534,-0.8311637812,-0.9656321363,0.7082324034,0.073123164,-0.4075471875,1.6952439002,0.2270723906,-0.7680291863,-0.678869167,-0.3255214138,-0.0815772465,-0.2907660655,0.2783061107,9.4720202351,-0.1423954189,7.3206405183,-0.2305472277,-0.4261278055,0.4541665447,-0.6231325418,0.0880997886,0.7832152147,0.2891708037,-1.7651595239,-0.4074125279,0.9663726988,3.1707428118,0.9835348643,0.1019817292,-0.8225157566,-0.1211679367,-0.291452638,-0.9057587953,-0.4804087874,0.4793849492,-0.7014888533,-0.0037725585,0.0350899579,-0.9108866691,0.6637902372,-0.6188492094,-0.4242291765,0.0635483488,-0.1523778688,0.0700246908,-0.2065383431,0.7030895995,0.4943224057,-0.6163109604,-6.0406782335,1.2820205517,-0.5344168991,-0.7108382688,-0.7391899364,-0.7811620507,0.7382046818,0.4553410083,0.4364357929,0.042494465,0.2124844571,0.5956077748,0.1025286223,0.8051252549,0.4381525882,-0.267322653,-2.3890972368,0.3448881691,-1.9086944453,-0.8894146003,-1.9897580564,-0.7718737166,0.8251191533,-18.5558677133,-0.5099058193,0.9014062322,0.3740975724,-0.0928614236,-0.2718089162,-0.0795582441,1.0195038755,-0.3627901314,0.2432890683,-0.2579105735,0.1001384484,0.3428863215,-0.2124984887,-0.4263839903,0.1145451369,-1.953752418,-0.7494100445,-0.3490400023,-0.2699058624,-3.1626161077,-4.5218408027,0.3911408285,0.1660785501,-0.3665828439,-0.0372168273,-0.679680287,0.2975608611,0.4171508827,0.8173526564,-0.3684279285,-0.3806274197,0.6351850832,-0.5124965376,1.2978998424,0.7525625048,0.6184672182,0.8430346049,0.189364959,-0.6904364685,0.6854914825,0.112829341,-0.2914102461,-0.1442754609,-0.475758837,-0.8419055714,0.3501794071,-0.6011748969,0.1490647308,-0.8890951498,-0.4395133432,-0.6030838192,-0.5775574076,-0.1194804213,0.2045765524,0.2738676738,-0.1949301786,0.4024313556,-0.799830318,0.1387726582,-0.0284650748,-0.6332049506,0.9881715477,0.6384594187,0.7004754551,-0.8955126224,0.0802255398,0.5493819412,-0.1381229636,-0.3340991793,-1.0029487191,1.7227909665,-0.8350075007,0.9671316714,-0.4642700642,0.1442624245,0.3574293146,0.5271270912,0.2285784111,-0.7544770056,-0.7937353451,-1.2301471648,-0.7205877769,0.212207976,0.3402919515,0.3199151774,-0.8605590776,-0.5800311945,-0.351258692,0.43930084,-0.7658698659,0.3903070052,-0.4268306093,-0.4934950842,-0.3464988874,-0.162084323,-0.9168029839,0.5459242374,-0.6805714307,1.0200548598,0.0063613247,0.3041934402,0.5951524594,-0.9175562181,-0.8372466532,0.5760176576,-0.0132719587,0.2269958062,0.8390059042,0.3819725289,0.1758412828,-0.3774935935,-0.2238707932,-0.205928726,-0.6158063342,-0.6050417185,-0.1203778868,-0.7756666136,-0.9409014514,-0.428877268,0.8033889089,0.7738010293,-0.2016698436,-0.0274731916,0.7658586114,0.3301632705,0.1194043999,0.7335968241,0.3424637713,0.6794374993,-0.702924439,0.5989633791,-0.1696641016,-0.420565524,-0.230635661,-0.4675316207,0.5606048656,0.3201238401,0.0315731133,-0.662660681,-0.5169897268,0.7918095532,0.7520703986,-0.2006136815,-0.0906140594,5.4749377831,-0.3234009957,-0.8033587668,0.5714318467,-0.9515283821,0.2538664112,0.2679174922,-0.9639476359,0.3095168171,-0.266387039,-0.0128318519,0.1720846594,-0.2675297076,-0.9692394909,-0.1508457506,-0.7195880771,0.0302733603,-0.2191155526,0.166191494,-0.5429911864,-0.7183689364,-0.5386627879,-0.6792946342,-1.4523448098,0.0272111459,0.5819992104,0.2209237297,-0.4842950221,-0.384061877,0.7131281424,0.1864600884,0.7464593323,0.3664418383,0.8447756425,-0.29295952,-0.7587447434,0.289291841,-0.6468745126,-0.7672218198,0.8337223264,-0.6478319185,-0.7207832862,0.9326282428,-0.7361513005,-0.5931801366,0.2023513048,-0.6210154643,-0.6458228036,0.5289540201,-0.6017823764,-1.0132210637,0.0387888227,0.8276235853,0.7885181509,0.1948187712,0.4051120963,-0.1199433576,-0.4230274464,-1.0439887287,0.0489878995,0.8996832652,0.4558501106,0.8674154178,-0.3616327484,0.5569093293,0.8221663633,0.0518847461,-0.1526223731,0.5169192185,-0.0752246633,-0.7555836699,-0.0359599692,-0.9214666768,-0.3251497149,0.0438696928,-0.0264446609,-0.2154763194,-0.1115870189,-0.0670799111,0.8155967639,0.4165889221,0.729714619,-0.5345342917,-0.1448135104,-0.4630777773,0.2278213539,-0.0777667376,-0.7495237442,0.0095933537,0.176047715,-0.6898655791,0.3277928929,0.0498065258,0.4477533853,-0.0035428978,0.5947675413,0.7770376489,0.9689787142,0.9300232022,-1.2759644771,-0.0590943319,-1.3216984217,-0.0664104988,-0.0380144336,-0.8671718783,-0.1207337611,0.1098507358,0.8832333133,-0.5546477638,-0.8030765361,0.1984584502,0.192533777,-0.3045176612,0.3111029512,0.1507638206,0.3328833403,0.6427632453,0.8634679469,0.4298044883,-1.014003881,0.9481223343,0.3827263687,0.0924976114,0.1362655816,-1.0354243604,0.58517385,0.8017999792,0.7279576457,0.4653476124,-0.8834617932,-0.4154321318,-0.9717220803,-0.6315626259,-0.289606375,0.880605655,0.0100862475,0.993659261,0.0625220349,0.9100597214,0.676532426,-0.1701020523,-0.1231090007,-0.3997663171,0.0581217321,0.7122240807,0.6862100013,-0.3805731192,-0.9132235925,0.2502949473,-0.7856088902,-0.9248904458,-1.0617252537,-0.923154469,0.7332140806,-0.044005343,-0.7126884237,0.4577577148,-0.4770508624,0.8083769705,-0.2980181499,-0.0333772982,0.6977175087,-0.7478179693,-0.3181350162,0.6664481414,-0.8752222695,0.608536334,-0.9372326331,0.4228079645,-0.035285115,0.2103915145,-0.4356234966,0.6271308259,-0.3119943701,0.3104787297,-0.3692378578,0.9054414795,0.5384020734,0.7951891287,-0.3717721024,-0.7879365454,-0.1094308661,-0.7384738966,0.5059688648,-0.0036652302,-0.2399137192,0.3445182688,0.417770836,-0.3673669056,0.6040396267,0.3728790004,0.254000182,0.604354851,-0.8298744703,-0.231212838,0.1583045107,0.0820646011,-0.7845726284,0.6942635163,-0.0538313338,0.4217669218,-0.5280869764,-0.989384429,-0.1895596866,0.4143757831,-0.6764780036,0.3364653457,0.8828254933,0.1087129528,0.0087793376,0.6697048918,-0.4528201085,-0.831874588,0.9084215102,-0.7269948813,-0.6382017905,-0.4606853277,0.0016854663,0.194644463,-0.705176468,-0.3842329609,0.099239799,0.0211423999,-0.8077460125,-0.0702004005,-1.6881248185,-0.2131239021,-1.1340986186,-0.8779539435,-1.3218541982,-0.1377629296,0.68629312,-0.9173864247,-0.140312251,0.4129214602,-0.0248105926,-0.603677636,0.4767457575,-1.1502569395,-0.0910113618,0.2763905433,-0.8137054452,0.4919372244,-0.1798112347,-0.3045615788,1.0167868833,-1.0037474586,-0.0115499559,-0.0885774895,0.3663116845,-0.6940587189,0.7164202228,0.5612488519,-0.2179329438,-1.5152442076,0.0994827845,-0.637924337,-0.0544311874,-0.6092526692,-0.7137966521,-0.7298359858,-0.5592962869,-0.0118330293,-0.218741972,0.1880535093,-0.7293930638,0.8826532692,-0.2214260792,0.992781105,-0.2223934929,-0.105743745,-0.8204044273,1.0198641893,-0.3066739945,-0.2309770157,-1.3286719897,0.2697503684,0.1208614649,-1.1379818388,-0.7339245058,-1.647573384,0.4234333338,-1.5816281354,0.3165521546,0.9420141013,0.7393568339,-0.1518100457,-0.5125346747,-0.6233019901,-0.3816120377,0.1639355629,0.1151226504,-0.5577712502,0.7038751323,-0.1195308474,-0.7513198119,0.4080477076,-1.5285101536,-0.4381188607,0.573822588,0.4025548173,3.8235313709,0.3963064092,-1.17938633,-0.0300574672,0.8992583974,0.9570295514,-0.3099843904,0.2624589844,-0.6421707537,0.3401627509,0.9543724476,-0.7681068111,-0.8758812201,-0.84133597,-1.0340971319,-0.0708863099,0.5375138027,-0.9336993789,0.1546681518,-0.6147850349,0.9485912747,-0.6641654615,0.9942354715,-1.3789117545,-0.5701520678,-0.5597271323,-0.640625654,-0.4009558877,0.9029986253,0.7955555262,-0.8351947488,0.144537154,-0.0084008843,-0.9490309071,0.4999731755,0.4452240276,-0.8764433797,-0.5020815044,0.8065561197,-0.921592498,-0.7383714211,-0.8833970664,-0.1783921862,-0.7648336555,-0.7744207976,-0.7810719059,0.3977709214,-0.2935715546,0.4748427524,-0.3248771649,0.2085622181,-0.617052392,0.3128498134,1.0186646862,-0.3137375088,-0.5296891332,-0.5433716611,0.1882635286,0.0487381366,-0.364485093,-0.3652462575,-0.1931207983,-1.1717740051,0.2462601114,-0.161983844,-0.7962432038,0.4944346262,-0.0904265142,0.0849527588,0.0098567491,0.3307344003,0.5623670163,-0.9959762455,-0.6513380547,-0.5120682823,-0.6148625,-0.2800114924,-0.7182302902,-0.864347423,0.0498728101,0.1523419992,-0.3601568157,-0.3879018647,-0.9551931167,-0.8874034594,0.3915977231,0.2217795313,-0.9769959448,-0.5014019783,0.2944808874,0.9668629457,-0.2931310835,0.974953593,-1.3659167009,-0.0410130944,0.7717916328,0.0637020129,0.5586101861,0.7487997037,0.0757303316,-0.9943059892,9.6212194211,0.9125029814,0.8538304079,-0.0580925009,0.0094318364,-0.3591312261,0.8226238599,0.0081886565,-0.030157319,-0.9332136584,-0.5229708223,-1.012505875,-0.4255269517,-0.4717087944,0.311486998,-0.0473681859,-0.1743627814,0.9063623401,-0.7209006606,-0.5405973876,-0.2772048119,0.6462003619,0.1754318808,-1.2949914798,-2.4416364657,-0.801248947,-0.9467311172,-7.5785197429,0.2367330798,-8.4243606563,-0.5386792908,0.7766739992,0.6411050079,-0.502084215,-0.2021374181,0.7404912331,-49.3757581179,0.5176611422,0.4459800733,-0.6114999575,-0.411053039,0.4821202713,-0.7260650371,-0.3034553136,0.1809528859,0.1528579741,-0.8683202107,-1.6871129508,-0.399206272,0.5588370358,-0.2468969481,-0.8036444965,-0.2919809545,-0.6446708881,0.5490049658,0.168871258,-0.9310489521,-0.0153246541,-0.4043233851,-0.6303060447,0.3878962033,-0.0499434225,-3.2270740368,-0.9415281674,0.7300133723,-0.0644779197,-0.4320868193,-0.6190285943,-0.0033762457,-0.1708574633,-0.9988514421,-0.7422886673,-0.4638630678,0.9339839639,1.128484026,-1.4142639275,-0.0589817279,-0.5920396126,0.2481124989,-1.4880910395,-1.9671445495,-0.4680256047,0.1236834184,-0.7293643089,-0.5197725201,-0.1151320485,-0.4172644749,0.5641767564,-1.1477633743,-1.0806539662,-0.059489461,-0.7200219962,-0.0696786322,0.4376125496,-0.7508197559,-0.0268582386,0.4153988473,1.3357862792,-0.2999032434,0.9929418854,-0.3038475056,-19.5812824488,0.1675760575,-7.8507561585,-0.5133943394,-0.5723909795,-1.7585781729,0.5089147581,0.9925569432,1.152653779,-0.5333774467,-0.1137240172,0.8003212572,-0.7799202686,-2.2288359579,-0.0704333006,0.5054868747,-0.0966701413,-0.0416741264,0.4727564391,0.6651606004,0.4547868914,0.6753395218,0.7920568531,0.8798391888,-0.6145734321,-2.6493381363,-0.5775924789,0.0418722931,-0.8360047111,0.1767158582,-0.8480140772,0.8125248783,0.3089142343,-0.0735942809,1.0839694872,0.3830737019,-0.4311242553,2.4026032639,-0.4359028453,-0.7316838979,0.5324521936,1.0096669396,0.6374445347,-0.6182288702,-0.9647494753,0.5840664616,0.4508963261,-0.7637128852,-0.4141881128,-0.617189427,0.5683286869,0.1724149606,0.3857714836,-0.7739109331,0.2626931873,0.5840420083,-0.624910371,0.6487804224,-0.6003938548,-0.0648836463,0.4436395271,-0.6879750145,0.5393725246,-0.9761090502,-0.6701444916,0.1619763927,-0.8941860348,0.4536048769,0.1961915183,-0.1283546705,-0.6764579845,-0.6334461402,-0.8366715302,1.320687713,0.8230863045,-1.4421174643,0.5076497963,-0.7019150026,-2.2696620432,-0.040137513,-0.7471508277,0.5296163309,-0.1894965512,0.8253347379,0.6134661876,0.2627885761,-0.0168211461,-0.1616129469,0.2764729402,-0.7122387585,0.3062135226,0.6976071676
