encog,BasicNetwork,java,3.4.0,1,1657220231333
[BASIC]
[BASIC:PARAMS]
[BASIC:NETWORK]
beginTraining=0
connectionLimit=0
contextTargetOffset=0,0,0,0
contextTargetSize=0,0,0,0
endTraining=3
hasContext=f
inputCount=784
layerCounts=9,76,101,785
layerFeedCounts=9,75,100,784
layerContextCount=0,0,0,0
layerIndex=0,9,85,186
output=0,0,0,0,0,0,0,0,0,0,0,0,0,0,0,0,0,0,0,0,0,0,0,0,0,0,0,0,0,0,0,0,0,0,0,0,0,0,0,0,0,0,0,0,0,0,0,0,0,0,0,0,0,0,0,0,0,0,0,0,0,0,0,0,0,0,0,0,0,0,0,0,0,0,0,0,0,0,0,0,0,0,0,0,1,0,0,0,0,0,0,0,0,0,0,0,0,0,0,0,0,0,0,0,0,0,0,0,0,0,0,0,0,0,0,0,0,0,0,0,0,0,0,0,0,0,0,0,0,0,0,0,0,0,0,0,0,0,0,0,0,0,0,0,0,0,0,0,0,0,0,0,0,0,0,0,0,0,0,0,0,0,0,0,0,0,0,0,0,0,0,0,0,0,0,0,0,0,0,0,0,0,0,0,0,1,0,0,0,0,0,0,0,0,0,0,0,0,0,0,0,0,0,0,0,0,0,0,0,0,0,0,0,0,0,0,0,0,0,0,0,0,0,0,0,0,0,0,0,0,0,0,0,0,0,0,0,0,0,0,0,0,0,0,0,0,0,0,0,0,0,0,0,0,0,0,0,0,0,0,0,0,0,0,0,0,0,0,0,0,0,0,0,0,0,0,0,0,0,0,0,0,0,0,0,0,0,0,0,0,0,0,0,0,0,0,0,0,0,0,0,0,0,0,0,0,0,0,0,0,0,0,0,0,0,0,0,0,0,0,0,0,0,0,0,0,0,0,0,0,0,0,0,0,0,0,0,0,0,0,0,0,0,0,0,0,0,0,0,0,0,0,0,0,0,0,0,0,0,0,0,0,0,0,0,0,0,0,0,0,0,0,0,0,0,0,0,0,0,0,0,0,0,0,0,0,0,0,0,0,0,0,0,0,0,0,0,0,0,0,0,0,0,0,0,0,0,0,0,0,0,0,0,0,0,0,0,0,0,0,0,0,0,0,0,0,0,0,0,0,0,0,0,0,0,0,0,0,0,0,0,0,0,0,0,0,0,0,0,0,0,0,0,0,0,0,0,0,0,0,0,0,0,0,0,0,0,0,0,0,0,0,0,0,0,0,0,0,0,0,0,0,0,0,0,0,0,0,0,0,0,0,0,0,0,0,0,0,0,0,0,0,0,0,0,0,0,0,0,0,0,0,0,0,0,0,0,0,0,0,0,0,0,0,0,0,0,0,0,0,0,0,0,0,0,0,0,0,0,0,0,0,0,0,0,0,0,0,0,0,0,0,0,0,0,0,0,0,0,0,0,0,0,0,0,0,0,0,0,0,0,0,0,0,0,0,0,0,0,0,0,0,0,0,0,0,0,0,0,0,0,0,0,0,0,0,0,0,0,0,0,0,0,0,0,0,0,0,0,0,0,0,0,0,0,0,0,0,0,0,0,0,0,0,0,0,0,0,0,0,0,0,0,0,0,0,0,0,0,0,0,0,0,0,0,0,0,0,0,0,0,0,0,0,0,0,0,0,0,0,0,0,0,0,0,0,0,0,0,0,0,0,0,0,0,0,0,0,0,0,0,0,0,0,0,0,0,0,0,0,0,0,0,0,0,0,0,0,0,0,0,0,0,0,0,0,0,0,0,0,0,0,0,0,0,0,0,0,0,0,0,0,0,0,0,0,0,0,0,0,0,0,0,0,0,0,0,0,0,0,0,0,0,0,0,0,0,0,0,0,0,0,0,0,0,0,0,0,0,0,0,0,0,0,0,0,0,0,0,0,0,0,0,0,0,0,0,0,0,0,0,0,0,0,0,0,0,0,0,0,0,0,0,0,0,0,0,0,0,0,0,0,0,0,0,0,0,0,0,0,0,0,0,0,0,0,0,0,0,0,0,0,0,0,0,0,0,0,0,0,0,0,0,0,0,0,0,0,0,0,0,0,0,0,0,0,0,0,0,0,0,0,0,0,0,0,0,0,0,0,0,0,0,0,0,0,0,0,0,0,0,0,0,0,0,0,0,0,0,0,0,0,0,0,0,0,0,0,0,0,0,0,0,0,0,0,0,0,0,0,0,0,0,0,0,0,0,0,0,0,0,0,0,0,0,0,0,0,0,0,0,0,0,0,0,0,0,0,0,0,0,0,0,0,0,0,0,0,0,0,0,0,0,0,0,0,0,0,0,0,0,0,0,0,0,0,0,0,0,0,0,0,0,0,0,0,0,0,0,0,1
outputCount=9
weightIndex=0,684,8259,86759
weights=##0
##double#86759
   0.79283967,-0.0853045533,-0.1264474493,-0.0445367499,0.0528911966,-0.9366890186,0.3638082061,0.0663187977,-0.1517511581,-0.3781463856,-0.1134774351,-0.1493504247,0.2293797187,-0.0640739989,-1.4976824637,0.5042533143,0.0332185044,0.4489085835,0.0115356214,-0.0714561138,-0.1338467806,0.560823627,-0.150085745,-0.5537195405,-0.0525147805,0.0064759454,0.762564142,0.0366746889,1.3571993236,-0.1577998482,-0.0523191201,0.0431525662,0.0830024081,-0.3991382519,0.7812659959,0.2388346826,0.1645197049,-0.1080749965,0.1574447489,0.4443240058,0.9219376377,-0.0252864222,-0.0695973801,0.0602998625,0.0437629608,0.2123044439,-0.200342639,-0.3943556821,0.5946589323,-0.0323438788,-0.0273890759,-0.8011291916,-0.1227162609,-0.9637929483,-0.1519680945,-0.6216700201,-0.0741635096,-0.1280787002,0.0486667267,-0.7357009587,0.2050179364,-0.1014017016,0.0504061272,-0.057663184,0.1468359567,0.054876765,-0.2064968504,0.026894367,0.6762703139,-0.0440419644,0.0598417936,0.0078465708,0.0331390036,-0.7752302163,0.783824394,-0.5471421881,-0.6005015266,-0.0372379498,1.0015357166,0.0471463562,-0.0035775754,0.1577165373,-0.0231702082,-0.1142907584,-0.0529381485,-0.0161936021,0.2393514534,-0.0241328712,-0.0591372336,0.0226519427,-0.8009600157,-0.8129416104,0.1205645242,0.5692575182,0.1176595467,0.0111377605,-0.0544749586,-0.168011041,0.0558397243,0.1986011867,-0.04863773,0.0290801046,0.2872111029,0.0864360459,-0.8215708967,0.5907660872,-0.0423900453,-0.0571153321,-0.0068953839,-0.5205739875,0.9045541903,-0.1050384081,-0.5260003082,0.186052048,0.0807011768,0.5750461763,-0.8437473156,0.1282953318,-0.7032736704,-0.0410550433,-0.0568216898,0.1963864223,0.3360042045,-0.0670653395,-0.5101268212,-0.0307376887,1.6506490643,-0.5517101331,0.0599357241,0.1970735023,0.0209775998,0.495584611,0.1059661069,-0.4356271587,0.0161207367,0.9283993744,-0.0296081983,-0.8826033455,0.0157145725,-0.0271597508,0.1407831207,-0.0141060811,-0.0897257706,0.0957393539,-0.3976473519,-0.039211869,0.0428838686,0.0448875599,0.1015178113,-0.6665974508,0.2205487122,0.8627083138,0.0824874701,-0.0676467813,0.4335318,0.1815843661,0.8108386897,-0.9304327001,0.029818211,0.9478515254,0.0455095192,0.9071230306,-0.0597245297,0.1645311434,0.1555926674,0.0683071968,-0.4973096477,-0.109409733,0.1513500915,-0.4623466388,0.2035594969,-0.02352623,-1.8860371499,-0.3722034004,-0.0737286887,0.9168406315,0.1102495302,0.0801685981,-0.507757751,-0.0331365067,-0.421261559,0.1683906891,-0.1949444122,0.1054268671,-0.0962966633,0.2325133321,-0.6398836111,-0.0149581238,-0.7167177925,0.2349533178,0.0576609376,-0.6931129649,0.0798603051,-0.0023605576,0.8298871376,0.263247862,-0.033898509,-0.0805743188,0.3034381281,1.0154569942,0.3111534474,-0.0040913905,-0.4996540114,0.5839947738,0.0412110753,-0.8590494846,0.0053891123,-0.0399381316,0.0426209298,-0.8469067102,-0.0346624384,-0.8252858582,-0.0157909737,-0.4864364179,0.0781316916,-0.2729986893,0.1277038534,0.0460457482,0.0195175304,0.0771408125,0.0007094563,-0.0087101115,0.0124053848,-0.0518864309,-0.0735444715,0.1272885701,0.3923983627,0.8611646166,0.4628866373,0.097128873,-0.4543193827,-0.0016983042,-0.0317174634,-0.1550228722,-0.0497264224,-0.0989041608,0.1850907374,0.1191069001,0.4473582573,0.0367011389,-0.0330116545,-0.0868578333,-0.3753742378,-0.5959382767,-0.4238941531,-0.8758128745,0.0889562241,0.0467817101,1.172069574,0.5816480652,0.0024068571,0.6358812981,1.4078621273,-0.1447268316,-0.8564304451,-0.0741327679,-0.1648338279,-0.1110248849,0.0186485597,0.1519442779,0.0605220907,0.7865708861,-0.7784610494,-0.4634926717,0.4963369774,0.0092107476,0.5611171374,0.4194716511,0.8285925693,-0.0734293312,0.773660086,-0.0034880364,0.1814612381,-0.260489662,0.0801357785,0.5361931176,-0.7350938878,-0.0905139768,-0.1844281705,-0.3867554087,-0.1862847165,-0.5504321336,-0.1848616635,0.3658028162,0.0621301087,0.7128068217,0.155410996,0.6951544142,0.0190488179,-0.0490338536,0.0733363554,-0.1360622136,-0.0766043015,0.0236262846,-0.275705348,0.0250345895,-0.2661600679,-0.0879747494,0.0403859207,-0.0660144782,-0.0393058984,-0.8971925571,0.4439309915,-0.3335751664,0.3881478519,-0.0004016901,-0.8330164047,-0.0625803699,-0.1675518454,-0.8070979153,-0.0086200435,-0.1180729323,-0.0104550132,-0.5370986349,0.6301398991,0.2508447767,0.2600147059,0.032005074,-0.5859545733,-0.2856005285,-0.115966908,-0.4872915831,0.0505587023,-0.0315041056,3.4183084111,0.810722421,-0.1571979852,-0.6557867565,-0.1734764793,0.0662890499,-0.6792291206,0.1077942421,-0.219368009,-0.7154378021,0.1716820909,-0.1667828273,1.5864623162,-0.6458647321,0.2268122657,0.8522164097,-0.3144095459,-0.0356643047,0.0475413086,0.8080689526,-0.7543806318,0.1200200101,0.1437330095,0.0366138242,0.2436601047,-0.1328324599,-0.2408521388,0.1016926531,0.4052088184,0.0796023173,-0.1890993466,0.3663129741,0.12234827,0.4210967877,0.1867078646,0.0542782815,-0.0744307794,0.1528085868,-0.0245174282,0.2682597401,0.0536408337,0.243275809,0.0118999484,-0.0198053866,-0.2708862621,-0.0043581157,0.1924353937,-0.0791802496,0.4131255011,0.0382735166,0.0469850116,-0.0679796993,0.0345070993,-0.9165764081,0.9198776034,0.1511717433,-0.8187100076,0.0635580439,0.8067025892,-0.0588742706,-0.1052465721,-0.8152917648,-0.1603113605,-0.1707071048,-0.0567987883,0.4475813194,0.4933268534,-0.0149199335,0.0219172115,0.0473802185,-0.157139887,-0.7545927577,0.2952965435,-0.0499984247,-0.1590493148,-0.0497647051,-2.6465542,-0.7053950463,-0.0278595251,-0.7834919529,-0.1140547955,-0.0320145206,0.7718372902,-0.0113261438,-0.2654753664,0.8574924974,0.0325469854,-0.0246346912,-0.0496972984,-0.3487343063,-0.3125666789,-0.5297763278,-0.4590741353,-0.1095793352,-0.0584549128,0.7133150629,0.3414063565,0.0704297364,-0.6366379689,0.6926006444,0.0516955475,0.3057642869,-0.4345652235,-0.4466115094,0.5510019437,1.9481847062,-0.2549214714,0.6526974286,-0.0329930894,-0.2613378113,-0.081406449,0.0501838168,-0.0587745597,-0.20345281,-0.2509116125,0.8754437526,0.0723774281,0.1532298569,-0.0102797198,0.0152854211,0.3429137654,-0.0330243979,-0.1368125344,-0.0638488568,-0.3736761442,0.057815672,0.0314917215,-0.02104602,0.0386468629,-0.0508264526,0.562561693,0.4514139952,0.0316774835,3.5379766114,-0.3180369159,0.461897824,-0.0564996993,-0.5448725131,0.0502286151,-0.1127424409,-0.0052271841,-0.5168775173,0.2196662849,-0.0287558628,-0.0063163146,-0.1332542714,-0.1032771579,0.1785715252,-0.15315423,0.1957295844,0.1776326739,-0.0623972616,-0.1827276036,0.0572255061,0.0342508762,0.3948638867,-0.3253614432,-0.1970617977,0.5841648812,0.0529690077,-0.2160480753,0.1952419702,-0.0884931314,0.0468923417,-0.1094496199,0.0747213001,0.6273290949,0.5150100435,0.2661277373,0.1082336646,-0.2509314721,-0.2161677564,0.1861058596,0.7597735395,0.4494103626,-0.0364447074,0.036490641,-0.0838359703,0.067064234,-1.2004423664,-0.4852656964,-0.0657709314,-0.040357267,0.2347877694,-0.1364997134,0.2855401209,-0.1119079956,0.0861079863,-0.2213348415,-0.3713762759,-0.0407645963,0.3883633059,-0.0033817576,0.209333116,-0.0134633451,0.0608807238,-0.1390583657,0.0206705388,-0.0699299914,-0.06390855,0.1788149674,0.0722929805,-0.0352015655,-0.0563862836,-0.026874559,0.1438818478,-0.6807759569,-0.7425199904,-0.5273338365,-0.2188485311,-0.8325030795,-0.0195451403,-0.0604397064,0.6233970507,0.027002935,-0.0167419526,0.0069099119,-0.1433566002,0.3104096896,1.0998651658,0.0988162852,0.0209768868,-0.3322062961,0.3014953021,-0.1259445219,0.1104582847,-0.0921941923,0.0445363516,0.4453761805,0.8541768653,-0.0831481517,0.0611159834,-0.3517760719,-0.0439576498,-0.844166874,0.1040861478,-0.3542330681,0.1758114545,-0.0256188526,2.4999435243,-0.3975717875,-0.8798238557,0.9573662926,0.9817745731,0.9523777042,-0.1684551899,0.0621861411,0.00919889,-0.76935327,-0.1246303546,-0.7205695141,-0.1655744783,0.1651299327,0.3413654962,-0.389542499,-0.6377803011,0.6372542597,-0.2585588346,-0.2983755935,-0.8174219414,-0.0538587281,0.8273974923,-0.0691397183,0.4085130012,0.0646667515,0.9306502938,0.0237702321,0.6904245421,0.0567711363,0.126526901,-0.0236214038,-0.0523316514,0.2079294899,-0.0473384659,-0.3409523964,-0.103202777,-0.5440536166,0.0951697251,0.125257318,-0.0910521482,-0.0112143248,-0.9097374266,-0.1209972659,-0.7170999386,0.7482554232,-0.5449955733,-1.034695312,-0.0837832473,0.0634658461,-0.1191066515,-0.1142217164,-0.0337478775,0.0097313357,-0.5548130052,0.3089866899,-0.1822174731,-0.1694767522,0.5594932529,-0.1344417787,0.4117121241,-0.2049023268,-0.0973195377,0.3642301503,0.0289990092,1.0020961599,0.3893488845,0.0010004951,-0.1557512158,-0.4156822876,1.4847370737,0.0206503018,0.0657797395,-0.1049706661,0.3773990742,-0.1099390184,-0.1452165969,-0.0885876763,0.6896251306,0.7766878776,-0.799184638,-0.7130391694,0.0793582999,-0.313053258,0.6560116775,0.3759881908,-0.2979152661,0.4183280926,-0.0868553979,0.0725644328,-0.3048874904,-0.3175378848,-0.2836910418,-0.0350712846,-0.2310399295,-0.1002391964,-0.5392628646,-0.132499993,0.173028974,0.0496346711,0.2314398181,0.2635634175,0.5240163317,0.0423286008,-0.4788721579,0.0531854658,-0.2578574996,0.0066988167,0.349755385,0.0321501212,0.0722194248,-0.0833537677,-0.0231257398,0.3656900645,-0.0530728258,0.0771414384,-0.0307441288,0.1228618856,0.1689419771,-0.5689880728,-0.1327419898,0.7878060423,0.9176154742,0.9445962936,0.7002240139,-0.2508243866,-0.9006183424,0.0251034446,0.5020460056,-0.1504262732,-0.5026420665,-0.7688200891,-0.7105815517,102.1507272218,567.3423251064,0.5486073709,0.2973269167,3009.4018431232,-0.2469514637,-0.4254093102,0.8106768488,1202.8057029664,0.1171904762,3.04464556,24.2809861979,1.0432219735,0.8255261312,-0.2696242731,-2.0000154864,0.9629155714,0.0859543464,0.6941524909,-0.9460247029,-0.1854422521,-5.7226899892,0.2666845529,12.0062087537,0.6096565138,-0.583874971,1.6150623412,0.068039371,0.3736484826,0.6943067617,1.0167496261,1.129745614,-1.2727466133,774.1433047374,0.435325641,-0.9320930786,10.752660355,0.2353461637,-0.1121531636,-0.6691672603,0.7497411018,37.6412308972,0.5208011403,187.059269261,-0.5377752359,-441.7863062018,5812.5140254353,0.5164291234,-0.213067939,3828.0617658817,0.362303594,0.5113943732,0.6099916262,0.8624528053,0.3011486458,1.3218109059,3.094803325,29.7589458955,0.7298403397,0.2146444055,0.1979397211,2.7870006303,-0.4298749877,-0.7018145783,1.6118796764,0.4148613417,-0.276081929,0.6758832985,0.6116724581,728.2404268072,-0.3918277848,1.5462302405,-0.3640612142,-0.1046400233,-0.286489843,2.3808404919,2396.6653894309,0.4040321817,0.7219860468,0.4864242154,-0.4918243362,3.0841521972,-0.4756686456,-0.2838376723,-0.4986264158,-0.6312188179,0.3384614575,1.1044976533,-0.7005220522,-0.4113682465,0.537053795,-0.9109850811,0.077913972,-0.4848602181,-0.6952735418,0.8663826615,0.3896637185,-0.6690718382,0.7428055953,-0.9852341501,-0.9917029175,-0.6184627913,-0.4905017176,-1.0059227356,0.8847536939,-2.6176767868,-0.3658551316,-0.5438012119,0.3503767484,1.9595573138,-4.8628506865,-0.3425800266,4.6256571026,-0.4105609794,-1.1402624229,-0.1302495478,-2197.6372680595,0.8330432265,0.3888405516,0.3751188085,0.2086909396,0.0016792923,-0.8914592428,-0.5605809278,-0.7900021858,0.2383030533,0.3531015867,-0.0831382133,1.257970352,-0.3571895454,0.6821694502,0.3606085144,-0.9625216422,-0.0666578996,0.9947652586,0.1473236746,-4.2537942231,-0.3655455914,-0.7268982861,0.3471041598,-0.723281295,0.8534519671,-1.1291280024,0.9334896186,0.005263344,-29.2952467532,1.377927345,0.7113522518,-0.4476463807,0.4855663303,-6940.7415453825,0.506080062,-2.0621672562,-1.9531909413,-0.4949904352,3.3222134401,-2.073242982,0.6866081844,2.9371497171,0.9741704218,-1.2536338563,-0.4805156863,4.6141146146,0.5544548671,-0.1260607131,-1977.2906654336,-0.4860197486,0.1053149237,0.7537583155,-0.0887066064,-1.1694796632,-0.1528996016,-30.0720483039,-0.2735938863,-2.0666820761,13.1430454977,-4.6523284288,-0.3672200875,0.1593766596,0.4181484774,1.2107400272,-0.2740535114,-0.387666945,-0.0034163281,-0.8239481556,-11.9336507168,0.8010669904,-0.1054950333,-0.7665788843,0.8810954265,-0.5800269358,3.7186102997,0.9412348731,0.5485594923,2169.7320719565,-0.1643273669,-0.3842934875,4824.435214551,1.4421233244,-0.8215532355,0.172261579,-0.6934400834,0.5936304414,0.020275131,-0.1523648519,1.1120660882,20.0264804111,2.0582401521,0.296719478,-0.0499861224,-13.223935687,-0.0773701381,774.1255317818,13.6973266733,-0.1586680114,0.7997063617,0.6741864508,2.6064236645,-0.0501880914,0.2003650142,0.1713511374,0.7942600952,0.1618441914,0.3403925501,-0.4558254211,-0.1303150896,-0.4067365316,-0.3951189944,-18.7100197857,132.364036104,-0.0427181625,-0.1704578604,-0.5106656584,-1.7247153289,25.4440575906,0.2240824069,0.0472295815,0.7681928117,0.3302333384,0.9692280856,10.1605666861,-0.1871438617,4045.7159274395,-4.3115189523,0.7688091828,-0.3684135234,-0.9637091597,-0.222402008,-0.1357564175,0.0918692205,-2.4216398998,588.2550579595,0.9055667394,4171.9109528746,24.6335566484,309.2854410576,38.7566372598,-12.449886794,-0.1952276764,0.95374422,1.1208803631,-1.4521661629,1.3815452322,0.0148161636,-0.1018111109,-0.7683729924,8.9118292136,0.8632983594,0.43099844,33.315978241,-0.5934307357,-0.9912872743,1.056007225,0.7360346065,1319.7978012616,2.1130654791,0.4838871404,0.3574429114,-0.1511528014,0.6147318282,1.1376082723,-0.8851196376,-0.1428302281,-0.0083168093,0.135529713,640.2972288548,-0.1073161162,-0.2924240757,-0.2165381673,-0.7430094274,0.4191048558,0.0575774034,0.9910958822,0.1151260473,-0.0416490172,-1.0479709887,-0.9678945825,0.7578163804,-0.68898062,-147.2315412149,-34.9891971083,-0.1010457412,0.8531407589,0.2537790425,-1166.6466599382,1.8783428658,-0.1692255477,-0.9968433015,140.7139563701,-0.6978883036,0.8894715831,672.3756907933,0.1126116986,-2549.7718809937,-1.7187813682,-0.3355206592,-0.747139442,-1.5826068065,-1020.6421644723,0.7092968576,1.2325653694,-0.3949567279,-0.8055742941,7.1602315695,-1341.9578812997,-0.4770006126,0.182028918,-0.6869014882,-0.4728349001,24.5793348574,1.4522245599,0.2108779621,1.3689890018,-0.6730262944,-0.0491249074,-5.454662877,0.8563154773,-30.7526916605,0.8491653132,-1.0461100229,-0.2335996499,-1.0151755928,-0.8304615854,-27.5234804541,-1.4142335755,-0.3440296984,-0.3897084512,-8.6570437584,1244.5042052956,-0.9676492182,-1461.8242667555,0.8904199295,1.0975760465,-166.1062113119,-80.6545331076,-2631.91286253,0.3421845739,2.9686415401,-1994.8641533457,-0.7159397144,0.211833479,0.3904080269,-0.1213535131,-3.6749736241,-14.9154581037,-0.3042128326,-0.5049546605,-3230.8938181728,-0.6493757429,-0.7393629274,-0.4822707865,0.0798306588,-0.4874474417,0.485248753,-2.456739698,0.7224867727,-3879.5676295247,19.6330629974,-0.8298492971,-0.459793928,-0.8666782307,0.2011897512,-9.0972505612,-0.377473922,-0.4419763003,-4.0677034254,28.8995867348,-1625.3257557242,0.0543252893,-0.8019553323,1.2302744486,0.1540944652,0.3686869587,-0.6737962817,-1.0400013765,0.6444807462,-0.1939463192,0.2947675282,-2.4293590764,0.9853342888,25.6673233213,-0.2660367613,-0.6766704416,0.0547083537,16.9009315203,-2.4560754071,-0.1351792156,0.1408216653,-7.0963196513,-20.3518707088,-0.8186021092,0.6655361729,0.3231462214,-0.3229320735,0.1601004287,-1.8179594644,-0.3901467451,0.2831149655,0.0424008111,0.0734079655,-1.633285832,1.006973007,-0.3332933258,-0.7546256196,0.0558747684,286.6987000438,-0.4345416973,-25.8212235132,0.1644107636,1.6309510648,-13.1889517194,-1.1960900089,0.1049689411,0.9784082251,0.1311020019,0.7363747318,0.1223568248,-0.1563784243,0.5997626723,0.4775761202,-0.1707150299,0.9481439416,26.6800985048,0.0565533036,0.3008525566,0.0011311921,0.3525560388,-0.5498981265,-306.4337087543,4.6806464526,-4.510841977,-49.8474273737,0.5661057428,-4004.9309808474,-1.3618298028,151.8036101632,-1.1989345302,-0.3216610191,0.3648501038,-0.5090471817,-132.9858985974,0.423342082,0.4430715608,-5.135243536,0.5906719892,0.8836991957,-0.3842349755,0.0500653581,-1.6581181821,2.7675846213,-1.1543211544,-0.0920656148,-1.2353186481,-101.1989926204,-0.30727287,0.5615633061,-0.2260680458,1.4824528109,-9.7771184573,-0.0486243041,-1.5688963797,-194.9398852878,0.8894254228,0.4796688302,-0.0603282985,-0.8289199568,-1.9297993981,-25.461698317,1.3156523934,0.6117240101,-0.2986104925,-2249.2565613234,0.2985413541,-0.1452053235,0.7292537152,2.2208909071,0.8060451559,-0.6624669895,-0.2405717415,49.3359742355,0.3936747423,-0.8156709358,-0.2962976982,2151.2901074773,-0.2942424897,-0.1561223399,37.2178765579,0.113812573,-0.9529392735,0.7482323221,-90.0399665836,0.9886687916,-0.7414330418,-0.3264233137,0.3636256407,-32.4676499342,1031.2038277796,-0.8814940176,-0.7929231599,-0.8845422311,-1.5180615863,0.3465818998,4.610514193,-1.1349753733,-0.0511448943,-0.2348073305,0.0753920287,4.1752719427,-0.1440013797,-0.7806701661,-2.314177635,0.0316248673,0.0299072678,0.6141818329,-0.4176260411,1480.9778178176,10.8655003427,134.8217479742,0.1526617131,0.44937693,-0.0566967561,-0.3812458572,0.8687625229,1.4834317507,-0.7856954665,0.8575761387,0.0417417171,0.534659163,-0.0422070912,1903.556077966,1.48461616,-61.8986231112,1.8750097098,-0.2125736294,24.5714015482,-0.6167899558,0.3993305256,2.129678572,-0.1890072586,0.4071871423,-50.6694424755,0.3011118859,0.2141362336,0.1745577191,1248.1908106446,-0.3751736,0.6809004765,-1.2389497238,0.2275529521,-0.8068947838,-0.2079419626,-0.2840594155,-0.4527202441,0.1314935423,0.1494987398,636.0442947176,-0.5249307838,4.4144603056,-0.7560717759,-0.6844839592,0.7114570213,-5.2313359936,591.1853367188,-0.5626307555,-0.1731494821,0.7334635245,0.8866455057,0.3598229128,0.225756868,-0.1110087175,-0.1626637845,-0.489761672,0.7785144188,-0.2482622705,-0.2151301095,-0.4741075824,-0.4686091905,0.4501944206,0.8397099943,-0.4234020068,-0.1827341696,0.0668969572,0.8876035774,-0.8553292303,0.8645314349,0.4801206956,0.0103553988,-0.1015455704,-0.9032307012,0.4164202026,0.3099993567,-0.8938026716,0.4399011633,-0.9953098408,-0.5810877906,-0.7334392898,-0.28997285,2.0671147735,-0.8552012094,-0.2445118049,1.2832478293,-0.4628168736,0.6638169666,-0.0731907144,0.5459097525,0.5108610045,-0.0141913126,0.1267805179,0.5214530163,0.1570543228,0.0571522757,0.0619203581,0.6134475258,-0.022541004,-0.3304089787,-0.9374446471,0.6701523084,0.0443947937,1.0489302368,2.5539016625,-0.7740055385,-0.8451941404,0.7664279127,0.8455235552,-0.1766304284,0.7584441856,0.0614263793,-0.7078054013,-0.0215019803,1.1671224976,-0.9540103493,2.7697619915,0.6451173115,-0.0704000114,-0.7040273853,-7.2384352209,-0.383741324,1.6848954858,0.3738926684,-0.1063993045,-0.1519709799,-0.229400332,-0.3456001792,-0.2899935393,0.8187030168,0.5951672876,0.260405658,0.2512421825,-0.8126416354,0.9742953016,0.0096554216,0.4727195364,-0.3867221101,0.5253431857,0.2430843939,-0.4074795387,0.9867481569,-0.219786417,0.5484802681,-0.0421460088,-0.0029138766,-0.7452064053,0.3852221874,0.1322069672,-0.1680907835,-1.4218444068,-0.6436168316,0.3709140007,0.2432304891,0.0449088464,0.8402956469,-0.3621697369,-0.523189318,-0.6144547955,0.1457839622,-0.5099762352,0.0656656413,0.4999672918,0.6814509515,0.3080747262,-0.090768988,-2.4862710994,6.4053330693,0.5351917481,-0.4118845774,-0.7000527619,-0.6979365315,63.9707696188,0.7975157046,-0.779926344,0.6573296373,-0.8318591437,-60.0564225643,-0.6333598231,0.1598935951,1.0442490423,1.8290271393,0.7925413622,1.5099241569,-0.7837121872,-1.005901115,0.4085986088,0.3127266426,0.3987758292,0.1423398107,1.065124603,-0.4896503603,2.0228829074,-0.4359928487,-0.3996250344,-55.1784732734,-0.6830521678,0.0949875649,0.3615517955,0.522526239,0.4667627131,-0.5488424505,-0.0439407755,0.0564429813,-1.172352423,-3.7261582086,-0.168597835,0.1128644946,0.1155550818,0.5226787752,0.8129954093,0.250330659,-0.9165607786,-0.7133325249,-0.9139806399,0.4328264809,-0.5233881282,33.3195363647,-0.7303849961,-2.2672663793,0.6618045951,-1727.5261041031,-0.2753499846,-0.4557658135,0.1917775699,-2.0369432484,-0.9492419056,0.3703742314,-985.8218714403,0.1743098302,-0.4187100754,-0.1154745785,0.5947784163,0.2615339707,0.0590252874,0.1075222956,-8.9218192045,3.2017346313,-0.4527129395,0.4418293837,-1.0011770127,-1.6301448213,-1.0553549794,1.603726195,-0.7202849948,0.7874142907,-0.586627319,-1.0281163375,-4.6795872466,-656.6223972415,0.1612501168,1.6462919011,-0.2528646521,0.6347405412,-0.7705507222,10.4936524043,-0.6413221045,-0.5422096357,0.8973071412,-307.6909284343,-0.0672185943,0.2947406449,-0.5735321998,0.1739893626,-0.3444110581,0.3101943469,-0.6932328347,0.180846785,0.0880110802,0.2763357452,-1.058657512,0.6173502851,-15.4228436232,2277.9082141278,-100.7989738523,-1.7741203337,-2.1048208814,-1424.0248776343,1478.2058126863,0.4931608069,0.7442550796,750.8429765903,-568.459327589,-0.1801131235,-4.5467114438,-0.0399895186,0.4712056655,0.2224577877,7.730755743,0.8562725237,47.8437717992,-0.4978830006,-0.3979593059,0.1529486885,1.1368385816,0.3890784208,-0.2078364614,-0.2597790197,-1.4521828222,0.5727765324,-205.4615414698,-0.1278757208,0.1357284912,0.5921565746,0.2946603413,-0.8213359579,-0.956085325,-3.2483469228,-0.2050736032,-0.5545264336,0.1713167174,-2638.9690265125,0.7437247853,-0.5118811905,0.8031993639,2.1948672449,-745.077659084,-0.8659017689,1319.4068763202,0.6188318058,-0.4306978264,0.5842458601,8.5713873554,-12.5825527327,-1.6438641542,0.5215680654,-1866.6257875598,0.1064038196,-1934.7278489424,1.2322766643,0.3953724567,0.3817666312,10.7580815785,1.8583845518,-404.3705178553,-1.7423858652,-0.6235605129,0.0523921489,-1626.1408909935,-0.1821299722,0.6102190862,-0.1574240293,2.0581082393,-0.1914399175,-0.6698331588,-0.5518105835,-0.9277987484,-0.3699542509,0.369391526,-0.4558769121,41.3834115166,-0.5255665144,-0.7958365277,0.2524915982,-0.6651841633,-0.0798223911,-0.3052745878,0.653309412,-3.3070917895,-0.6055540259,16.294287665,-0.1872865439,-0.0896876351,-0.26322122,-0.2716927762,-0.8409499894,-0.2187707166,-0.0989748611,0.5587981047,4920.169023126,22.5631984021,10.1111753704,-0.7600374527,0.1674278684,-0.57974132,445.3961446439,0.6901518024,0.3603864495,0.4494148678,-0.5874556346,0.9390456355,-0.4730666659,1.1393959056,0.5603864883,-498.7604136192,0.8149488871,-0.0557887927,26.8932023084,0.9954302808,2.0570467892,-0.8461454941,-0.3996456739,14.7570681841,-0.1341011207,-0.2104529689,2600.0685156022,0.6384900702,6.4668550515,1.6275516456,21.6597493981,-2.0587262792,-1.2277805328,-0.7382452949,-0.001034643,-0.4513943851,24.386181504,1.808633878,-29.7417940558,-0.3425300196,0.1648977644,-0.5605273776,0.7805358463,0.1195829415,-0.8681368666,0.639079658,-0.0534593494,0.0026662016,-0.2010037008,0.7293533271,-0.1187487788,-8.7588222292,87.152257697,-0.4195176842,2.0802337756,6.8816224064,1.2736010754,1.3278210541,1.6203041888,6.5592078865,3.9130080739,0.1946185806,0.3212006088,0.9611531483,-0.0593418123,-0.8870445244,0.1405774346,0.2685589099,0.9779825837,13.5551275401,0.3759829461,6.9393057338,0.5127861766,0.4153148852,10.4865637841,-0.7969293449,-0.9284877266,4.7323587312,0.2442296991,0.7211230121,0.3397727863,-0.353837122,0.7628279265,0.39466355,0.4520382319,0.0149851013,0.0181791823,-0.2672228862,6.6596056552,1856.7836925195,0.081150771,-1.4393438639,-0.4592375473,-0.5853256108,1366.6271095566,-0.9941928959,-0.612050029,-0.9111472953,-1.9549722005,1.0143389663,1.415262614,0.4900990396,2.7302374371,-0.4634091079,-6.702398246,-0.4317395136,-0.0018631266,260.8419297859,-0.6121310587,-0.2745993974,-0.2931899044,2884.8160879293,0.8725179351,-0.5998069374,451.4693919694,0.0376316324,-2063.9178411294,-2058.5732980046,0.7725631269,-0.4857390207,-0.817206527,74.3626806075,-0.3015936596,-0.1274243154,0.4184241367,2053.4281899865,-0.0601808905,1.0892560894,0.69730512,-0.9544535246,0.4524249151,-0.1371411626,8783.6736095453,3398.39267993,-1.5108975143,3.9054526781,0.8628622252,-188.2189520561,0.042156177,0.2821463943,-7.8456849418,-0.5573433807,0.013970042,-0.9152856003,-0.1817088168,0.8938371746,0.5037275283,-0.8672254084,0.1715726307,0.1388992181,1.0079089834,-1070.5769597526,0.4853744361,0.1118733665,0.7115563068,-1185.6768737208,-0.1129300695,-5215.7184554006,-5.0379281102,6.3329664272,425.9896939443,-0.9365638321,-0.1133810353,0.1082110959,-0.2141387357,0.6395296017,2774.1058817547,114.2605707963,-63.7441056213,0.3006876464,0.5102159001,-2.4392243182,-0.1152814009,-0.6584924946,4256.4444179576,3795.4702991323,-0.8136826738,0.0776935866,0.579505344,-60.6613253001,1948.0591709275,0.3384861881,-0.3410015116,0.9482883304,6.247278645,0.1345279969,0.7309400351,-0.2425518472,0.6225734488,-1.4419703724,-0.4378233191,2.2807367355,-0.1277856313,1.3960601753,0.0897228957,-4.1218939778,1.2500424151,-0.026874795,0.6090958953,-0.9977581556,-0.5946921152,0.5417181226,-0.2951241281,-1.104835766,0.7307761218,0.009712908,-0.6052627174,-14.0159042624,-7.72093194,-0.1196416003,-0.497972893,-1684.7963430643,-0.5882078748,-0.3638939065,-0.2493097856,1.57893054,0.4549424508,0.0435377209,-121.5379679708,0.3626380135,0.0390465556,0.5278314797,-1.345430209,-0.984310908,-1.7800056263,-0.2167314194,-0.9590105347,-0.9089779116,-1.0905656834,0.8810502941,-3478.7456809136,-0.742608328,-2.6590192034,0.4557845085,-0.8735040969,-0.6804596543,1.0258019502,0.0988479015,-0.375228429,-0.2656713513,-1.1438288467,0.0628258035,-2.6963325406,-3786.7170349443,0.4211047033,-0.9687323895,-1.0496210433,-1.0241426553,-4.5880504403,-0.1390187975,0.7939478049,0.6976627749,-2486.5282144504,-3030.7550751193,-0.4096493232,-0.0984442271,-1397.446301622,0.4151872112,-0.9731916842,0.1735262502,0.2946985872,-0.683922686,-1362.6797346591,0.640166273,-1.8065085139,0.0823488372,0.5690226631,-0.5099123027,-212.1532478558,-0.5000403821,0.6258157768,-0.2332751845,0.4770926736,-0.2026186738,0.4768956066,13.1713587401,-1.4686736608,1.0639947744,-1.8084230052,-8.7581957857,0.2923697069,-3.872890946,-0.4075197672,-4912.3347805191,-10.4174155489,-2.3042087968,0.4121146321,-0.7835817237,-0.2765205554,1.7450687377,0.1379602467,-0.1587753972,-0.2796777349,0.0195910548,-10.7926165743,-0.7183587298,2.2177404004,-0.2253420232,-1.2627865094,0.3327948925,0.3470549997,-0.2799969335,6.947735948,0.7825048069,0.7890856171,9.3565178459,-5.0454366494,-0.0660805006,20.5379264102,-504.3510708994,-0.1590695761,-0.0380522506,0.5579256999,49.0677246087,-0.274243822,0.3449106191,-23.0585052341,0.2334646106,8.2286532587,-9.419836098,-0.7983953943,1.1252781705,36.3492009135,225.4139783772,-1.0025683355,0.371533594,11.3515656182,1.4358679491,-0.8144824963,-0.0754461374,0.4539144838,0.1259454193,-5.5982531362,-7.1315330829,7.8932013796,421.1072499187,-2.8529439431,8.7024252331,0.0917685869,-6.7330299522,0.3583270946,-1.5645386618,0.1582610749,-9.0898940801,0.4691703005,-0.0028844305,0.085093938,0.2328220013,-0.0318969966,-457.5591111669,0.3190999742,891.5883059152,0.8237231202,5.8410653655,35.4067168325,0.3702530144,-0.2573275231,-56.8176214479,0.1407908628,-0.6458731982,-1.746020402,-1.455158738,-42.5538060506,209.1315542156,0.8845477698,32.0437947994,-0.7624635202,-0.4820583743,0.7324867347,-0.3402558963,-0.4399854775,0.6255658446,0.5849608201,21.3324287292,-3.4796352747,-0.4829435494,3.3065337888,5.2588598762,-0.9341592966,1.2274973705,-0.1359264971,-0.1480249165,-0.9054722888,-0.2835760651,0.8048730146,0.2371631917,-0.061991066,1.6957961822,-0.5435076899,0.6858050903,0.9987252608,-0.7763372243,-0.3724533039,-0.5554543766,-0.6925663262,2.7104520771,-0.6984716848,0.3200120612,0.4901719237,0.8479049231,-0.0690691054,-3580.2485555367,0.6443602145,0.2125979024,-8844.2852674911,-124.1490890672,9.1768660799,-4.2229877301,-0.4971870318,-0.4099082725,-777.85721687,44.9278876894,-0.7128686988,24.0405397736,0.1007983201,-0.2461696864,0.4353112328,1.2443979544,0.1780986367,-11.0979118388,-23.1693481183,0.8482612413,-2316.623573195,1.7853509371,178.179498436,0.3330893454,-1.4107696193,2.6635007286,0.8810028259,-5.4074084144,-5.3140240937,0.3938963022,-1.2671729271,-0.3512473514,-1485.2123986943,12.03453447,-0.5541247134,-0.7028080647,-0.0957592306,-0.5852716895,-0.0156484229,129.4303176395,0.6981997707,-0.2018146824,-7.4388024734,-0.8874513179,0.3160003612,-948.8179942524
   -0.395771047,-17.1927310048,1.2441412343,-1.505903289,0.8337505899,-0.1544583686,-1.1218363488,-0.2430916692,0.2767748261,-0.4572460275,-2677.3230362323,0.4232932984,-301.781906668,1.6040494302,-0.7514026804,-1.1034094995,-31.5019696254,-0.1611163607,-160.4565962545,-0.9571768135,47.3949194918,0.2644616847,-21.9471577919,-0.2930269833,-1.0539876269,-1103.5745525561,-93.9854403903,-0.3755883647,0.2010177539,39.3645104272,3.5437553204,0.1042573048,-0.5522469405,-0.8924093059,0.6066377215,-0.0855118827,0.4128878091,-0.5733942403,-0.3089808663,-4.04613681,-0.0859360825,0.5666532013,0.0325114143,-23.1113230428,-2.5013336152,-1.0739001528,0.4914029757,-0.6515402355,-0.9710499243,-0.3923025897,-0.1214110024,-1.0572672532,0.4588945042,0.1035909166,0.7007487411,-0.5597186046,-0.1732603741,0.2704970549,0.6226841049,-1.8813603816,0.4102778625,1.886988092,0.5416316953,5.7036821299,-1.8557965524,-0.1352822905,-1.684160345,-2786.128589565,-0.0471274395,0.9289654141,0.5941612399,0.1224051932,1.2466206655,-478.9428737169,-0.4251216597,-0.2075525587,-0.1959594077,-1.2580968604,-0.5838142752,0.7603898571,-0.392569858,-0.0256163117,2.1981434268,0.1994528835,-0.7358144732,-7.0708253037,-0.1007877564,4.073019512,-0.0342256993,3.2107056933,0.3563517155,-0.4264119968,0.9715158829,0.1917635589,-0.6307176208,0.0524645272,-2.6532956763,3.0826599627,-10.6883390079,0.5386170815,2.0014501818,-0.3477804999,0.5198674744,7.6323124901,-0.3115683832,-8.1150561585,-0.5990903558,-1.0266872242,-76.6778300916,1.1037274328,0.7830469968,-112.4937482523,-0.35814412,-4.1912060726,-1.1012497106,1.6819798154,-0.0463997238,40.6413092871,1.0564972475,-3.5036372616,-0.9748380175,-0.5795168114,-5.5532952294,1.1267971581,0.9489333248,-0.4597670501,1.4567805466,-1.2080399817,0.2928259742,-0.7404744459,-0.472244191,-12.6122995392,-0.390310843,-1.8924397925,0.2337615968,-0.9658259075,-1.2916774002,-0.6861354455,0.1726369063,1.2838432911,-0.2684483754,-6.4538270096,-0.0481673532,-0.475418752,0.3174884223,-0.3862720732,-0.06810846,-0.3528625779,0.3848517764,-13.2093079677,0.6063809466,4.8214207272,-1.4960483118,0.2229538019,1.0690382848,-0.3401464634,1.9769224126,0.8022488991,-2.0876822467,0.1741383806,-0.0720210065,0.6782314894,0.1571984093,0.7998226284,3.0080629987,-0.7457294038,292.3719402612,0.8779411531,-10.7329838595,0.0073379091,0.6776631273,0.7985217637,23.9600500973,-0.7014753903,39.9459097148,0.2761746015,-0.7123966901,0.22221705,-8.7580135991,0.0059400296,-0.3033268256,0.2934564716,-0.2194212191,-3.6017465762,3.0593824315,0.9320183088,0.1790841347,0.3690175951,-2.4103559821,-12.6025729945,9.5284671387,13.1219361634,-0.7394670989,0.1098898028,2.2094963085,-0.1415905067,2352.4801038927,2.2806239058,0.0736052505,1.1302001927,-0.6602709589,-0.0851728923,0.0427896864,0.3792250699,0.0516051156,0.6301660407,1.0202211749,-0.6592396369,786.9603977051,1136.4144754379,1.0008218546,7.6713933983,-0.5112594946,-13.677225296,-0.1289903843,3.7938223754,-0.3228366091,-4.1591446756,275.7359915672,1.0420907081,10.6758790986,0.1158022491,1.131989022,-4.3704340483,0.3616157217,1321.9818779147,0.9912099675,-1.8073338884,15.0193461753,0.4412233835,-0.1567475285,-0.2490864148,6.266841966,0.2526634213,2.1287409362,0.5033746355,-5.4962808488,-0.7079484237,0.7888451926,0.2246820486,-0.5066170717,9.7517068742,6.6603470528,2.1482996041,-0.3075514221,2.1899944661,-0.3319543381,0.340899286,0.1772197722,0.1112394955,0.7956900667,0.4913808642,-0.352162861,-0.1358715055,0.2440876816,-0.1554902308,0.5207260265,-0.0390720308,-0.3396076946,0.5644998738,0.5437070125,-0.8996853329,1.053182403,0.347013307,0.1366469981,-4.7114387769,0.2712593846,-0.9968735517,0.6357496754,0.5224290603,-0.3946318696,-0.7526851497,-1.0353487427,0.1752840939,-0.0477831791,-1.9883698639,-0.7006879215,0.5340403004,0.0963567703,-1.8998015224,-0.3730503869,0.4287017903,-0.2314989782,0.3747114712,0.6174960416,-0.5824334352,0.7994012544,0.6840649842,0.1247345503,-0.7573841553,-0.9940805509,-0.9620825168,-0.0495753689,0.5237746575,0.5689606069,-12.0117088584,0.1098679179,-3.2341508479,-0.3744323112,-0.8428314503,-0.247537475,-0.0388576335,0.0534458112,-0.6090180551,-0.0668734439,0.6242732204,-1.7229200223,0.4902584124,0.1142653717,0.2988907934,-0.1070509757,1.3117023413,0.1169253732,1.2443598879,1.7563847873,-0.4001863405,0.6133983803,2.0348762652,0.336234434,-0.8152925098,0.6552840865,0.8902232633,0.4010817096,1.3120021969,0.1635679472,1.0991134593,1.3369476449,0.1716439026,-0.5617388497,-0.3226188502,-0.1802290112,0.7674828817,3.7480216025,-1.5080386651,0.6816539785,0.7862401214,0.1438355288,0.3416913139,0.3934453499,-0.4056788094,-2.1527951301,-0.6741981515,-0.2994222131,-0.0402566227,0.3827027982,0.428531741,0.3591433334,0.247802439,-0.7363792837,-0.3822745325,-0.9987303776,0.3100430668,0.5194996581,-5.2195308489,1452.0805837581,-2.3093072784,0.2991408829,0.5228515627,7.3831116028,1.0173232415,-0.3606310332,-873.9098041299,3.8139521194,-0.3176486967,3916.0295435338,-0.1511823858,-16.8874026917,-0.1606411184,0.0936474681,-2.5292230262,-0.3454026186,0.3294354019,0.8892095234,-111.7690970114,3978.2076672153,3702.1044923549,19.8626852745,0.091337481,0.2423214091,0.8629952793,-1.6202905933,1.0553023755,6.3113071057,0.4322363166,-6.1319331177,11.1103261423,0.3557855675,-0.8534683094,0.0113443443,-0.0580872582,-31.8824875756,-11.3818194649,-1.7808770262,487.248611871,-0.2765189955,0.9754568703,5.5664162325,-2.0803868162,-11.1792708667,3802.2809078984,114.2774384494,3.6318382354,1.0024173995,0.6479108874,0.6762324136,0.6705412497,-0.5155926293,-0.6919555922,-15.4785780687,0.4363095406,877.1919869623,30.0357184399,1.743120527,2004.724756875,25.7223878034,-0.707899539,86.5203239052,38.6243373125,-0.1209878183,-2.6661552615,0.8936821155,0.000736439,1.6705188947,-0.7160032657,-0.2243777531,-19.6369591503,2463.5235547467,5.6164528499,0.5053123062,0.185283567,279.8325635591,-0.1410682205,-0.8583127726,-0.0959157147,-2.7271328402,7.2397142591,-0.8295332745,142.0789815142,36.7990740764,-0.7015560418,0.1031730914,0.717997676,-0.325529808,-0.1698973716,415.1990881584,-0.2177420018,0.1937622779,1.9205731271,-2.6477974791,0.9597864102,5.3586604139,-0.177383881,-0.2030844392,0.7543256231,-0.3379840002,9.3318435646,0.9780583202,-0.7424734323,-1.8086674486,1.6849197708,0.5919734102,1.6937778346,-1.3618051704,-0.2870340154,-0.5841243114,-3.9951544408,0.3589282309,-78.1891168192,-1.9101734447,0.0857026667,0.4360056534,1.8888170196,-0.9034857945,-0.7656666054,-2.2140787455,-1.1939060033,-0.7788068861,-58.2422102601,-0.7770608234,0.3800098449,1.6304520797,10.5028377379,0.0708740342,-4.4670563696,1.5772308087,0.4872727178,-6.3941714202,2.5808444454,0.5673457893,1.8658754642,-0.6507015753,1102.3610118311,0.896596366,-1.5605359076,-3.6028520346,-6.7134832179,0.5601154385,-76.8286461335,1.1486903021,1.012311187,1.4428675323,-108.8268295135,0.3046623177,0.6964674522,-1777.1820481506,0.4435953178,-0.1950341726,11.899252311,-0.397558017,4.4160410163,-0.428967989,60.6834603615,3.6610832112,-0.35294291,5.7189233704,-952.3729519194,-0.1102882476,0.1046018818,0.1293350151,117.0570338119,8.58648571,977.0598242881,-4.7344704048,0.8730051429,0.1295631445,-0.29111689,-2.3968717921,264.0684207732,1.4847197773,-0.9228981364,-0.5829452427,-1024.3054226452,0.8802065444,-554.3230846277,0.0661004591,-1303.7599053338,-0.2923985981,-10.3994290213,-1889.6367971713,-61.6048066974,0.1663254091,0.8856636714,-1120.600103465,-0.8435636006,-1234.6123429192,-19.9707758445,-0.9830807587,0.0960085325,5.1932250369,-0.7933109684,-0.4853861506,0.7243678152,0.1502851498,-0.8303163465,-0.5853895,0.2028470291,-0.5799042717,63.3118502848,-0.4656558136,-0.6241567488,-0.7262668296,-0.6168020416,-164.7373729263,-4.7292399427,-718.4637295951,6.3492872095,2358.4262799655,0.5687523506,-1.9095689093,-19.9413424913,28.9683435961,0.5367285653,-1091.601571798,-0.1025626942,0.0533848909,-1034.4671060182,-0.3135943455,-22.367207396,819.2541018711,-0.8682958026,1.0763723024,-2.2042050779,431.3895680329,-0.7921098423,-2.9056918648,0.2617208976,-1435.5076886881,-465.9467117693,17.5754801964,0.2149823517,-0.5494551313,0.0041947107,4.196775845,0.1885466206,113.629303868,-1.0632565671,0.8226148482,-0.0578423485,-2.1175562432,0.2264447553,-0.6870726673,65.7173383366,-45.4863756604,1.1491188201,-0.9959210677,996.5573826001,-0.1311042892,-0.3227947957,-3467.9330008023,1.1187896544,-0.156317499,0.9025954858,-5.6027374333,-510.1357165022,0.9842907174,-1.6829784838,-5038.1023224007,-3.2219832108,-536.212869899,-0.2441561179,-0.0906292317,-3.4640141769,101.030866192,-2.1002440032,2.1392101392,0.5574108974,0.8099145495,-2252.4864171496,-21.1385065522,2213.8830817473,-1.0951897397,-0.1590328428,18.6500630804,-0.985406582,28.1237890029,-12.6720265383,89.7784283382,0.2930486202,3.7624915439,0.7543270937,4.8397621258,-0.0342418832,-0.6328995355,0.4217747704,-0.0322421435,-1.3095162634,-42.4194090878,0.4399002151,-0.8010022346,0.9899140664,-156.2851902626,-0.9035012863,-1.186589424,-0.2028890431,-1167.71798274,-0.7289477225,0.230614864,-5.1542703687,0.9606868297,-0.2386584419,0.6304954155,-0.2485301008,0.1236603833,0.7126672991,1.2916417543,-1.1132587473,-47.5442155482,0.6256794853,0.3460313289,-1.8249838534,-1543.6789580216,-0.2952346526,0.6267910209,0.1756506887,0.0018688935,-0.6974789999,-4.0826470482,-0.0071852238,-0.7774181314,104.3668751089,0.8758242811,-0.1230592472,-2.2533261737,2351.3135971779,-0.6250248656,-11.0148215055,0.2459800112,-0.1237297597,-4058.1021128504,1.1715468625,0.3466976431,-0.4540182636,0.3804019774,1.9652056006,0.9487787353,83.8553284153,-0.030529583,-0.5359704889,0.6786545989,30.3342845421,0.2815372315,0.2295834518,0.1158192922,-1.4422123186,0.0029063294,-0.9180692059,-0.6428167881,0.2105545542,0.1763468024,-1204.7582610812,-0.8600662125,0.6385918006,-0.8891867024,2.4320691034,-0.1998474693,0.7129709492,-0.3988495535,-4108.1051423301,5.6155015388,-1.5007698497,-0.4368732032,-0.5818401345,-1.7601101583,-126.8271143449,-51.7234016133,-0.8715409741,-0.5074388497,-0.5694082744,-0.2008912345,1.5844578673,-1.7757392553,0.2618916032,0.6323629233,404.4039100905,0.4185554685,-0.1956046144,-2840.8578541858,-2127.2014083019,0.1507191118,2.4403591865,0.4536520892,-0.2919232269,1.280202012,0.7083896174,-0.7147872261,-0.6573985935,-0.7389756094,-401.2515577294,-0.1945135422,-0.9955966068,-1.0406700991,0.0408275107,0.7899440826,-2.287860092,0.0089657595,-28.9385810369,-0.4456557424,9.5016130597,-0.1199176224,1.0904860503,-1.0060812476,0.1530280518,0.8698938989,-0.1782305331,-1.639924713,-1.7382081448,0.4548557943,1.5657652307,-0.3090542646,0.228312871,-96.9233801627,50.7338799444,0.616867361,-3.3060574899,0.3478927761,-0.8159241168,1.7669616909,-0.112236394,-0.1756782774,0.801503142,-0.2815990691,0.8866738901,-0.1235124957,1191.7782361663,-0.1962040512,0.3534172784,0.9319571892,0.1353497016,0.1187422206,351.6570958833,-0.0675134652,0.3188357295,-0.6453486817,0.5432781547,0.0776656699,3.2175836165,0.3150771612,-0.2169107042,0.2674759521,-0.8313566179,-8.283085125,-0.1673213625,0.9047393056,-1.2857879598,0.6467863774,0.9756145226,-0.1012156144,-1585.8512982083,0.2130338022,-0.7387809017,0.085892917,1.1335479277,0.2997522338,0.8231531712,0.1303185494,3.2024877788,-0.2567549823,0.7358572689,1089.3295034164,-0.0286714111,-10.7578385701,-0.4765204265,0.6269474374,0.2912901603,-0.5958191759,0.0074057347,0.3143530548,1.0317376586,308.09332426,0.7775466503,0.3711373924,-4.9040357512,0.4673802292,-0.1326670436,0.3254708181,-0.6720231888,0.7590961695,5069.1336733071,631.7429895049,-16.9374920682,3.7524408761,-10.9667561588,-0.3330906631,1.5151527995,0.7106768827,0.5558293723,-0.1965414499,-0.3071905974,0.7400719117,0.6756214992,0.6811802681,0.5056869616,-0.9237429804,0.727092633,-1.2862505876,1.0895184684,7.6384309847,0.3454315465,0.5704154719,-0.4426336749,0.5879190065,-1.2062928812,-0.5750334997,-0.1496808804,0.5524535468,-0.7598924126,1.1387377592,-0.1610280058,0.231689777,1.29275496,-1.7410449506,-896.6427435905,-31.6531535695,0.7979446965,1143.6558445333,-940.1271829378,0.1704795058,-0.1129183662,-0.2674691393,-0.0754982759,-1519.5072207588,-1.4930866623,0.0032622029,8.5512063472,-0.2569323123,-13.1611338824,-0.391291582,-1.1767213985,-0.111106023,0.0149860487,-0.6981273606,-0.3478295852,-0.0415912248,-6.0702782826,0.6246263036,-0.7545847285,-0.2057341793,-291.3368178356,-0.0601717063,-1.0789721189,-0.0254854782,-2.3447749155,0.0967556104,0.2942985527,-0.9566525159,3.5196313951,0.3302931163,0.3753646615,-38.8843145805,0.2365451433,-0.9195884609,-63.7603907452,-0.3653112485,0.3388662993,-0.6768137222,-24.6372823801,-0.8579375004,-0.5218555623,-0.8070109528,-4102.4727371089,-0.5071693088,-0.1403955604,0.5623453344,-0.4370446663,-18.2445689455,-515.2886154075,0.1922963916,30.9964408811,-0.972682935,-0.0592148023,-0.9144794245,0.0243366098,200.8893348689,0.5628200438,-1.0126319979,-1419.0318833337,-0.5184230961,26.4701109792,3.9244605135,-2655.6583557355,0.5209342978,-0.1946092418,0.6870412998,-0.0590226541,-0.4295410215,0.01086761,45.3822978445,0.0518791802,-2.0225313862,-11.3202275329,-0.2942318279,0.3141049725,0.2913211136,-1.4799847373,-1.0027528343,-2.0387144724,0.345783132,-1554.4280967446,-0.5072392142,-16.3108511333,0.1032870331,14.2161188142,-0.3363905441,-40.5115642459,28.9708082389,1.0854645775,1.042845402,2.4931465712,0.0679636413,-1.9495712546,0.7759386279,-0.4314121326,44.7298847665,2.091970834,0.8384778276,0.6177980957,1.6714950319,0.6681167225,-0.405562015,1256.1429028298,3.3560681302,-0.3062787401,-53.8495510137,0.9745807725,1.4117944953,0.9603636996,-721.7721632677,0.0828179808,2745.8251490389,-6.5431798605,0.7343518404,1.3681461375,31.6518638579,1.5687876226,-1.1700092255,4.1048175422,3.7650169905,-62.6093434786,-1.8665662109,-4.8657937466,724.4691936627,7.7208867466,-14.9353313731,-0.6994706576,2.3864488422,-29.8589323999,1139.9414301506,0.7442914317,1.2888254826,0.8136350064,0.0784372666,0.2006013892,20.1882074254,2.1340765267,13.7963493259,-1.709416848,0.4374845387,-66.2929239688,-1.236703793,0.9380355447,683.2584247374,-10.9785244584,-0.3793917552,-0.4592003162,-4.4474035595,22.2310551084,-135.5869355344,0.7279897636,0.5846409628,0.1431680799,1.2397692549,20.1776530356,28.165016627,-5.3227708906,0.7640314529,-3.1575559617,0.145535627,54.1046114997,2654.5484640453,1.4887265588,0.4989172965,2.8405583735,-0.128474316,4.5560710417,-0.4674034485,0.6727952305,-0.1363283208,-0.1839878421,0.4115953192,2576.3629370272,-7.534057051,0.4531298433,1.1925354852,0.611747731,-2.5177004916,0.3499373394,-0.5475792246,0.6795541541,0.7702258976,1.3024980765,0.5948875916,-0.7703739426,0.0572780626,0.7942328745,0.5049390715,0.0773689757,0.369575031,0.0944064681,0.321910658,-0.8732406906,-0.2428085228,-0.5543830892,-0.8388994858,-0.5922227674,-0.5373110766,-0.5461516279,0.5653558565,-1.6619596785,-0.3577778431,-0.7248304549,0.7053205529,0.0735471424,0.2930512593,0.5942402746,-0.6008299852,0.5825940107,0.9522355302,0.4365809832,0.7137498697,-0.38851308,1.1325278396,0.6727506203,-0.4723888025,0.4316456156,-0.4167587053,0.2359255828,-0.2246257765,-0.7943769906,0.6882596579,-0.1997709281,-0.3225265364,-0.4787807828,0.2202057217,-0.0924218518,-1.0448881939,-4.0712918351,-0.886636898,0.3578065142,0.0494735852,-0.577393979,-0.8725361928,-0.3305008596,-0.2590365864,0.5859878822,1.0697989419,-0.2242870345,-0.3893305294,0.4859351806,-1.7062179835,0.9390904805,-1.1081016879,2.7706424155,0.0789912299,-0.0574599846,0.1650343674,-1.7437591608,-0.7886346861,-225.4267617747,-0.1969355869,0.4652243814,0.5266424257,0.2786848038,0.2566495409,-0.5941251193,-2.4676296251,-0.1397774878,0.2322643472,-1.7615207506,-0.9582336754,0.1466053493,0.8636593011,0.3569772992,-0.5770658747,0.6025927565,0.6933924852,-0.2079209278,0.4418941715,-0.1637660217,0.9085882404,-0.1392326717,-0.0204316051,-0.7823026595,0.0576002924,0.4460965622,-0.5013529588,-1.7305425986,0.949196305,-0.6431176007,0.6241496266,1.3721658312,-0.7737537758,-1.3755948791,-0.6624760201,-0.5779257072,-1.0055447553,-350.9854463519,-1.4572390168,0.7301479066,-4512.6968007734,-2.8291308528,0.2633431949,0.7378029156,-3.6171794321,-0.3177546818,2.1592067658,0.3000813768,-0.7047422323,1.2596526114,1.0190726268,0.2431411519,-0.4521187948,1.1470055664,2.5752605871,-2.6081781325,8.9753716976,-0.6810945213,-179.1362271888,0.4947553341,-2.4182045631,0.1734203669,-0.0778647754,-0.3565022056,-0.1186396989,0.3479546409,-2.6338991503,0.5908168726,-0.5633840582,-0.721563044,-1.7639231468,0.1460377328,-0.2611915297,-0.812608768,-1.1157745476,-0.1729675708,-4.0653845783,-1.5741795088,1.724547119,-3.6071045841,3.6247409322,-0.6737343985,0.6768787924,-46.8073843174,-1787.6785615336,-0.0001485379,-0.1335178299,-13.243408926,-0.2695132406,2.0979966129,0.1177930143,0.1224683839,-0.6526706003,0.2627696111,-26.0103923875,1.2358547093,-2.3534736625,-0.5801888108,-0.5649950005,1.4134409801,-0.0818753974,-5.3520449383,0.5566993963,-0.2881647684,-0.1303542538,0.692981389,-0.3474191205,-0.9936782683,0.1137893011,-0.2273469659,-1.0684620923,0.8428676957,-0.4645008998,-0.4364280397,1.1894297301,-0.3693905988,2.3968374054,-0.7695416827,-1.7429646216,1.497389492,-0.1481734136,0.328672865,0.3585882891,-0.6178940993,2.9049220525,-0.3840676239,0.1997496523,-1.3683803309,-1391.1590492788,-0.9445335787,0.0084139601,-0.7414751828,0.6325134392,0.0568097248,-2.8364258193,4.950102672,0.8999246899,1.9599668018,6.4813692206,7.5703331562,0.7393025597,20.0286232157,0.62308318,21.7095042346,-1.0477946207,405.0216035419,-469.8545091134,-6.5333423591,6.9808146411,-0.5900783813,411.1881360848,352.7054065381,-0.1638887817,0.5746435834,15.3281763172,4.138916745,5.5942239878,1265.8365566047,-0.5188471473,-0.5102024092,0.5337887405,5.3837288363,-0.2153435159,0.089115045,-0.1052607578,0.1277995617,0.126843938,0.0103455724,0.7893594489,6065.5561051274,0.0179476232,0.6526042422,-1.2332483031,-0.2025797845,45.6030952546,-0.6498237394,1.0622553957,-16.0964519446,-0.9326950554,207.7005637263,0.7966882317,-6.3454369988,1779.2807260728,0.8624080072,-0.3526666613,0.7485751438,2.4139771756,0.2136039794,-0.7278928923,0.3370779201,-0.8359041896,2572.5885774143,3730.8689473652,-0.3500214414,2.6071949609,-4.4040149349,1.1380107594,1041.421160283,9.5421880243,-0.2594613566,914.7671607624,169.0349616805,0.5054249426,106.7173286106,0.9157082943,-0.6021814917,-3.6708324942,3362.707216955,12.7040747679,1.0837365492,1.275579276,4140.3170826552,0.3229986187,-1.0509107285,-16.3124364548,-0.2861145062,244.0766286789,-0.7995001657,0.8469986113,-0.3651821144,0.316213289,0.9675187865,74.3162448377,0.9448754574,0.6810137936,2855.854395509,-0.6413415245,0.4078180256,-1.6445332851,0.712692508,0.2339585519,-0.5313390599,0.9832049238,0.4485557103,-0.8421183022,-1.5181033763,1.5899475079,-0.8917815952,0.044467329,0.3278576827,-0.2265492727,-1.1893706812,-1.1163470678,0.8736025707,5.373104718,1.9608611154,0.5525503747,-0.6906547534,-3.4845342943,1991.4409339951,-1.1123719788,0.7802874066,-0.5640394765,-0.1590923025,-0.172685484,-0.2500405946,2100.9741607529,-63.844659883,0.7461322376,0.4881669706,-65.5326879608,0.0318964192,-99.9669953356,-0.5493740979,-0.4111849076,-0.3553906302,-1.0442595578,864.5296061366,-1533.0611580881,-1.0055296325,-3.749797525,-0.9402151407,-993.0201946204,2004.8200522283,-0.9566434386,1.8085612528,50.2986959703,-0.3097184959,-410.930179174,0.627328571,0.637571445,0.8320272528,6.0044566212,-0.2999560537,0.3602993747,-1.0750479893,-0.2174997488,-1.1447054202,-1.8240701202,-1.1140158964,-0.4562519343,1.5945086915,-418.2307497529,-1.2920572784,-0.8033204318,4.5776516431,-66.1265806808,-0.136721474,-1.0291564846,-114.0718623771,-0.422127384,-3.1520129529,5.5557280621,-0.1423214739,-0.1128145049,-0.6316985688,0.84599435,-0.6160944268,2.2859942416,-0.3094397647,-0.0442858552,0.6256036559,-1834.532238683,-1.0314778572,-3.5299231264,23.4015489447,-0.6856775042,0.0579664426,0.5260729472,-0.5646029556,-5.2706121159,2578.2130744432,-1.1652315066,0.0832783244,0.5297919026,1.4385445053,15.6466935134,-0.3306308819,0.782207735,1.2384913943,-0.4933365024,-0.8336330186,-580.2492375096,2.5056420817,-0.5576108434,0.344099035,-0.3234289459,-0.0006020106,-0.0674087309,-0.6735390932,6.0758622038,-0.1153380592,-0.75241554,0.9718962881,-137.3014269125,0.0565272978,-1.1618370382,-1.1535015548,-1.9712797902,17.9209490691,1.4648041807,0.0181233332,2.5301195038,2.333823358,0.3786548011,-0.2114604754,-2.4843004013,0.1683392757,1.7418731784,19.909183723,0.3198978458,0.9933768533,-0.7010030154,-2.068800487,0.2229789997,-0.9750835982,-0.1609188148,-1.0799494226,-0.1162334835,-2.2515197649,0.2868239923,0.7734536001,0.5112449277,-197.8297243287,-2.0588203892,0.3478478037,0.2231853612,-0.098141993,-0.6986706601,4.4183818791,-8.2177368058,12.8825027615,0.2001197561,-6.2535881705,3.1301404291,-0.6614974118,-1215.7476797899,0.406356044,-1.0501298417,-2.5733399777,0.7878667054,-0.055823506,-15.2893554354,4.8143365317,3.1638140686,-0.2843008505,-0.7245970749,2.6275917019,0.264558326,2.0230545044,0.1362556292,-1791.3923419158,-2.567481171,3.0756200837,1.9248666804,0.1585905803,-0.6964644374,0.932863742,-0.4211188085,2.7662779717,-3.6279425564,-0.4962018521,0.0854731198,5.0200816953,0.0520030171,-3.1134368333,-1.3794611335,-14.0180126886,-0.6657070852,1.8958276686,-9.6412248458,-0.6594219104,-14.0609636444,-0.0021046219,-7.8960010566,7.2931761891,-0.4321689941,-0.8846565795,-0.550246489,0.8092047848,-0.6972872598,-1499.9515932908,0.4273125194,0.3629367662,-1.8583536489,0.9949508959,0.9215608498,0.2403337915,0.7166442721,0.1285452148,0.976939669,0.7574299826,-0.317404269,-0.4289911675,-0.0206467921,-0.019758065,-1.1268026322,0.1118862166,-0.1113931135,-0.8865494701,1162.9635271415,0.9291113875,0.7099901865,93.7579896424,-0.2315451936,0.963216667,-0.4013813935,0.280990683,0.3580149872,-22.9451673014,-396.6342698521,0.1896655755,0.3906623578,0.0296601234,-278.7744270268,-0.2157004857,-0.2334291318,0.1245066184,-0.0606977425,-0.2599382695,1.3182959517,0.2758898356,0.8818768772,0.1767781222,1.6104686062,18.8347633851,0.5273383638,1.256829861,-1.2186305323,-0.1292912527,29.3909678173,-0.2138995084,0.3342937856,1.5954699974,-0.9470308821,0.4578823919,0.0702331816,0.3399606615,0.789899771,-0.8670713917,0.6869079088,-0.0018828096,1.3884508669,0.6133842559,-0.3512997658,0.9733280209,0.2436518781,0.2216890307,-7.0644637097,445.6193738699,-0.2648990133,-0.821164372,0.0785836307,1071.8624807127,0.6401108964,-0.6668581092,-0.2212244284,-0.5652248552,-0.8565206699,-0.0661553904,-0.9338490632,-0.2147110815,-0.1701846376,-0.798276909,775.7598369621,18.3484188179,0.4972114905,0.5081568805,-0.174642817,0.416938892,-0.7284915497,35.5638217876,0.3460738193,2.5252177594,-0.8227563593,0.4300484402,2.059717233,-0.0261580941,23.6012388983,0.5695563473,-0.8212208532,0.5681730472,15.6493443199,-0.3772110421,0.7396835828,0.4423788727,-98.5192097003,-0.212438897,-0.777299551,0.790785491,-0.8942224207,0.6335374876,0.4199526106,-0.1867544111,0.8227080322,0.2186418404,0.2521335077,0.5931108852,1.4606797006,-0.9516710382,0.240313846,0.8026157362,0.8598609607,-1.5003195731,-0.5350408398,0.5891413257,-1.0081520652,-1.1698118297,-95.3101518506,-3.8637548284,0.8283471618,-25.5790465996,-0.7463516743,-0.1381166541,-1.1667355013,0.4267544138,0.7828447225,-4.5852115889,-0.5931086466,0.5302469459,0.8486487696,-1.0398311397,0.8882712119,-1.0152743968,-0.0592621879,4.6762964677,0.1356996702,-1.7680151114,-1.8755073169,0.1157125772,-0.9201620968,18.5403005876,0.5739298849,-0.9153566143,0.8774509252,-0.9532448103,-0.7278152447,0.6277355482,0.7117184466,16.0694288603,-0.4709798323,-1.1800904879,0.5589159549,-0.2832732412,0.5531512804,-1.186077225,0.8253118453,-0.0862876758,4.3865399093,-3619.6045149567,-7.3990212213,-0.5945141504,-0.5299407243,10.5553851501,2.4290860944,22.3846915535,-0.9852959792,-2.2577712592,0.298659045,-0.8326599018,-1.038166389,1.6776561948,-0.2880987185,-0.3735292817,4.6901331922,13.8763170299,0.155238957,-0.0608118269,-2.0681675107,-17.5622367211,-0.7699502324,1.8106274557,0.9330852391,-0.4291288498,-0.9212208641,-0.2502407994,11.3479369293,0.6778843192,-0.5559799336,0.226579817,-0.1397444276,-1.0221651424,0.4929637682,0.8876713315,-0.1917007606,0.547290861,-0.1066098272,-14.1260538368,-0.7375112536,4.0435603517,0.3098262507,1.0189711057,0.6452542532,-0.9669543384,0.6038489818,-0.3172931233,-5.2650080475,-6.8537234715,0.5385209004,-0.0282702207,0.0570370266,-2885.92917875,-1577.7079838877,0.2793851954,-0.1085429339,-1205.0764051042,0.1894446032,-0.6620514878,0.2237552236,-3.2830428917,-0.8826110491,0.3496672512,-2.2475120761,-0.3357815548,-0.7004726934,0.8088351459,-2.6630453133,-0.3779866057,-0.664874895,0.6817398772,-0.9235151149,0.0961441105,0.6612724134,-1.2691758145,-4569.3605490499,0.4561495103,-1.5134955429,-0.2806216376,-0.4428124872,3.9539386861,2.2939539528,0.6355514989,0.2717313023,0.0105350161,-0.7245364968,0.7156453193,-1.1389320939,-1238.9826868683,0.7828769664,-4.9784856495,-1.0775402297,-0.9895785212,-6.2600023095,-1.0291217836,2.3619619379,-0.2471099308,-308.0753405581,-1985.0269028958,-8.0906314174,-0.9893270057,-2831.0343451482,4.5675725488,-0.6147324359,1.0253735882,-1.1564406155,-0.7758758162,8.1778932204,5.8611278246,-2.5026201659,-0.2444222158,-0.8265875352,-0.5847454144,-2.828494119,-4.4976733226,-0.7735152893,-0.7551783875,-1173.4036346456,-0.2383002381,1.4110166944,-0.8733644289,-2.2007369084,-0.688595324,1.1735369143,0.5912446574,-2.538308257,-1.0550243806,-0.3778487001,-960.5236777628,-10.4184595145,0.2717569355,-2.2871455343,-1.0208874141,-40.4375815361,-0.8894497929,-0.2688336783,-0.1801773842,-0.4748100128,-0.1278429953,-2.9334138309,-0.3865433365,0.4508989526,-0.5157832526,-0.6516784362,0.3362225693,-0.456277034,-0.6541491634,-0.6152380414,-0.6705877555,536.6963440546,-0.4788885178,-0.7597322523,-0.5754023806,-0.0222114656,-144.1561915098,-0.5486751898,-17.9889386318,-62.4378409553,-17.4074536857,0.356793849,0.5437992687,28.3942454599,0.169637743,-0.0279067737,-31.4543793769,0.9323686479,-0.1422381834,-0.613825726,-0.2368418446,-0.8272942836,-28.8021069944,-0.4632488574,-0.7644766085,0.6772214583,0.7584437824,-0.1273070049,-0.2982211158,0.1429500788,2.3645432755,-0.5299241169,-0.1404028434,-0.2567279112,29.3076461277,-0.1923708519,1.0886276569,1.0217590827,-0.2459896494,-0.1692677824,-2.5121053486,0.5935384853,-0.9437217689,32.2130070663,0.6002016884,-0.4994887953,-35.2803157532,-0.584362064,-0.954600341,0.1847397684,-1543.879017806,-0.1799769442,0.4377826019,-0.3359650854,-58.6581155493,-8.5744026629,-0.0926326799,0.5752631674,5.8275394271,-1.2201284199,-4.3484314099,-0.7802590893,-5.3559284139,-0.8282370625,-0.5488835242,-0.4424292419,1.5673073851,0.6727540752,0.431128758,105.4163177631,-34.2798182857,-2582.3106717005,0.5460768154,0.0603038079,-0.3746761801,-0.7295992323,-0.1846368969,-1.0324546938,2.8068404924,-18.6431515116,-0.900044363,0.0615036571,-0.1210993884,-0.3687238786,2.090208247,0.8812359554,0.98867373,0.7158808731,-0.2037534996,-0.6442077367,0.3265942241,-0.5583549574,-0.7484256485,0.8424586515,4.6383401095,-0.2486022781,1.7807648348,0.0194036313,-0.0836928052,0.4332436237,-0.2054681724,-0.7580511054,4.6380584477,0.8940529271,-2.1632452942,0.0081668975,1.2909909231,891.7764787374,0.6373642585,-0.1672824594,11.033719597,18.2858862412,0.2763225233,0.0792086224,0.1915600435,-0.9839580977,-0.2321683606,885.2359710857,0.4548800597,-0.8175863675,0.5778051472,-0.9946935861,0.4069475315,0.9918846063,-12.9634046344,0.100307331,-0.6468947617,1.9033339971,1.0417146605,215.1288104393,0.6695488245,-0.5363988868,-4.5594372444,-3.0277101303,-1.1012453369,-11.7473320805,0.4479307265,1.8925610853,-2.4011468575,21.0002460051,0.1070780546,4.0054872393,1.3245971223,-0.2820984914,-6.7782682284,0.2611871027,0.5089719552,109.0099567708,0.5021435763,-0.3992391573,0.2739239813,-0.9484501062,7.772381928,-0.6474556693,1.1589714487,6123.4856185059,-0.4604500804,0.0453070965,23.0997891508,-0.1700980933,-0.5529011587,-86.4725415813,0.7052334765,0.8123601601,0.3911442399,0.9756982312,-0.4478179209,-1.525363822,14.8199746347,-0.2500226166,-0.2804142137,2.7850181117,17.8830803453
   2.0205474698,-0.3362132765,0.4259200486,0.2459258221,2.3029956399,-0.3852022651,1.0873504112,559.0647156369,-0.4418667976,0.2220874935,-19.497400302,0.2089719627,5.4157795322,0.3650524085,0.7498435005,23.4300700299,-0.4675290143,0.2329883329,-4.2217701369,0.3529443308,1.136325672,-0.2153848266,2.0712156275,65.4641565837,-0.7643999579,-0.1848015962,0.5232671028,1.1910872652,0.5134845072,-14.6140062829,-71.7000740326,396.2907864276,0.8753018555,2.8014202263,0.8109359065,-5.1386296351,9747.3546284079,-0.2162501294,-0.6794984525,0.4097790818,1.0718840799,0.4831897127,14.9404134355,4960.703463866,-12.5130030355,22.7561493416,-0.0978702755,-1627.2682338219,1.1197362212,-2.6206536314,0.2290329412,0.3094359499,0.1490434648,0.8227854376,1.7696934758,-1.7782671876,0.9833527349,0.1118691913,-0.4245876026,0.1899334216,69.8787892663,1.7163254821,-0.2238716547,4.7562596951,-0.4271613766,72.9198727588,-0.4708850661,1.7830485548,0.9140707427,17.1244586727,0.3866779912,0.8405138732,0.1112229843,-0.5141281723,-0.1840844636,0.9959430062,-0.0965377759,0.1903002704,0.7610946992,2.1990005719,0.9805162285,-0.8602493097,0.7016751082,-0.8796870538,-0.9717011826,-0.1632396766,-2.9329703535,-0.5579179817,0.5791198425,-0.9947735487,-0.5112815581,5.1488922992,-0.5110323747,-0.4906913524,-0.3544032453,0.3840450681,0.0616277075,-0.2501319537,-0.7261455485,552.4064988666,-0.1147820752,1.0808288383,818.6513763724,4.8472865814,3.7526516703,0.5687380831,-0.0199843625,0.252284126,72.1821245269,-0.138984262,0.124714099,-0.2470200419,-0.7884972142,15.95693857,-0.5160536562,0.9580553888,-1.2288124934,-0.3947968855,0.7276558521,4130.7287620772,-0.2971531575,0.6122688405,0.2797290742,3.1408950447,0.3028663029,-0.7218477506,0.0035977071,0.8997991796,-0.5425602112,0.5132987353,-0.6561899334,0.3562492187,-51.3890814868,1.2098626315,-47.432566002,-0.3990577426,-1336.2140067713,44.7709658744,5.6902274109,-349.3176205947,-13.067650609,0.0099646275,-0.6332011968,1.1328312613,129.4073339872,0.9609640215,-2.0115418097,0.7322332024,-0.0190604121,2018.0357720506,678.341995334,0.4907904993,1.6584248982,53.437023791,-0.6933437879,4705.7224968355,0.0224969362,0.6409445792,-3903.9698214015,0.4762504738,-2.8502555393,3.0958559314,4.1814771824,3.1359387274,4104.7141360025,0.6079509842,34.1022443843,-0.1987508772,-758.0693255405,2502.0290786586,-36.5667242732,-0.3416814091,0.5529773407,0.9882495533,0.4319745219,-0.177596689,-1.2397458943,1486.7620686304,-10.2261126525,1.6482592561,-821.318442441,-0.6234508016,-0.9607939256,143.1711586263,355.5329237962,-3.0377586618,-1.090342638,1.590480881,13.6580988511,-0.2605791667,-3.1560088944,2.2322707396,1.6907098564,-0.1705318171,0.5557975961,-0.5940534996,0.1899994406,-0.0479393817,0.1454678724,-0.3841944574,-0.4205853703,-0.2398974991,-0.9200447771,0.6867646941,-1.5177975326,0.7787057977,0.8836118418,-0.5919032643,2.9069640415,0.4150713462,0.8051209701,0.4471278073,-162.620894212,0.5695151672,-9.7235764172,0.3417327815,0.8053601317,2.7763715757,0.3727715227,0.476365847,31.9721202066,-0.0252509187,-0.7634716383,0.5723681419,-0.6792172618,32.3197718219,1200.0856046334,0.4164274635,-0.1368413191,0.71183311,-0.4923749845,0.8230001012,1.45190397,-7.5471449775,255.9106149596,-2.3873737107,-24.1102914704,-604.6045410141,-0.529180181,4.7992741775,-881.4099801823,415.4905708501,0.3719846565,1.8245274287,5.2618959095,-0.7504032639,-235.3206460156,273.6764650299,-0.3447904319,1766.6307372187,-91.843707128,0.6062385909,0.7069222019,3123.6873772742,0.7154540016,-1.4486873853,1.3138776534,-1.3836906097,1.1777573314,-0.0599302097,0.5162274326,-9.2496035522,0.1147927613,349.5208315503,3.9855036906,17.6542338627,15.5156790649,1175.2032421873,-0.9360345122,-0.6296207224,0.4700125351,1.9511783031,0.879916703,-0.1090282569,-18.8208247908,356.4117118091,0.2184689008,-6.6164764632,1198.1976694001,-2.5310219245,0.6209253521,122.5865645296,-0.6894387303,0.8760952279,1.8059655133,5208.866029068,607.6805203476,15.6822421934,12.6904852571,1.5712589013,12.054009746,0.2390325773,2128.7363436259,-71.7602670676,0.1767235996,1.8907217253,-1.252211354,-1108.1742884365,1298.1673936223,-0.5228769756,0.6925119666,1457.8072618856,2.8277786034,-6.0051105726,2.6584690577,-1.9394713118,-0.026666897,-0.1432749065,0.1172420444,1.5861130078,-0.5133856506,-0.8317321831,0.8097642164,0.5620458653,0.3224874647,-209.26887939,1.251458685,-0.8490091557,996.1960447431,0.9533068162,0.8176318383,-1.2241173251,0.1395585487,-0.1585612614,0.4551544346,-0.5782549714,-0.0461443837,-12.5062580841,0.276431963,-1.5555947736,0.5450893603,-0.9941539365,-685.3763852829,-2.1703659223,0.0614135152,-19.428699455,0.1474713475,-353.9415549722,-281.6585273401,-0.3869180195,-0.0628111446,-194.9315830344,1.2216858481,-0.9578895771,-0.3307775291,116.4789467804,-0.9404684686,-0.6371459069,-8.3494603668,-0.0481895141,-0.6309873866,0.3191621482,-43.1172390178,-0.5323236174,-83.4428390205,1.4566237565,0.1214149306,-174.43495216,-0.461555676,-0.5668291546,0.5892056265,-1.4313943572,-26.1101711755,5.7520282965,-0.6100593577,-1.2915155548,0.1546199122,-3.4051169855,-122.2939687838,-3.2143583169,1122.9554691512,0.5186095608,-64.1454462576,-0.9513050553,-0.3573736347,-23.7305759277,-0.9373526911,-0.7231469708,1422.5430363376,-0.1777164896,2.0022713862,-0.2090866959,-662.1537978534,432.8846286662,0.7923238435,-10.9951973645,-1861.5203695716,8.843385757,-2442.4277897329,-700.1881223909,0.174134254,-613.366359757,-0.4343343839,-98.9681551718,-395.4728103774,0.7709023506,0.4496201712,-2.2639348637,-174.8049291907,0.9958438081,-0.6448376744,-156.1530171718,2.1117181794,-0.1409854983,-0.8590029527,2.4622399772,0.9703806377,0.4678432098,0.00630019,6.3265268664,-672.0968461564,-0.8718834787,-0.7059321293,0.6885139617,-0.1291030285,-2.6191699409,248.6809058574,-0.8128027851,-0.1953511758,-38.2378983239,73.8290976063,-0.671150229,-0.2177761571,0.4977612085,-0.6301509326,0.3822362639,0.552727816,0.0339516594,-0.0680231035,-1.034560419,0.6543337514,-0.9493306257,0.8821198718,0.2206726533,0.6477147136,-3.6367284239,0.4097145967,-2.5100309421,0.1698791309,-1.0925499209,-0.0813113971,-0.8104684778,-0.7180847952,0.6832900295,0.1989477758,0.3680137659,-8.5769506623,-45.1036476166,56.4265506072,-26.9569829819,-0.2805409965,-0.4135344254,0.5703255995,-15.0782136578,-1.0152055851,1.8508210188,-2.2713158671,0.8836213751,-1.0038914242,0.3180108938,-0.8771500133,0.5125011572,-0.8774085784,-75.8422525497,-0.0019064034,-0.7266866174,-0.2467161555,-0.7383481665,-0.0263638164,-8.5199702545,-0.9077603581,0.3191701378,-18.4397681195,-0.501590442,45.3212089785,0.7609236341,-164.9268678426,0.7017295444,-0.0769251644,21.5614457938,1.3900196631,0.6121190926,-0.6711664717,0.1021361167,-0.8694938358,-0.4037716235,-98.2595886788,57.8816563757,-0.585488009,-0.2728279886,0.2910998479,-34.0519507331,1.3298422246,0.3498232015,0.5504481224,-0.9088223,-1.042047246,0.5862887651,0.8293012244,16.3717346773,-0.1856697133,-0.0842262328,0.4844217471,-0.0677529088,0.2014420526,-0.0701105957,-1.0359770066,-0.4932183895,-0.4705753936,-0.3233070238,0.3575494622,0.2114203969,20.0552211874,0.7174586026,-1.1471608774,1.2887509564,0.4980251952,0.1513710602,-0.8837976983,-0.8234272847,-0.7081895709,-0.6881143001,0.0674646271,-5.7538895346,0.4248720256,45.7436376172,0.0160504229,35.2404600738,0.4818014117,-2.825776351,0.1016320973,0.9779163452,0.0475504007,1.2889609494,0.6608382712,-0.4977895665,3.663225382,1.6359593402,0.0601774911,-0.4051586833,-0.5524555556,119.9033950032,-0.2098383372,-0.1683043393,529.4833844141,0.9178949813,-0.010020184,-0.3877506961,-0.9885317049,-0.3134834736,131.4045873235,0.930006139,0.3175610607,-0.51148755,0.4387701038,1.888751875,-0.6505239031,0.3026357906,6.3517109897,5.5233646407,-0.733431296,1.0201000747,762.9290479388,0.1540143195,-0.5986386093,2214.0993229211,116.1953196586,0.345472983,-0.6454582663,-0.8335349858,2.0511555215,-0.2615234396,0.2790678983,0.5832077741,-0.0372546352,0.4205079726,-0.1618901012,0.5835847543,-0.3309766958,-0.5267122409,-10.602487874,-0.498495206,1.4003815335,0.1050671471,-0.7933601333,-0.4565309605,-0.4070967017,0.0857321385,606.8324045622,1.9658468662,-0.2923360778,0.8371004671,-0.1072225932,1.1200677213,1.4924660222,-0.2583883122,-0.2223661457,0.1644200385,8.5328012181,2.0390392806,-0.848162661,-0.1947562079,0.4950256602,-0.6910510165,-10.8914910496,-0.5581229554,1.0709711461,881.2705834045,6387.4316168373,0.3584769135,0.3629241529,0.1890759899,-5.1088109914,18.8834859294,-0.5790381848,0.4908491245,0.0106688771,-0.6879042123,4.8898793857,1.0394699044,0.4885158045,0.5812992294,-0.5878528837,-0.5779866798,1.6742179997,0.1722872933,1014.8325692038,-0.214748075,0.3492649406,0.3627236851,1.2518283969,1.0507345679,-0.3946321113,-0.6386125138,-0.3497267994,0.7668043361,-0.701443375,0.8526139412,-0.8129599282,0.8551897475,101.2012551008,1986.0828932976,-1.1739604328,-0.1075626087,593.2751846689,279.6340208184,-0.354454451,0.2055910736,1374.3473254766,-0.6761543062,0.1606292959,-1.8868001204,-0.513113229,-0.1055442297,0.244500823,-0.1362922356,0.631418725,0.0145636876,0.2653812048,1.0317030862,-1.0063376574,-0.5697503089,0.2210174625,6732.9685547582,-0.1287876094,0.3001942546,-0.1538463001,1.8117113057,-0.5269462352,0.6316800643,-0.2800888772,-0.7957127199,0.0058057696,0.3495464264,0.4715745636,-0.5111391451,421.77451105,0.1205254142,0.7856100077,0.2401784771,0.3087483788,1.2839193604,-0.4518839871,1.1665854733,-1.0522260884,602.6364895022,3471.5688939906,-0.2078066959,0.1736875097,7447.2934401404,0.3201771789,-0.4603997183,0.2101024559,-0.4208139306,-0.2275289101,-94.8892697168,-0.2786003988,1239.5195484593,-0.0483236239,1.1399847683,-0.0689506333,-0.2601799164,0.7722345634,-0.9239450548,0.0527452901,0.5647168069,0.1110063473,0.422593226,-0.4578015626,5.8500439693,0.1994407122,0.4382603458,0.0475739053,-0.1837692619,4.7075999501,0.9579193509,4.3278006438,0.6694549065,0.8167722386,3.3919958376,-0.2446801221,0.7007361747,-0.783737195,0.9031682941,-0.7864797823,0.4095191101,-0.8744628082,5.247265134,0.4576758918,0.6801705097,-0.1068281787,-0.6245780216,0.5213282175,-0.6931658851,0.5858889706,0.5592060989,2.8058225997,-50.9413519956,-3049.2033303567,-0.5651100331,0.3281918663,7.1654128275,-2293.1544486037,2.2800523257,0.5597795264,-122.9424861114,0.6047503839,-0.1605083676,-1.1183903927,-1.2366026954,9.5206604138,-3808.0603344712,-66.5395394718,0.1903018098,0.1064511956,-0.3289074417,-607.8091733847,-0.8861991164,0.289165738,-0.2838490228,1.6749570834,1324.4625179923,-5.0163774781,-0.3213517654,1.1023287152,-0.851696383,44.0991918855,1114.9497168078,0.6110606251,-1.1893213177,251.5072108541,0.2057641051,659.9868056816,-2215.6108245479,42.2058120612,-0.0251496677,-3488.527258622,0.5676037532,0.0287665511,-1.9400521503,0.5690756061,-1.046663458,-1.111449637,-0.2362964895,-0.0990870205,-2090.8751666348,1278.820629981,-15.7992939142,-6470.2080434573,-0.6573365138,-2740.9897481749,5.8343573143,0.0588833518,-3104.7260029358,-0.0843708143,1652.3747154467,-162.4107735168,-0.363490146,481.9801474048,-1.0352608903,-2.5177959828,2.84278701,2649.8042777721,-0.8156360992,-0.6263235531,-2452.9712698628,4.9536379126,-0.9383806853,0.0528991635,14.1142227335,-3.247559044,-0.6657974434,-2093.5476700104,-0.9367567209,-265.8048777127,-0.1576922718,0.5231570881,328.0231307843,-0.8194537007,0.8914620675,95.4663906388,-1.0562632414,-1.096931564,0.223838966,0.9075041109,-2702.2804623184,0.446862749,-0.9495107104,0.8312364677,-0.4019663687,-0.7149108866,-1.4746487503,0.5026504692,0.5787479847,-0.1130305493,0.9053027385,0.2383839252,-0.1404242013,6.3629070377,1.5469223476,0.8118651616,-0.512612451,0.9830742606,5.4864785514,-1.2383930947,0.3939531817,3.3609334252,12.2832892462,0.5857327532,0.5989972683,1014.5941390832,-0.4322579712,-0.1907155645,1816.2195518833,1.1420968447,0.5481957758,-1.3198819448,1.3347209052,-0.0948884282,0.2399166273,-0.7572447021,1.9377266258,6.6124717103,0.2161504302,0.9989257468,1.5621809529,-0.6184545496,1.0029013916,-0.5760633755,2.4656232765,-1.1130827169,38.3665314043,0.6844303264,-0.1382127555,-2.8115233552,-0.4064489382,-0.0323490517,0.2035560474,0.3280336988,0.0221687468,0.8631925239,0.5891787465,-0.0416833976,677.9947615716,0.8235646731,8.9730883604,-36.7252498517,10.7076615592,4.9981014674,-0.7775302343,0.7794460649,2365.7833516048,-10.9837996676,1.2068094596,-2.4314291847,3.3747104642,0.702892868,0.2954635528,1.5309154875,1.6717565624,0.5095222995,-0.0187052196,-3.4113899527,1468.17531403,-0.4989724572,0.7790281347,-5.1936484891,1.2773022376,0.2539294619,1.878521956,0.6589886124,0.274990862,0.1179371855,4.8284334539,-0.0187956324,1.1232333309,-0.5344504881,0.5503080226,6.0063270722,0.3009064279,2.4072116337,0.4750769459,-0.3529309146,0.8391819573,0.131276601,-0.3871496668,0.8852576853,-1.1659301118,1.019644684,-0.1002249649,0.5415538606,0.1821391786,-0.5049887738,-0.0663307103,0.2812673943,-0.0883163849,-0.7008052369,-0.0054774003,0.1397070595,-0.4076161041,-0.2257163969,-0.2646971887,32.4356216527,-0.1011560957,49.9216093251,-0.4167962925,-0.9864413914,-0.8384206027,11.9958324835,0.2174242351,-30.3376319601,0.0732565468,-0.0934741799,-1.0664498016,1874.5465194081,-0.1960314417,-0.0753103117,0.2885517727,52.7037908854,-0.1122196311,0.820733205,1.3179887946,0.8425394773,-2052.246887927,0.1497164855,0.8043340903,306.3515515919,-0.1949162773,4.2779875924,8.9581410641,3.2939667091,-0.9150687792,-0.9605898157,-29.7947815367,-5.0491382513,-0.5781231745,0.8617413966,-0.0812325897,-7.0301105252,0.2296130243,-0.6576207337,0.645713615,-1.0087321384,0.4156530447,-0.3773329815,-0.7783827515,7.9751926814,0.9969687048,-12.1282714818,-0.5430308568,-0.3955443327,-0.3049558193,-593.7547536957,10.1882898092,-4.4979158441,0.2508549333,22.6137643664,88.5338979239,32.9013281089,0.9634652617,0.1967966099,-0.7127572188,-0.9011381933,5.1876184465,-959.3594620281,0.7963798994,0.0348378539,0.2986887854,0.5051115822,-0.1176984648,-2.3386900193,-0.6170960703,-0.4418527831,-0.9335050515,-0.9911386972,-4.6729466848,-4.1735255201,0.2597121921,0.9572149166,2.4917202231,0.7089496509,-3444.229653277,-0.3155845536,-0.7757769829,-15.5704270601,0.0204417316,-0.2581737811,0.9640812802,-0.6481801332,-0.9806836377,-0.9356588414,-0.495135668,-1.6834572762,-0.1750697204,0.734600019,-0.107860055,2.3173798892,-1.9654341782,-0.7881376734,2.5728514954,0.4124179814,2.3057059564,-3.3220656767,0.3763723288,0.1564804501,-0.6140324328,-5.0095377474,-0.7454366194,0.2088915627,2.7980821127,-0.1807480843,-0.556010825,0.6377380404,-2.5615331274,2.7022136854,218.8291028994,-0.0659276106,-0.6195380197,0.3329859239,5.1501846464,0.6069458433,-0.5428746264,-0.212310436,-0.7530166043,0.5516502466,-0.3962034618,-0.2707591132,-1.0842571346,-0.8815203991,2.5351457135,0.8129466801,-7.8057016247,-0.3484776169,-0.4033000227,-0.6841717236,-0.7515715654,6.455304,-1263.9726038398,-0.7915530188,-0.4569069816,-3.2488879405,0.8457901124,-0.0695923953,-0.7506771743,-0.0296254589,0.422232317,-0.55568298,-313.8961766913,34.892460941,-39.7334542443,-99.2508239348,0.4768115888,3.8513556777,-5959.9780356621,0.7251494508,0.456471346,-0.5382845966,0.2975632479,0.3901285115,-43.5586295313,1.4506690628,-0.5923471544,0.6462591753,-0.8083474293,-0.9266405825,-0.1086566253,29.0012395154,-1.0179373316,0.7236945648,-4.8631385852,-0.9132795981,357.0628308051,-2008.5922279733,-0.462189467,0.2870463615,-0.0835065372,4.2394961755,0.5837581941,7.4142098745,0.0253445716,1.4418628556,0.260530411,0.6361337416,6.6400606709,-0.9037445584,-0.5943875831,-1.1792454501,1583.1098799656,0.4320420453,-0.3238261914,-0.9872295736,-7.0283130427,0.7599733103,0.3113215678,0.9402029013,0.6406462193,0.3312714824,-0.2749525775,0.3272232056,-0.1419334724,-0.6714670187,0.8004526216,-0.0519084363,-0.572783337,0.3569570433,-0.9485840448,2.7324724502,-0.2791967506,0.0091675209,-0.2193397868,1.5482243443,-0.8747621365,0.3753870775,-36.9421815008,0.4273795338,-0.0679928224,-1.3712370565,0.273209394,0.3724785622,-0.0124664627,0.4644198294,0.8123622614,-0.5349700178,-0.6049974449,-0.2557102794,0.4885768383,0.3314325503,-0.5506314828,0.5349322732,0.6339791921,-0.0389154624,0.182681581,-1.1412037172,0.0511954623,0.238778088,-1.0374594684,3.0720071806,0.0243405944,0.8096487953,1.5566811471,-1.1592005017,-1.0588658854,0.2389818523,-1.6571119879,0.3980933405,-0.3197044304,-2.6327453627,-0.7532819296,1.0311214803,-1.0999514307,2.8395606956,-0.7037355387,0.009792119,-0.1078170587,-3160.5067268536,-0.6693761883,0.5168032612,0.7821527499,-0.8975559037,0.9145131696,-0.1236207234,-0.0065530681,0.3447620827,-0.1359944385,-0.2645588737,0.9207011099,-1.2019845856,-1.1055268268,-0.7295447575,0.0400655718,-0.3899457193,0.2276745586,-0.0061636136,-0.7485607975,-1.486082184,0.0531618736,0.1487535619,-0.8364166421,0.5592577992,-2.5359556061,-0.4373328816,-0.3385155424,0.8964624096,0.5659523329,1.2856489164,-0.1505751864,-0.4975585846,-0.3958270774,-0.8631367156,0.954114865,-0.2875020659,-0.2256169686,-0.0145713634,-0.9383301802,-0.5411915216,0.423344514,0.5963237539,-0.6418459337,3300.7621487291,1.0092945094,0.9779597409,1.1401369889,2235.0087927494,-0.1840727841,-0.9588344173,-57.9322931327,1.0068880044,-45.909663788,-137.2374871017,-0.3883390873,196.4227509173,0.4864549538,-0.7896641065,0.122611851,-249.4600278481,-2.3484343672,314.2510089802,1519.6228122495,0.8125457574,-0.8047838229,-0.3444029098,-419.7018956924,-0.0655121283,824.8064772271,0.7828013536,0.4738737082,756.5704914756,8.3177609287,0.8037600855,0.1393819504,-0.1729841571,0.3613581436,-1519.7633759229,0.385626896,-0.9536208572,54.0930583036,-0.06600566,1.2774413272,2314.103937561,-72.7535585441,-0.277478237,7.3275637228,0.6111580718,0.9530824773,2.1870099633,-0.080202907,15.2591369549,-562.7188048448,-0.2311214593,-0.2493564429,0.5380403935,0.1733515668,-0.2196725704,1.4927666242,-1.7660611068,12.172518069,-4.0325922971,9536.4993655926,300.0531723425,0.1440682612,-1.7031657296,194.8134832691,-0.5517489457,-0.9911930661,-0.1741949423,-0.3633678684,-0.2566411194,-624.8843625482,0.9538177012,-0.5735957176,1.7919049341,-3.0821963454,0.7672526132,78.1539237199,-0.3093503111,-0.1636300862,443.3484774977,-0.530455671,4235.1520765707,2474.4766618552,-0.5886864515,-0.0757731732,-67.9475040397,1.5560929011,1011.8997556194,-104.9317459874,-0.8809291011,0.179857565,0.2209278797,5423.5707373007,64.141995461,0.5396913835,-0.2472817545,0.3335643466,-0.6019004197,0.3152507678,-0.596794851,-0.7846128901,0.3359341611,394.7615772036,-0.1672859498,0.2946867947,1822.5541240656,2305.9614408455,-0.5497361769,-14.9750986093,0.8637546006,4.7489743708,1.2043507547,-1.0890939348,-0.2089159527,-0.2309579487,0.3704936737,-0.2307889699,0.8258582746,1.9309352574,-2.7295911434,0.1136659733,-0.6409286547,-0.5995603123,-0.8438218212,0.4197005614,14.5527901259,0.8579568543,0.5039067351,6.5632644804,-0.2677992851,0.3524520696,1200.6963161303,0.8066255311,0.159926287,-0.2226638075,-0.5940855086,1.0678736554,-0.5664850702,3.8887233268,-0.5945716676,0.2710847683,-1.5625152614,531.364146346,0.408812655,0.053570037,536.7506540033,-0.5443258631,-0.2335557948,-0.3556774591,-0.8004666224,-0.490839783,523.314949763,0.3261340332,-0.4773390957,0.8615205538,0.4395692654,-0.5813056731,1.3740642056,-0.4412291545,4.1800474717,6.6013223709,220.1284406916,76.9531225324,0.2550753633,-5.1616422395,-0.4178087635,0.2688817527,-0.2758904681,0.0674752733,0.201459397,0.6743816078,0.4724602067,-0.5215439334,-0.1020990221,17.2293602607,0.9219643773,-0.3235792706,7.6678348855,-0.2624605003,17.8122649686,-0.034809409,0.656875186,0.5506223827,1628.4471381645,0.7833884941,1.0870227762,0.6623824669,0.7603914975,0.0696327504,-4.6433175226,-0.5011935695,0.0004461687,0.4299866012,1412.4649625394,3837.4744350327,-0.4452199648,-0.7477959257,0.9524450051,-0.1267492006,1.5852404275,-0.0733369401,1.2107991117,-0.2024809722,8.6388964279,0.7146249109,-7.8592274974,1.8752692726,1.0670434748,1985.8154696436,0.624795383,18.9963054515,1.6865972105,374.7220366588,1.1700596788,32.4306716481,-0.2724246772,-67.9264605911,-0.6370534698,-0.7234801244,-1563.5303191904,0.5146892908,6.6590609346,3976.1457144948,0.0461330505,0.3965957733,47.9958028823,912.7519917516,0.1792933208,0.1369126846,3319.8354119066,-0.1106823343,-0.2113483464,1.4553273253,-0.6081617601,0.550599291,277.5657556182,0.779361136,-1.3358852146,2.221216102,-0.1662627688,-2.4800902409,0.1312220752,2.1675155565,-0.5913070869,10.7547232255,4.7897759778,-1.2157232033,0.222581465,0.9085565311,0.9183234008,-0.9783491701,-0.7620232074,-1.285481871,0.1807028684,4103.1367818576,0.2429421354,43.9920210346,3.1024590799,-1027.6072354144,3661.6531880039,1435.083498807,15.3801446218,-4.9825251415,-0.442107276,3426.3229087155,11.2095241491,2347.9039715689,-0.7889669664,-0.8546960204,0.6382492967,0.8026670195,-0.0397366539,-0.1739538307,5.7604151716,-0.6916585706,2.6552180307,-0.1711799024,0.6176538071,-34.4671962559,-0.508535762,-0.6110565859,0.2824674225,1115.9902036739,-728.3597868537,-2.1749891386,2.7680228664,0.4083276916,-0.7808462857,-3629.547195104,0.1476387411,24.6686333859,0.6575197527,0.5928797238,-0.0637495843,-1.0822290946,0.7006391069,1.184476219,-0.5565967521,-20.713338047,0.9761199925,1.473914315,0.571286702,-0.6549339815,-0.0078407805,0.506779442,-0.4885742369,-0.5757686197,-0.9128733887,-0.9525513717,0.5841350753,-0.9726906111,3.4713303109,-0.2614795236,1.1033919448,-0.7185204249,-5.293008113,-0.3305111557,1.9622955326,-0.6984948334,-1.2830185725,2.6814940496,-0.8887769827,-0.5799139091,-7.7161198775,0.1711717177,-0.9930741262,0.3381010753,2.9932568375,-0.3147211575,-1.2271305042,0.366463122,-0.9449987052,-1.3504240031,0.5433242671,0.735711825,-0.4087820862,-0.0568696011,0.3010054876,0.7860141796,-0.3829891791,-0.2122287456,0.7080893504,-2.1037599394,-0.075766138,-0.2860557079,-0.018721985,-0.3847273101,1.2660581519,-0.670037209,0.4173072066,-0.4568145271,-0.2536620699,0.5494015392,-4.8302602723,-1.4310609008,0.9502287956,-0.1790449379,-1.1369600276,-0.497294082,0.1166555587,-0.2517428334,-0.0364535923,0.3086790511,0.2365274767,0.0403083611,0.9097470784,3.6947098039,3.3558825659,-0.8373776399,0.4042581058,-0.2581726131,0.7899369047,-0.9808157975,-0.3495727911,-0.9628886793,-0.9692106846,0.4655966082,-1.0408414456,1.0748998657,-1.6380955743,-0.1647491426,1.416486798,-0.4899804964,0.6626615866,-1.0540175869,-0.5669628286,0.9679199845,-0.6406005633,61.045927525,2.3952793602,-189.0086574602,-2.078063132,0.2833703975,0.2905514474,-0.6805395639,0.0614134982,0.8266427974,-0.348483032,-1.8614838721,0.4197090625,0.8627239996,-9.8517864565,-1.1105670696,0.6898266703,0.8944718659,1.8873623403,0.1871407833,9.4802354735,0.13747164,0.4629876786,-0.0476888845,1.3871013973,0.8005120455,-8.2954466349,-5.5223752458,1.2886491406,-5.743083938,0.016056218,8.5572930436,-0.9611080106,-0.7641098715,-325.6040199707,2.6913532329,8.552383214,8.5460762544,-4.3226827158,1.2179779128,-0.4678462976,-7.6927652331,0.8653371047,-0.4577093594,-0.8737180195,-4.6516505294,-0.5789135129,1.0174164826,-0.7890291135,-0.7920462834,-6.9925918848,-0.6597098396,0.5637836379,0.1539764541,0.1020031133,-0.1176104845,-0.4770687274,-1.4213559207,4.3489227971,-12.4921448801,-6.1429143762,-2.2862479498,11.8039256473,0.078998529,-15.2639358748,0.8768733668,-0.9643554021,-2.034569746,-0.2184407766,-16.8655786161,2.6691346914,0.4112676715,-4.3204392323,-0.2023156391,0.4499135254,3.9655958288,0.3537425753,9.5176363294,-0.3111279319,-9.0450169799,1.3612084732,28.9924395144,-0.3708086489,-8.2540086153,0.5307212785,-0.2359871601,0.102400813,0.2745264884,-0.5191101622,0.5279849208,-0.7716978162,-0.8274977451,0.4243757857,0.4094166423,-2.4328883188,-11.9595009772,-0.7890998539,0.1531062636,9.9090547392,0.9896220473,0.9112430789,-0.8350420867,-2.6385444908,-0.2739528744,-0.3380372676,0.4993433991,0.2153075236,-0.8805277095,0.7244891415,3.7803461651,-0.4447663792,-0.8146401181,0.3360992543,0.1154094852,0.4347618093,-0.4681448467,-0.6636091649,-0.5240403481,0.6468790041,1.2305807964,0.0653229037,0.1235890868,10.5105241395,567.5283672676,-1.1527840999,-0.4068407087,1.1543241543,1.9532307836,235.6054769783,1.3199194387,-0.3017668074,-38.615935348,-3.5010148608,-0.1365582622,0.461298909,0.9576591972,-0.5563355226,0.7944172374,1504.3530036258,-0.8721734883,1695.4788555033,0.2257066461,139.1899949055,-10.6528369359,-0.9659993178,0.5240794473,0.3339676748,0.4830532908,966.1260934949,-0.9367337933,4.0437370268,0.3020663136,7993.107821547,-4.9130666726,4.2847565878,-0.1713659189,1.5320686344,0.4446118907,0.4881259322,1.4239590333,-0.6021179614,6.4212426077,0.5286790476,0.0020706721,0.2972719591,10792.2024940178,0.8407996509,1.1800271362,-1.5219050799,-0.6648445711,19.1083007824,0.6351495161,-4.6844145816,-0.2309310464,0.8088508109,0.4541942503,-25.3738248452,18.2504262839,-0.7981247356,2.0307383888,8932.7801966514,57.3790271802,82.0860909376,-0.279248741,0.2022095227,-0.3185322433,-0.9736583178,-0.6749102939,53.6518773463,1313.9438253417,0.0796698065,-0.6322798626,-5.9182599057,2.459725238,1.5242450884,-0.8982338075,0.1152997976,-0.1018058779,-0.462663343,0.5439471958,-0.7989647381,-0.8930132304,0.9728529424,-0.0312046337,0.7806028976,0.2486268014,-3.3759096363,0.8193798521,0.5407000915,0.997098498,-0.0878736279,1.1302784101,0.2198809303,0.1874490115,44.2215571466,-0.5446602176,-0.03220337,-0.2169162839,-0.0019200825,-0.8597398852,2.0615051527,0.6936576486,-0.9995589842,1.2646464503,54.0553923144,1.1198343022,-0.2594330957,0.3401163777,0.7734263479,-1.495738058,-0.5267050983,0.7614285132,257.9593182425,0.3743044776,-0.298442921,-0.6931708377,-659.3584818743,-0.7207063071,-0.299219046,-112.8182740147,0.1670910741,0.2234702043,0.4410434842,0.5783366268,-0.2098745005,0.5917826756,-0.4406438193,-0.4429780913,0.2527569096,1.7686119822,-0.2052255932,-903.072789675,-3.1450873667,2.267598157,-0.1033532784,0.7336260943,0.255461849,0.9161909485,-0.0398507753,6.5702395591,0.3516225168,-112.1737848374,-0.7242325305,-0.6762231486,15.466032481,-0.7392148275,26.4343614247,0.8732555485,-0.2196010218,-4.7389264069,0.876846616,-0.3203596003,0.1195941752,1.7577219606,-895.167421322,0.0282971485,-0.7547599493,-2.0347388241,-0.4298881436,65.8518585545,0.2136536207,85.5117974648,-4.1362363902,-253.3277977886,-0.9194714108,-105.2219969722,0.2760878166,-0.2215128934,-1.6840793618,0.6256141052,-0.5012408322,-0.9682825477,0.879365167,-2.0283078941,0.3439009701,0.9248739629,-0.1450311376,0.2979559084,3.2116769438,-0.700841846,1711.6337796006,0.483313121,-46.7754492952,-0.2279426336,-127.2746711379,-0.9175747488,-0.8795109872,-0.9904122824,-0.4748947262,0.270084536,-1.1256163008,217.6186386309,-0.7012378034,0.8281815889,0.9392527204,-90.4995183454,-0.204683463,0.4827784518,0.9705871722,0.6615833873,0.6132967794,-0.045800222,-0.0108601148,0.2112561976,0.4535169031,1.9492210908,1.4602144632,0.2935884945,1.0719961806,0.0023187138,-1.2235704335,-1.6223897071,-0.1557606039,24.3548165135,0.6260666162,0.5744204612,0.767814783,0.4009197225,-98.5831812412,-0.1344723209,-1.8306012334,0.8313444393,-0.5946421185,0.3542163466,-0.4059812152,0.4147092258,0.5291812536,0.0429132956,0.2977940665,-0.3450972168,0.2877479746,0.0065040003,-0.042659082,0.2864415327,0.1101548964,0.2800068944,0.2242811416,-0.216665742,-0.0736107954,0.1496841387,-6.2144772727,0.4320116328,0.7281104384,-0.5869024971,-0.2465367714,-1.0805503462,0.1680847089,0.4411370543,-0.0955153512,0.5106061561,-0.3431316505,0.6783274274,-0.057314781,2824.9963498256,-0.4687956306,-4.8133784013,0.2876103169,-0.9177885048,-14.8419368107,-0.099039167,-0.0360757552,-0.1114697091,-0.2682269373,0.7127291324,-2.6911205287,0.3595012434,-0.5988066808,0.9451935938,0.6599296104,-0.4707979769,0.2015811152,0.6995019706,-0.1415015409,0.2771287804,-0.1176817836,0.3013262095,513.6141321874,590.3361535226,-0.5375749754,3.5032902491,0.7514859571,-0.2145227945,66.6100481056,-0.464838184,-0.1119763109,-0.8398663918,-0.7603892813,0.5734691066,0.228168349,0.6869724305,0.4642406204,0.6741771325,-0.9138795893,-0.599621648,-0.2460698207,0.9923265797,0.0155679277,0.3160879473,2.940631994,2.3188002513,-1.1314243797,-0.6675175831,0.3967827368,0.1476632908
