encog,BasicNetwork,java,3.4.0,1,1657221789780
[BASIC]
[BASIC:PARAMS]
[BASIC:NETWORK]
beginTraining=0
connectionLimit=0
contextTargetOffset=0,0,0,0
contextTargetSize=0,0,0,0
endTraining=3
hasContext=f
inputCount=784
layerCounts=9,76,101,785
layerFeedCounts=9,75,100,784
layerContextCount=0,0,0,0
layerIndex=0,9,85,186
output=0,0,0,0,0,0,0,0,0,0,0,0,0,0,0,0,0,0,0,0,0,0,0,0,0,0,0,0,0,0,0,0,0,0,0,0,0,0,0,0,0,0,0,0,0,0,0,0,0,0,0,0,0,0,0,0,0,0,0,0,0,0,0,0,0,0,0,0,0,0,0,0,0,0,0,0,0,0,0,0,0,0,0,0,1,0,0,0,0,0,0,0,0,0,0,0,0,0,0,0,0,0,0,0,0,0,0,0,0,0,0,0,0,0,0,0,0,0,0,0,0,0,0,0,0,0,0,0,0,0,0,0,0,0,0,0,0,0,0,0,0,0,0,0,0,0,0,0,0,0,0,0,0,0,0,0,0,0,0,0,0,0,0,0,0,0,0,0,0,0,0,0,0,0,0,0,0,0,0,0,0,0,0,0,0,1,0,0,0,0,0,0,0,0,0,0,0,0,0,0,0,0,0,0,0,0,0,0,0,0,0,0,0,0,0,0,0,0,0,0,0,0,0,0,0,0,0,0,0,0,0,0,0,0,0,0,0,0,0,0,0,0,0,0,0,0,0,0,0,0,0,0,0,0,0,0,0,0,0,0,0,0,0,0,0,0,0,0,0,0,0,0,0,0,0,0,0,0,0,0,0,0,0,0,0,0,0,0,0,0,0,0,0,0,0,0,0,0,0,0,0,0,0,0,0,0,0,0,0,0,0,0,0,0,0,0,0,0,0,0,0,0,0,0,0,0,0,0,0,0,0,0,0,0,0,0,0,0,0,0,0,0,0,0,0,0,0,0,0,0,0,0,0,0,0,0,0,0,0,0,0,0,0,0,0,0,0,0,0,0,0,0,0,0,0,0,0,0,0,0,0,0,0,0,0,0,0,0,0,0,0,0,0,0,0,0,0,0,0,0,0,0,0,0,0,0,0,0,0,0,0,0,0,0,0,0,0,0,0,0,0,0,0,0,0,0,0,0,0,0,0,0,0,0,0,0,0,0,0,0,0,0,0,0,0,0,0,0,0,0,0,0,0,0,0,0,0,0,0,0,0,0,0,0,0,0,0,0,0,0,0,0,0,0,0,0,0,0,0,0,0,0,0,0,0,0,0,0,0,0,0,0,0,0,0,0,0,0,0,0,0,0,0,0,0,0,0,0,0,0,0,0,0,0,0,0,0,0,0,0,0,0,0,0,0,0,0,0,0,0,0,0,0,0,0,0,0,0,0,0,0,0,0,0,0,0,0,0,0,0,0,0,0,0,0,0,0,0,0,0,0,0,0,0,0,0,0,0,0,0,0,0,0,0,0,0,0,0,0,0,0,0,0,0,0,0,0,0,0,0,0,0,0,0,0,0,0,0,0,0,0,0,0,0,0,0,0,0,0,0,0,0,0,0,0,0,0,0,0,0,0,0,0,0,0,0,0,0,0,0,0,0,0,0,0,0,0,0,0,0,0,0,0,0,0,0,0,0,0,0,0,0,0,0,0,0,0,0,0,0,0,0,0,0,0,0,0,0,0,0,0,0,0,0,0,0,0,0,0,0,0,0,0,0,0,0,0,0,0,0,0,0,0,0,0,0,0,0,0,0,0,0,0,0,0,0,0,0,0,0,0,0,0,0,0,0,0,0,0,0,0,0,0,0,0,0,0,0,0,0,0,0,0,0,0,0,0,0,0,0,0,0,0,0,0,0,0,0,0,0,0,0,0,0,0,0,0,0,0,0,0,0,0,0,0,0,0,0,0,0,0,0,0,0,0,0,0,0,0,0,0,0,0,0,0,0,0,0,0,0,0,0,0,0,0,0,0,0,0,0,0,0,0,0,0,0,0,0,0,0,0,0,0,0,0,0,0,0,0,0,0,0,0,0,0,0,0,0,0,0,0,0,0,0,0,0,0,0,0,0,0,0,0,0,0,0,0,0,0,0,0,0,0,0,0,0,0,0,0,0,0,0,0,0,0,0,0,0,0,0,0,0,0,0,0,0,0,0,0,0,0,0,0,0,0,0,0,0,0,0,0,0,0,0,0,0,0,0,0,0,0,0,0,0,0,0,0,0,0,0,0,0,0,0,0,0,0,0,0,0,0,0,0,0,0,0,0,0,0,0,0,0,0,0,0,0,0,0,0,0,0,0,0,0,0,0,0,0,0,0,0,0,0,0,0,0,0,0,0,0,0,0,0,0,0,0,0,0,0,0,1
outputCount=9
weightIndex=0,684,8259,86759
weights=##0
##double#86759
   0.0450006927,0.0474392439,0.1639920324,-0.0898721171,0.0117081557,-0.7224843733,0.0482485539,-0.0064527238,0.0143728387,0.1251448592,-0.0357557699,-0.0135163052,0.2037323611,0.0069870072,0.2408271197,0.0609228836,0.4567055681,-0.4377333476,0.1474476307,0.0821708242,-0.2347871328,-0.0128630274,0.1429258254,-0.0287656418,0.039254699,-0.1025863781,0.0310009763,0.0686164856,-0.0436577323,-0.0398684742,-0.331903394,0.0821800897,-0.0566108503,-0.5237309797,-0.0717106486,0.2085959895,-0.0981922527,0.0941363741,0.0978417692,-0.3654236469,0.0632778875,0.1573542873,-0.0816199855,0.0566535097,0.8247894264,0.025474795,0.369295806,-0.039977633,0.2536100175,0.0818465559,0.1397214921,-0.0439385794,-0.0909360181,0.0793387566,-0.0192749075,-0.0376680033,-0.063715281,0.0375126985,-0.0393801886,0.0277832628,0.025208161,0.0751008912,0.333382914,0.107052606,0.2133223092,0.0206199531,0.2177293306,-0.1067468918,-0.3319574548,-0.0645833098,0.0710516594,-0.318110071,0.0824377496,-0.0330232831,-0.0494989023,0.5347086097,-0.0255044173,-0.0697198226,-0.0862767435,-0.7402345099,0.0695872057,0.6441970156,0.002875175,-0.7030480775,0.0446091614,0.0638697852,0.1552735666,-0.1016845508,-0.0844701233,0.2896285295,0.301743831,-0.0145681322,-0.0878211862,0.067077413,0.0836729395,-0.1149410301,-0.1999904581,0.0260927925,-0.0436977183,-0.0422415745,0.1360190191,0.0891837336,-0.0621243494,0.0183944667,0.0870679264,0.2622880521,-0.234812718,0.1655510117,0.0932057192,0.1839208322,-0.0627483791,-0.2620661429,-0.421415421,0.0768400876,-0.092358001,-0.1833150622,0.0148609682,-0.1923952568,-0.1069118224,-0.109892185,0.6087298876,0.0897023923,0.1807915069,0.0868265832,-0.03659121,-0.0082972618,-0.1690502277,0.1459977277,0.06526531,0.0635073121,0.0294631462,0.0242620111,0.0359994805,0.033356281,-0.1252238259,0.0524558297,0.0127240626,-0.0731627634,0.2393860731,0.0567607457,0.4556872974,0.1117122217,-0.3920825842,0.2255337309,-0.017338361,-0.0685209839,0.0156821964,-0.1745038438,0.0425079187,-0.0237999229,-0.1371465835,0.4757493434,0.0436960532,-0.1056699155,0.1160221905,0.417629099,-0.0145478872,0.4006113516,0.1302033857,0.0973332506,0.086500728,0.0477530757,-0.0118270652,0.0887745603,0.342176062,-0.1056243618,0.0442620168,0.0961495991,0.4512721347,-0.0317012602,-0.0310446766,-0.2660152661,-0.2143658975,0.1824318962,0.0168818837,0.034880278,-0.2704428728,-0.0657267627,-0.0698359134,0.1410971489,0.0658299591,-0.0668136554,-0.4964280003,0.0789738606,-0.0086788558,0.277061365,-0.071207267,-0.421516546,-0.3978311021,-0.1134687764,0.0218412419,0.4002247154,-0.0682895915,-0.1075062102,-0.1340237072,0.1347830966,-0.3252442136,0.1810116881,0.1767965918,-0.0332405316,-0.002830979,0.2823843355,0.171105543,0.0889592041,0.0362298548,1.0547497492,-0.0024672003,-0.0276464571,-0.1000069963,0.0081781172,0.328218362,-0.0630441645,-0.0795647562,-0.094780663,0.0604892383,-0.003570402,-0.3370652948,0.0303129377,-0.1661584497,0.0203029368,0.716690744,-0.0804353743,0.1350961084,0.2087396303,-0.0059831925,-0.3018689074,-0.6426527578,0.1507287071,1.6230541245,0.0344224265,0.1236082292,-0.3170071659,0.0490475467,0.2424597622,0.01661065,0.2221676424,0.1121648694,-0.0838816982,-0.0302510673,0.0119807598,2.8043028937,-0.1337314459,0.0138238084,-0.1230717215,-0.043874657,0.0456622707,0.0234865192,-0.0215439098,-0.0679835695,1.0520783018,0.0457310693,-0.1151122144,-0.0058871159,0.0420992,0.1457910577,-0.039540235,0.6274855834,-0.0883579708,-0.2809154731,-0.0097207862,0.3973062057,0.2242937545,0.1032057633,-0.1348610281,-0.69159517,0.1885757978,-0.0069136032,-0.1036421689,-0.0121040585,0.0568355806,0.0070212689,0.0925528231,-0.2657884069,-0.0083989426,0.1010032146,-0.0114580738,0.0527853482,-0.0527652945,0.175767828,0.0909553217,-0.1281596869,-0.0220350629,0.0610479386,-0.0273952919,0.0302960412,0.0296542401,-0.0833719365,-0.0707004862,0.0466156217,-0.0954513679,0.1687886471,-0.0444797283,-0.0762987409,0.0120145428,0.0947595233,0.0117587686,0.2596440076,0.0649204274,-0.1069186211,-0.0350256251,0.0236022496,-0.1160482787,0.4430059328,0.1798954154,-0.2614075409,-0.0259535986,-0.0244903444,-0.5877303792,0.0931009071,-0.0307215181,-0.0347289195,0.2440326313,-0.0721024912,0.065765225,-0.1567736386,-0.0328419041,0.196813482,-0.2928992795,2.0283244674,-0.1906888167,0.2504065964,0.5849564722,-0.0483945072,-0.0050883619,-0.1104639081,-0.1010769719,0.1170952256,-0.0444496892,0.0392022338,0.0851609421,-0.1469359289,0.0245477908,-0.160156222,0.0737826484,-0.1899564444,0.0568578166,-0.2969082625,0.1944635339,0.0219216473,-0.1039661714,-0.1223537018,-0.1613161791,-0.0629335927,-0.2063834054,0.014529689,0.1600308482,-0.2090925779,-0.0237826914,-0.2764071366,0.0251535907,0.2586836229,-0.0725401956,-0.2106946219,0.0779021547,0.1213552944,-0.1028496685,0.1290608065,-0.2149824246,0.0767340461,-0.0506065554,-0.003532298,-0.0233395105,-0.1052898054,-0.1781216138,0.1882769025,0.138424498,0.5310832555,0.0234162274,-0.0135294253,0.0717295174,0.2491313217,0.1433886282,-0.0652145033,-0.0257854188,0.1477887715,-0.3625673649,-0.0210389175,-0.0471937914,0.219213513,0.1635688854,-0.1634535766,0.0243145006,-0.0313058264,-0.8526454044,0.0524731222,0.1104946497,0.015722763,0.0314645088,0.0097919539,0.0456580942,-0.0335390754,-0.0760109437,-0.0173286713,0.047209197,0.0395290676,0.0025699722,0.0579157519,-0.0864720591,0.0425166388,-0.1691301196,-0.094974506,-0.0369823595,0.1512124404,-0.0189746445,-0.0083113768,-0.0209678494,-0.016835739,0.0437493267,-0.1776761779,0.1373284686,0.0540898643,-0.1225418696,0.0804178762,0.2498336385,-0.0182766597,0.7006999934,0.3544441933,-0.0948956367,0.149815674,-0.8331745847,0.1093290416,0.1389283082,0.1684827632,-0.0093563153,-0.3556910199,0.168805263,-0.1304634368,-0.0227761079,-0.0516897071,0.0116041721,0.613261235,-0.1197527491,-0.119558402,0.0559669193,0.0503260949,-0.0266261947,-0.0445030056,0.2745508089,-0.0888054657,0.0042944675,0.0305681577,-0.0262407774,-0.1064155891,0.2364009952,-0.0639333778,0.0170596381,-0.0870020427,0.09453685,0.0021020913,0.0160418669,0.0127958509,0.24448405,0.1214427371,-0.5381597814,0.5686861978,0.4978631338,-0.1359716672,0.1675807006,0.0024227842,-0.0535521093,-0.3155711559,0.0747351851,-0.0163274863,0.0174938014,0.0511429924,1.0243976994,-0.0310845827,-0.0702767513,0.0295977337,-0.0191635405,-0.1186583526,0.1092799121,-0.1941598124,0.1566656287,-0.0410880355,0.04978124,0.0066991643,-0.0532312742,1.8641454933,-0.1036335922,0.1293264903,0.0219845652,-0.1051268196,-0.0032210154,-0.2137046697,0.0885501275,-0.4853108788,-0.0893693658,0.0070188962,0.1050233034,0.0061097964,0.8336166804,0.6582247365,0.0849282912,0.0043376525,0.3553501482,0.0053841934,0.0504995747,0.2491467872,0.0221407302,-0.3837069336,0.0298689167,0.1742320661,0.1367542252,0.0516644542,0.0111047548,0.0087001426,-0.0787487293,-0.1060024111,-0.0230749207,0.1810280309,-0.0891831301,-0.0695415275,0.0289913212,0.0351541868,0.3139629811,0.0764415184,-0.6760279598,0.1014709106,-0.1851766846,-0.0164849875,-0.0315163305,-0.2757957489,0.0487043396,0.1464531366,-0.0708064583,-0.0183247072,-0.0265971603,0.0234108401,-0.134597248,0.5098123691,-0.8884708549,-0.2114533078,-0.0314021235,0.0687530247,-0.6505084145,0.0488996631,0.1415131444,0.0009258124,0.2074536587,-0.1503346772,0.0127904489,-0.0334885545,-0.0440762082,0.0009822189,0.0692852405,0.0472875154,-0.1041390769,-0.3768488697,0.42590348,0.0920176991,0.0197730887,-0.0638533982,-0.0703378203,-0.000668599,-0.0105845932,-0.1418206574,0.0349264696,-0.0298765949,0.1346879788,-0.1984828143,0.120659546,-0.0143880654,-0.0340948465,-0.1197643839,0.2498745529,-0.0486917971,0.2624017834,0.7493360483,0.0972072679,-0.1493350975,-0.0720225533,-0.1232487954,0.0733496591,0.0089489153,-0.0971255051,0.5679886236,-0.0172478973,0.1553250111,-0.106608184,-0.0327255104,-0.037462699,0.0817356842,0.022552111,-0.331399487,-0.1564354172,-0.012917896,0.0424965422,-0.0204919745,-0.0229010195,-0.0956452981,-0.012878089,0.0514150839,0.059276602,-0.158667266,-0.061355705,0.0723125755,0.1134910468,-0.8666451926,-0.0657137069,0.1585956704,0.0677697476,0.1675855104,0.0887124852,-0.0766912865,0.0574193797,-0.355523098,-0.8773534681,-0.2925014506,-0.0241208203,-0.0679595646,-1.0360450635,-0.0338196261,0.4619894761,-0.147186268,0.1345500519,0.0679982749,-0.2054902025,-0.05347039,-0.0806261337,-0.1514048456,0.2726150501,-0.1298560707,0.0020596653,0.3610184969,-0.3661012615,-0.1007632427,-0.6573586664,0.0614942776,-0.023385874,-0.1870269911,-0.0957022002,0.37281894,-0.0190618356,0.356083699,-0.1529064495,-0.2624546544,0.1775874202,-0.2477301765,-0.1771803255,0.0990162037,-0.4015248522,-0.063970946,0.5400823389,0.3376584711,0.339975625,0.0952225948,-0.0991729868,-0.2324531795,0.0995371817,0.029752594,-0.3056166807,0.7437304884,-0.0140314341,0.0933532092,-0.0780929492,-0.1223095695,-0.0733892624,0.1241249254,0.0843420152,-0.048825862,-0.1986764981,-0.1448037715,0.118689708,-0.0018241974,-0.0568564665,-0.0413913649,-0.0007633694,-0.0989847974,0.1588495101,0.0769721865,-0.0394560543,0.1817295828,0.0292605543,0.2777895148,0.0221658801,-0.2104098602,0.0464130071,0.2071269374,-0.0894503471,-0.0576197319,-0.3237955184,-0.4313024066,0.9078002119,-0.0752561351,155.8849170912,-1222.9235751241,1.995122479,0.1369912744,952.2164605282,-4066.3651280261,-0.2939598107,0.1353397953,7.3798886472,-1.1316844206,1745.008036853,-0.6886161355,0.5291125715,123.2059624189,-0.2521702021,2289.4956222846,-0.0804081818,0.7420133564,-3.8191664775,4501.0610966624,-2541.2302226771,0.7445545882,-0.0707444974,835.095963996,57.8000141728,12.4621649033,-0.4821756865,-1.0322637768,-0.3568070407,2.7489531411,2.4160790161,-0.1233178862,-2.9767933969,-1.0071979733,5.0519635079,-0.8897990606,39.9576592175,-0.3264421485,-252.4233341927,-0.4176802227,0.648811213,0.3407059418,-0.9294434246,-2.3129267743,-7.1990677753,-3175.1768930282,0.1837728961,0.9195417614,-0.7673849609,0.0833843518,30.1832435256,-0.3071316422,0.1656739875,789.3825114449,-722.0260645322,-6669.4471683547,0.8542905666,-1.2590462611,-2976.0474992297,-3363.2400671973,57.3881108012,292.226993619,3.6205774563,-1.0865964478,2877.9104675107,-1.8292580272,-1.1537521801,51.6357386672,-57.4623512945,-0.9458151852,11.8474584534,-8.1064496682,-4.2564537772,1.2274284777,-0.278181975,975.9161501023,0.6395192457,1071.0130436908,-3888.8060322663,10.8518912142,848.0751545984,0.0343453312,0.4383646163,-0.971318424,-1.2184055526,0.7093597721,0.2969616542,-3747.0660990779,19.081091215,-13.1037011378,-1.1861653117,-0.2138641005,-0.02829762,1984.1273746622,-1043.195652646,159.1315211087,-6406.6442200783,-0.9510638591,-1.1284560642,0.2744693957,-0.8744715452,-1.9421661734,0.0818585592,1665.9688637302,0.6854688012,23.802088976,0.9389207576,5.1079764392,0.2453517004,-0.9448361766,-812.0739177935,-1.0468243999,-0.3638082927,-6.6267380738,109.6084745108,0.9529214091,-0.8012127481,-61.4439597961,0.1888283799,-0.6439199132,955.7653835843,-1.8138810093,21.9623527024,-0.0188063445,2346.4686500813,-0.2810094222,-13.2099951426,0.2035416901,-0.8157104236,0.0524254268,0.48864616,-0.5416107295,-0.5959073545,0.6908815046,0.8357990269,-4.5328920589,0.5579674448,2934.2694595727,-65.8161214577,-0.9533512505,2.3960912326,0.785907559,4.0751822152,-0.2928147717,-2.0980099901,-0.90375673,-820.3985225526,0.5299059087,0.1816330032,-8.3982127846,2.4352760311,-1.0558265362,1.3128167393,-1.6662492364,-55.6143334734,-5.5498477248,-0.1878803845,-0.6868120268,-0.441916613,-149.8523741862,-0.9605477311,-1401.4845797115,347.1112241289,-156.3127712175,-1.0229785848,29.1550143249,1.697207047,-0.889352994,-1210.8122627533,-2882.6981805748,1.5139431624,-0.076099082,-2011.5548660419,-15.5095124545,2.3905735921,1.1317381032,766.6246840119,-2035.2075026551,1212.6427723998,-1.7294028209,-301.8137431873,-2.8102401317,0.6790377004,26.7715366725,-0.341441982,-23.5550505087,15.8858359423,1.2651221379,5096.406495888,-7.9577543316,0.5710033619,-0.1407737929,-1.9800905279,-0.3189357498,-0.1158056395,-23.046319939,83.9729103701,0.4246884044,0.8116982033,0.8464726659,0.2398975725,0.2938218101,-91.5999753943,-162.1360350768,-1.9682516789,312.094473275,-28.3640457091,-2023.1593077717,-3.4845759211,0.8624467111,-0.2387706203,-1369.2351029919,-39.2020470377,-0.3307846844,4.8301453531,-25.7958972237,-87.3431677414,-1.9619418891,-0.9568027833,-0.228116072,70.4273252303,-1868.1188754988,-645.3409336168,-0.5307140775,446.358328959,0.5906111946,-82.7702616767,2658.1327292211,0.5689940657,-0.746080126,0.4077424998,-1.4185777066,-0.5276642236,-0.0197040178,-15.6556611812,0.4886839834,0.173395517,-0.6498960269,3.5330393671,-0.2321770257,0.9063665165,-0.1542407935,-151.9731147572,-140.0168770972,-0.9700791417,-6.8522991139,-249.1807819974,4045.8890755672,-0.0054366531,-0.1115121534,-19.5936887827,0.6619749544,36.2282551586,-1.4575349174,0.5532898217,294.3346189253,-1.2324926919,0.9487646377,41.8816043534,0.0878983102,-3596.0025216329,-0.3617717505,-497.152434923,-986.073936409,-0.1341865207,0.5218471561,-170.3719726043,-1.3457500435,0.8760971379,174.9802505728,1.1827847945,-0.8484910193,-0.9055401683,-92.2223951987,-0.4917907317,-724.3680247488,-0.2748497756,-84.1691461653,-0.7397329501,-0.5560010935,-0.3991228575,3.4272691242,152.2219951338,0.4066527434,7.1574602613,-0.578158508,1774.1313166287,-12.4151006225,-0.7779305589,-5592.493529926,-0.4143261881,0.4390894374,-0.7914335283,0.3561136804,-1.7153097836,-107.806866072,-0.3372762607,1002.8469732941,-5.8067888689,-1.0045606485,0.2480888931,-0.5850904043,0.1923416026,31.4118239273,0.5146110997,1.0134077513,-0.032665565,0.9245325379,4.6368338512,-0.607744211,0.8008312781,-2.0460710426,0.7723554855,-0.0895825495,0.6148411828,-0.8812455537,8.4257270925,-2.3631719559,2443.6783306377,0.1936102457,-0.733148585,1541.4640347352,-424.013533126,-1.2235583356,-7.4364908529,-386.188695649,74.5295702751,607.6014902999,1.9922925431,0.5926465087,-0.1589355252,0.3756765586,-0.6431951748,-0.4656708619,3.9257421235,0.3439532964,-0.3413769069,0.0099036182,0.0781716729,-4.606338988,0.5034533915,-0.4138480394,-2.1201345424,-4.0956984262,1.4615745839,-0.1213485282,-0.5004178703,4196.5742836888,-887.8854158427,0.9175850708,2.1021413414,0.6860311569,-0.0898011443,0.4282241749,3.8374514357,3787.5135231805,-0.5664098908,1.122483544,-0.0080371111,1.489347709,0.0909400947,7.5883286868,0.9785397506,0.4261581764,-2205.9421573354,15.9309297937,0.382418666,-1158.0341594858,0.2223742098,-0.7448195483,3261.4139869264,296.0954020084,10.6504585949,1.0189289836,10386.1690915064,-0.3167085151,3.5886356429,-0.1707923038,-11.2513841937,-0.53435168,-3.8201028874,-1.3126353821,-0.7423683479,3.4633289156,-0.5597239061,-24.9268827773,0.7341626868,2318.695688579,5454.6378143773,0.5225314527,3013.9453309675,-1.6372238676,-0.0908170994,-0.7884685355,-0.3192602281,11.2739411719,-1098.3329208458,6.2089017528,0.6165655275,0.1531542854,0.5896085885,0.1724479665,-0.7998182516,-0.7245902691,63.9990156126,2.7022511897,726.2920720629,6.0918616615,-90.4427882089,-2597.6326325111,-0.3036868765,-1.5573245162,-78.9388481956,1.4519401976,29.6018380781,0.6086362268,-65.0919242142,7.5574973328,-4.2726239023,-609.8711381956,-0.4597027407,-0.433873022,601.5440956566,1842.1223701996,0.1448326192,0.7463584779,4547.0881250859,-662.1329363434,-25.6261237759,8457.5388902578,-0.8626559038,0.8603144916,0.496924357,0.6813535785,-0.7022865005,-0.1298067641,1.8999582179,-0.2732462371,0.0937449426,-1.6377942604,867.803019955,631.2407738756,-1.6168200654,0.8407601778,0.2941037192,0.2538937734,0.6536340769,1811.7422406166,0.5588657136,-3136.7326858813,-1.6861470248,-26.90179894,25.2885909187,-1.0522176076,4.8276688017,0.1616694215,13.0022576664,260.6413880318,0.4326013522,1.0188864583,-10.5488770039,0.256243932,-807.6514101962,-0.4318434623,658.8919927703,52.8236775158,7.193798971,-4.1908219411,199.2504165783,1008.4781523353,-0.6277007032,395.261007607,3.7553327688,2.1486388377,3.0034744617,-717.2960739328,-0.5953095149,93.5168733073,-0.1808053279,-119.8983197165,0.3854183421,1592.7872469715,0.3875361916,-10.791751459,13.5274375508,-0.2482048781,60.8095282568,0.9590317759,261.5698816284,1.4982022569,1.2438842434,-3593.1575756648,-0.3729075496,-0.4137938123,0.8258426734,-0.6086617598,45.8091131684,1350.1353909937,-960.7344452036,290.6444171565,0.6110271021,-0.8564536639,0.8952335719,0.9766749668,-0.4776177838,0.995798605,0.1401849679,8.2419103267,-2.8183817493,225.6488757695,0.5301389822,0.1311602462,0.503701177,-0.8645512067,2945.0877428126,0.5145724866,0.0847656578,1.1709831458,-3877.9870136946,0.7015405994,-5.5210604226,0.9752455056,0.701940661,-0.1427584718,1039.1015552384,1.9587317204,0.8254157069,0.4426900503,-0.1321115264,-0.1394526597,-4252.1307048684,1.8965341381,4525.2395567978,1.4415891421,-0.9848220907,-0.6388992277,-0.5517608589,0.2093309172,-0.1507728386,-0.8624375531,-0.6721877358,-873.9785075758,7503.5463216057,0.183095669,1.1940037426,1750.6358643476,-0.0485673473,0.079683608,-2.2489558471,-4.1639230975,-1937.5039785533,0.5991492287,1647.7349176144,-0.3379134053,3671.9833351656,0.0366152797,-0.2390715428,-2904.3400839878,-38.1282555011,-0.0944913847,0.4709088383,2038.0228642294,-1195.2329409688,-36.8877772934,-0.0582778051,-29.6619145081,3234.0490569155,-0.4927009757,-2.4525814202,-4464.156817338,0.3952809022,0.2572535705,-3164.8208748148,-1638.033378705,352.714977706,-0.5902176224,-2.8392257704,-1.2619112319,40.2107751626,0.2649575587,-405.1949060329,0.5695424323,863.8550213517,0.2512687152,2931.1548070417,-3.1253967122,-1.0623006564,1.5094298495,0.8833220936,-2297.1312067434,-347.5242681087,79.4333472763,-3226.0120396418,-2.0836447311,-1.3457745563,-0.0394827461,0.6382855578,1059.6828748526,-8.0256468903,0.3962383164,-146.5489251727,-0.17334086,0.0999947247,-0.323042291,-0.2755092421,0.7966724095,-6.2319576542,0.4315408076,-270.6390868015,-7679.2904837506,-5032.8969950764,-158.4274522286,-1798.6258404799,-9.0172508226,-1.8160643175,-2244.6036518719,-343.2045441798,-0.5682088598,-1143.7786936418,34.663494431,57.3422735022,-2102.8859814153,0.5077714872,-47.3288711901,-8896.2279448943,-3299.4694156908,0.3864814239,1756.3388501853,-8868.0657863532,-580.3005167868,-3134.3198958727,-4333.3117234994,0.0083055729,0.1560557014,0.000684769,-13.0476249997,0.3682793086,1412.3335386199,-0.0856244375,0.0079106597,-0.1929682103,698.9663224977,4961.6687778136,-2.9894415024,-0.6251970426,17.185396382,-152.8908540206,6809.9772172373,-0.6367966457,1.3324888813,1151.4774754073,1622.4881255785,0.1932661302,4084.8201387136,-21.9141356863,-0.6269325801,-2530.7177620465,-204.6621105183,1106.6683266393,2431.3086210873,-0.7306165689,-1.1273983828,29.4323218017,0.4565162974,-37.3245886752,-54.8705578078,-211.449140345,-977.4588740121,11.9871710157,-1.9741899605,-3631.6643370932,-7823.4031388269,508.5658511646,-2752.7354341866,4586.978471864,28.4846303036,-0.1232095418,2104.3773301125,-8.4506717817,-208.3585334093,-71.9608264764,-10.8235614599,-0.0813100757,-291.599699477,-1348.4247810759,-1876.4936619755,-1691.2279422568,-0.7034195909,-1193.8434161895,0.281500425,-149.9170154233,-197.5087473602,-23.5291924503,-7907.2508875479,-1.1260577126,-4.2780928082,-5231.289198646,0.1609345232,-8374.5195179342,-901.7502621619,1396.4766991428,-1271.7379516553,-8.8284268379,-0.4729638358,-2.8203134647,-0.8672142539,-1.008720183,-20.3239196433,1.0984737826,-0.5745582639,-0.4874950823,2085.1034117243,-9.0379379193,11770.3888603359,0.4009124704,-1.0620186347,-8958.0165974271,-2.5165539779,0.6100821892,2.6301649108,-732.7305620137,2.6016954745,-0.0877793888,0.4083743416,1.0129540203,-0.1606528228,3093.5096746327,-0.5022522782,0.548776036,0.2575767665,0.226483377,-6142.3333580098,423.3166467817,-0.2743636116,-0.0473894104,-0.1156250622,-0.2359661681,1283.806420721,0.0128995812,-0.9262643406,-0.5488163769,-0.4809887879,0.2014835345,1654.6778658861,0.8326746374,-0.5360059909,3.3656038311,-0.2707841383,-0.1113454656,0.7655587337,-1.3247132075,-1.095164484,867.9385028147,1.4120408867,2285.975053795,913.223140388,0.2490319143,1.8340545506,-0.8523848451,-3.0509582972,0.0753861203,291.7399891532,-1.3008664535,0.2490137888,0.1847872943,0.0908013438,0.2847704287,-48.4436941102,2544.4467066792,0.2046302581,0.1066471596,152.4784027408,24.4566421553,0.6832711686,-1055.3048428124,-4754.0403316012,10.8326809665,-0.3910095058,103.2503953998,-0.8557772298,-3233.9500609867,50.524977277,-59.3656778282,-1.1224360801,-4262.226409404,-0.2418857462,-103.4135109636,-0.3304117519,1034.291189854,-0.5692897635,0.0378726974,1520.610813015,3.6113511501,1.375039169,2692.5576742866,1.3914186779,-0.7967981824,0.4692872811,-0.4024348467,0.0856650651,2125.3907531972,-11.8784376097,-914.5580567093,-0.0946069968,-1.002574899,0.9546794883,0.5531319889,-0.3260596427,0.5328135803,-0.1326913398,1044.5051565189,-0.071758773,0.0462166021,-1758.4648801182,-0.8708336711,-0.9609740828,-0.1953659635,4090.5503201061,-1.1668965995,0.3739714289,-0.1426221208,351.2799164148,0.5466976062,1877.1474782998,0.8400411906,-0.3838724422,-3483.2485937519,301.8108964482,-0.1185127861,-0.7790147035,0.55250926,7330.5407724476,1.7768112454,-38.6133987804,-0.6183016595,0.5980946278,-0.2165848183,-0.0194270559,-221.38963898,0.1405029734,-3.3244287876,0.115192601,-0.8992023698,0.4247472734,2216.0608190934,1.2570811215,0.1731878263,-33.7151056079,-0.02109575,19.2101633752,-0.6576872873,0.9205643686,-0.8369761271,-2859.7176657478,0.0767113443,-0.3390615472,-239.0196972197,-0.6497531824,0.681631398,0.1186774558,-0.5047329773,112.6338730203,-0.3487437455,-0.1555810298,-72.6726460183,0.2248074654,0.664376349,-0.7806895509,214.3831907931,0.4519071295,-705.6728178102,-0.2109269636,-675.2127687344,-1059.8060424756,-0.6445644705,-371.0936842293,397.5697673927,4.5273632811,-0.4203583963,-387.2086934011,-0.1644921434,-683.4186563448,-2.1369439356,-1.0217741428,0.0444869302,0.2867920231,0.161153214,-3.1989124154,-1.1069757378,-0.4177324563,58.6236418954,0.4300809811,-1648.7971841113,0.441414604,-0.8222054804,-16123.8352146839,189.6167644158,0.0024105889,0.1540046438,-0.3054174463,3.3255593249,-7.1056285145,10.4896338742,1036.1328016992,0.3144031987,-0.5236275629,0.2366413134,-0.5061439835,-0.8967325071,0.9141175009,-0.5921493701,1.5700077507,-5.3631427002,3.8256907488,1492.3502613758,0.7070130561,-0.4821653298,0.1926762731,0.0760247512,-1.3619165665,0.9464999672,-0.5624553611,-5.8540815365,-1.6883089451,-0.7871851322,-5.3909249335,-0.7272086479,-0.7251711842,-506.7182301992,0.3223101758,0.4861801797,-0.0695149827,-2018.6335413467,-0.6340874019,-302.3055667136,0.1211948044,-0.064219109,84.7016692969,52.9315339631,0.4525459842,601.6066351089,0.6981838662,-0.4055047358,-0.7598794014,-0.2663032475,-270.1736449961,-1493.4019212182,-0.4760977926,-0.5171009885,5.1275726003,-4.9544320357,0.3054466812,-1325.6401371933,0.9098737227,349.8975011419,-0.7138209822,0.9385333229,0.5612506321,0.689218968,-4.5022646869,-0.2944023356,-9.7797842833,-86.5613010672,0.6760689585,0.2032186602,-0.6265743182,-0.370251096,-0.1358155633,19.8341685584,-829.5112980435,6.897963329,-6.0554209498,0.3748427026,-2.8835137608,-1171.9521793667,0.6159120319,0.4333542032,-8977.6204125232,-0.4204204479,-4097.6169109523,2.4438428817,0.4677053096,-10.0069164224,-0.5980274585,-816.8640249075,-0.1590722667,0.8785936778,0.3464369045,758.2952326932,0.7025437098,3.1785297464,0.0695172833,0.7404404176,-8163.0080636198,-288.7888133301,-0.2740361514,1276.8861389231,-0.0438918413,-0.35299971,0.1816243901,-1.9799751678,0.404512634,696.2838686903,-99.5669040523,-168.1930828323,0.0478757557,-0.1001309701,-0.836683054,-0.2281206697,-0.3965873033,0.1699350127,-3.7863033153,-0.3940687612,-7490.8194710474,740.1733606365,1811.7417186138,0.3789792293,-0.0383958982,1.3756767983,7.4366146062,400.9672667699,0.4574847786,15.3965358925,-165.1619679779,2.809875776,-6.3204293835,0.3293304404,0.3825594195,-20.9472889084,-16.4988359151,-2.5489567462,-29.4628650948,-5918.6253617664,15.4129052822,23.9098614671,-48.987462503,0.7583294687,-0.1201857403,-0.7925861105,11.10174922,-3.2671110501,0.3428706496,0.6088762748,-1.0287761046,-24.8256989978,-13.1186466539,-3920.7103962817,-5940.171302541,3.7317633767,1.3967074412,-8.4730793331,5.9593931003,-1.1925853923,-0.7848257281,962.1887838455,-507.9224606967,-0.1688296483,0.7447438931,2.9989242645,-898.2316614021,-0.1638832585,-0.6211013099,1441.6023977888,-7.2662176672,2.3299587771,1.6452910113,0.3103369522,-0.2997231127,2180.6700369799,-0.5324705403,2.8717446557,-3499.6935158065,14.2785032304,-5.3003778701,2783.1004578408,104.2736133876,-0.2624987618,1554.7922325546,26.8806173327,-55.4621713731,0.4262252573,14350.0254808677,3.3981989641,3322.908905964,-0.0891650363,-1411.7954486988,49.592952845,-169.9740238635,28.7540999441,0.2586650086,7.7538875813,4.0281607328,2828.6654249799,-0.9730179682,2597.3294756872,988.8611121134,-3.8644000747,-499.1334275352,-116.9150025094,-4.2582586569,0.0964126147,-0.8983078157,-1.8008811504,-1841.418922744,-2273.9553367659,-0.2408322925,-0.9618248061,0.8379533011,-0.0857368006,0.2083785172,-0.0858500823,0.8258059707,0.5361948515,-1332.5802065733,0.0975412803,16.199171901,-1402.9522702735,0.5893484015,0.3960313636,18.6277403992,-1971.8426140281,0.9529583756,0.8400006529,1.7282041184,28.9338524495,1.9244838592,922.1804554252,-0.2192846901,536.9869941418,-4.7477219336,924.0316457959,-1.0165533073,-3.0511026289,-0.0113727811,5904.8994358177,-236.6467159264,-45.3863970721,-815.3391393875,-0.7514017902,57.465461968,44.9983164328,1714.7363989952,-23.4028083597,1410.8362664846,-0.5686855272,0.5497948766,-0.0341915974,-1171.4094688577,-124.0338776016,11.8616899135,4.4336925867,-0.3451996363,1.9223979306,-0.1228882492,0.7606333778,0.5311072983,-662.4835643991,0.0805583463,-377.1741266233,-0.6524218196,-0.0788463661,-0.8904371605,-1498.6774104749,4.3583936753,-0.6592221996,-0.3650500068,-1.459184038,-0.6100815793,0.5195445531,0.9408427532,-0.4960636254,2649.0922489256,-179.2065993423,-209.8963891051,1.6405589205,-0.8081212195,79.9479853052,0.304728008,-3746.7007104559,4588.693352506,-3.5430922979,1.3534235755,7.4189092681,4.4161657948,-1168.6634671702,0.4428530755,2909.3280342096,-0.8954747789,-448.8329934685,1.3341803143,-23.98782045,-6.4401073558,0.9223154919,-554.2103398966,0.0961855675,574.963625108,1580.7063312976,-1.2199371762,-622.5262765478,-1202.4116559777,5.5003687495,-0.027195343,-0.284997119,19.8274635288,-123.3605377379,2990.2668892714,-0.6617353647,0.0058002987,99.1315513563,2.3132405731,0.6728905719,-0.3275548178,0.2984118044,-0.7178701183,19.0713108203,-14.3482016173,1719.0458581889,-6.4999466437,3283.999349162,-9.0597309446,-2547.6298417445,-4.2838382748,0.1853179064,-0.1568036362,-1369.8198952833,-2180.7424134652,-13.4433044699,-47.3201116746,-0.8315025336,-0.8308755234,-4291.3624104719,144.9242189575,-762.651306959,3.5461272275,-1.0295732544,-3986.1636074929,0.0669506686,724.1795659508,12.3674604462,-0.1239655059,-0.2711125453,-2.966150055,-1.1746575177,-1099.319692319,-3219.8725176389,1.0800813704,-1053.7783493265,-5.7101377744,735.4001688214,138.2341778515,-7.6489082416,-206.1054730746,-1.2009989892,-69.2724946352,0.212680704,0.3307756122,-3214.91828569,-5528.5357824883,131.6224164993,0.053051994,-972.8657526832,-0.3781974528,0.2026586681,-480.9229205394,-1992.5149354724,-1602.5664389878,-3376.9072014593,-1901.3638422822,-0.0866439146,-0.6197670964,-7068.140954662,0.7043986099,2916.1699130387,-1565.695984848,-29.6029557266,-10.8903638108,-0.2349896803,-8.5807586104,-1.5634457422,-193.7382505078,-13.9901817163,7.3383416137,-0.3085231328,-66.5512903477,672.2227593959,-0.6843790465,779.6872250419,2762.7428210218,0.6533155832,1816.9396338588,-2048.2689061455,0.5032267189,-3871.8514601867,2.376453754,-911.1209890588,-0.002074871,-35.9405832695,1070.0186834557,3.7688689287,635.7627846356,1439.1847587208,-276.1684263888,-1276.2019887324,-0.0734156587,-949.6426158611,4.7808950084,-2.1166949644,-1044.6584186013,-3114.6825951276,-1.0648466389,0.1530906821,0.504168906,-0.8805476117,-0.727108015,-0.1336498387,11.9151286227,3.5005821573,0.398686314,-1.4703910793,-0.5862183992,0.314251677,-1.5511963726,1.9150018155,329.0357162309,0.6330140021,0.0391023077,50.0813057809,2.5251454341,-9.8024602608,0.2048956312,0.0007439635,-0.6891417228,-580.4915706877,0.9718629827,-0.7653367986,0.2249569717,-9.7157096148,3335.2890199239,-549.9524999778,3.8430764469,0.4391121024,0.5707562708,-0.7305011991,-0.6976715469,-1.9295305536,0.4665868178,0.1694427206,-0.7880753695,0.8857651256,1145.0806133209,43.7501455453,0.062702937,0.7332361611,48.1178118162,0.6758968091,0.4385546913,0.5630134234,0.6857206998,379.2487031887,-1.2474085055,3.0346640037,0.3270385081,19.5336207918
   0.2252452173,0.5054578715,0.6693295729,-0.4813429571,1.1512976598,-0.8698262726,0.4338785459,-0.85354907,-80.5771918217,23.2784034941,-2.0506408467,1846.8072450788,-0.9503357069,1.2895134586,-2765.0328354829,-0.3261579297,-0.38391745,2432.3071027616,1.1140090886,29.781194026,0.1678104564,-377.195797262,0.3618190295,2405.3073792213,-0.7689049474,-158.9154727814,-0.0557235847,290.0841892443,-0.4597002504,8.7046448792,0.0837738431,-0.6298305092,978.0138790701,0.8708734197,-265.5709115396,-0.7030797591,-0.393252995,41.9325500087,20.4738950645,-0.9827011624,0.613322507,-0.0124187346,-0.4494487648,-1104.9380417016,-9.7199532548,1.5996528161,-0.1321698073,0.5075126501,0.4183709905,0.1083918405,0.9158271726,4.9766780992,-0.0719807398,-74.7573086082,3.4644449271,42.7766610182,-680.7547766293,1.0083755874,-3113.0021326712,-0.9214148962,-1089.3559243741,-4837.3502404805,-24.6761670613,819.7553630967,-8704.6220582283,9.3425730004,-1092.3773610057,-0.5885414067,-3465.0001700087,2956.8641475554,4875.9091571735,-0.6314257189,7.8341388472,11047.8817562567,-3618.0233822302,-340.5836862521,5852.0139502399,-0.5820436815,-0.1348719007,1.7247868769,15.9736128193,-15.8611245603,1.0687560737,7.107416321,-5189.5978618289,1.3952896476,-6994.0350834735,-1.4398069086,13.7837953221,-4.0887972231,6.4111520737,0.0244589936,3.0028249882,0.3474752592,0.7276344732,45.5240675428,-4511.0393668906,-0.7475274671,301.8662489453,127.0071514611,0.3329887921,-604.6851031793,283.0291700827,-2145.1400515976,0.3993789115,-1.3311107762,-11.5474065869,-35.5566989198,0.4243693555,77.6120205665,-0.4053688745,-0.3230671653,10371.5099181105,5.7842447618,-0.2732989791,1210.3965344025,3126.2950194905,-7794.3498606977,-1718.0432363867,-5354.5680706886,-666.7760953096,0.0500746353,-3395.3644262201,0.2146255171,-392.2040730524,-0.4617163509,-1782.8740264805,-13.157199308,-17.5031473944,-9.0872950942,0.7410776939,0.2245002666,1.506541422,-8860.2662760497,-1.131069371,-1.8543739617,-271.592683216,-0.0394475621,6662.7970931203,0.3418984489,-0.1234092372,-0.4398644877,-0.3050216348,-1194.137958252,11888.7246216882,-3928.3334816042,2.6123396319,-1.2994050445,-14.9802153488,-3507.6130834056,-0.9140747335,-0.7665817914,-3.6763917385,1.068351855,71.0876338614,-1270.3114877276,-1217.9160000893,-754.2119375242,-250.7774250768,-0.5496156492,-1304.851420153,-1.7122214862,-0.4717024742,0.3419639366,-4.7621224084,0.8574827836,0.3266518946,3004.029948183,-1.0303364341,0.0181357183,-11.6861960359,-3111.8134607716,-3.6948163932,0.4009944387,-7410.4666053104,826.0666809963,3333.4752186699,-3788.5686471604,-0.657117014,0.6306663056,-1.4907615814,-0.2277719276,0.0398713283,5.7764991599,0.1810698305,-1.0509347127,-0.6127035063,-0.285272832,5088.050729343,-1.8009354248,0.4719264663,5.1166191028,0.4086983059,0.372806608,-4.4152301145,-9.7116747727,-980.7712070973,2321.5751136342,-0.420009898,0.4281153199,16.9466325957,0.5873712738,-10.0757268902,-134.612634483,1389.111480319,-3.7860717069,-1236.2041812243,0.7033934153,35.9346104851,-0.5032190554,-698.7589223706,-0.7214691535,0.9186646718,-3.7741089978,-0.573924527,-12.1114000545,-5677.3523083569,-5516.4897197243,0.8240878074,-356.8725674447,-3.7728206116,40.4944117346,-0.8772088099,9948.6497499276,-1387.8808809511,0.9676567849,-9.0219085754,-2295.4678246126,22.8516383384,-3009.9337856426,-3.1890239723,749.8415698377,-355.0227179693,0.4674519966,0.2563136199,0.8375489198,-42.8192556506,423.6873856091,-8.8572901754,-3175.5447539853,0.5827436995,-114.2306480675,-341.5973529715,-1.0706104028,-420.125734373,-5031.7860250787,-890.7005763248,13.0178296172,0.8071265073,-0.6281686143,-17.7365768498,-0.7587544352,0.1475413448,-0.7335995956,1.7325729518,0.0900327033,-0.773783628,-0.3935923687,0.2956831136,0.1931053841,0.4365660502,0.2790702914,-0.1242419336,-0.6011314479,-0.2627117863,-0.1555439227,-0.2098082959,-0.1947364771,-1.0972534306,0.588882259,0.1099138682,-1.0751162519,0.4964243142,-1.1585279768,0.2137862981,-0.8325096101,0.6384250225,0.5056089713,0.3924478832,-0.6047841667,-0.6785310573,0.5249105805,0.9414124793,0.1217357635,-0.1673320307,0.7972614104,-0.4749106605,-0.3124567671,-0.3046207611,-0.1132104985,0.8073169019,-0.5892891411,0.3233829932,-0.6959592618,0.0769815938,0.3640589239,0.9615959816,-0.0810653789,2.2356237989,-0.1528374305,-0.2054805667,-0.6542194832,0.2013222394,0.9196267846,0.5998143165,-1.330096542,-1.1436434151,-0.4722978051,0.1958679452,-0.4839511323,0.3003265145,0.0389864738,0.2980904739,-1.2401039007,0.7743941247,-0.047287035,-0.307368017,1.235478023,-3.2297610527,-0.0837691568,-0.0778519105,-0.5779361029,0.6133250331,0.0619694461,0.0074936012,0.5672335794,-5.0067202224,1.0026483104,-9.8737524943,-0.4051112066,-1.2224540887,0.1031656062,0.6535601438,-1.0712081441,-0.0846970283,-1.1600161004,0.0206905849,0.3862711982,-0.3942202004,0.1242469097,-1.0942073293,0.204641394,0.3239792889,0.553641521,-0.4571226665,-0.2675459111,4.9549852684,-0.6518080505,-2.83776446,-0.0954214234,-0.6663285955,0.601986333,-0.9476332638,0.7865266506,3814.7414972398,-9.0426833074,-285.6610227032,2846.1525945762,829.2540556522,-13.8925690474,6305.676492397,-0.7568308173,-0.6230217061,-18.0239685348,-43.8428488773,-0.3101789547,-2.3694583091,-105.8829216429,5.1443497577,1.1488136683,2.4997119232,0.9788675578,4645.2049597249,7637.4159061156,0.875549078,25.4389804253,16589.6248499377,-2239.9551148268,-2067.4142753718,4093.6875695255,0.513521545,0.6034039144,1.7505520647,-1.7317167822,-0.6328788628,301.724512779,928.9021108664,-0.8399165586,-0.0605122364,0.9673492264,384.6891449407,-0.5308494186,-1.3170393183,7.9942728714,6596.3273236984,50.4555755554,-0.4289659331,4.6224966686,-0.9573397974,733.5134349264,0.8909185598,98.157266667,1516.9170709283,0.5367797183,0.539069221,85.8238760561,-1.0150948916,0.0558552429,0.5674361391,0.2856091323,1.1792474805,0.6514023439,45.4055379201,-0.3729413723,-2.648445128,1040.9326989553,2338.0993949966,-1.9541425207,3203.9181340102,246.2692959604,-0.1209296941,-2611.0933985335,-1655.9685501039,154.0255553082,0.8698184487,-1266.3547337553,-0.6893193815,-5628.6820705773,68.4095212825,-69.0773979472,0.1533354951,-12.3713547084,-1.9428112499,-0.1467741253,1883.2893384663,-0.0660150444,-21.5456330259,-0.824905488,4.8448571811,-317.8917641629,-0.0295991317,12669.830351727,-2.1863732242,-4.4715013785,-0.4865827804,0.3620552981,-1.5572010286,12239.1427379115,-114.1707652153,-75.1690078621,-0.3619434966,-0.2188017387,-12.3111763868,-0.8835006079,0.772765645,565.1452325456,1.8014171659,1.1258472617,-1.6957298701,-1077.8256712695,-330.5369397954,-1690.1734973666,-0.1327584241,-1.4041617557,1908.8638795445,-0.2888240848,0.0559387134,-0.6689802793,5185.2229582466,17.758438852,0.5042067568,-0.1460022296,-2.0900546286,-2691.0381470725,1383.0204378972,-0.0871515232,-1.4929115101,-1.0555600457,7923.4606716244,639.3789337898,0.7142626127,0.3990587766,0.0155012921,0.510048726,-0.2802570559,-1.4968260292,-1.1641484673,1.1214308037,-0.3519301371,-2.393809052,0.3771517025,507.8857019451,-6.0116305223,0.3566676486,-88.641322321,77.5391568217,2537.0587372049,-0.7536680607,-4.2596932288,-892.209060434,2039.4279993287,-0.5783848581,-67.8987119191,-0.4316023706,-0.285765699,-1.0439426469,962.9153870354,-0.1739906442,2875.9269975962,-0.6938152067,-0.2302044294,-2610.8111708882,2848.1524704156,-2284.9916191613,-2.9937635707,4725.7853208409,867.1397205556,-3.758819949,0.0800260713,2218.462009352,-874.0347851551,0.2873285757,986.0716692836,3866.186235941,0.622724227,-1.0220947894,-1345.2111723315,0.1106250351,5784.4056024622,-3331.9326566425,1899.7042268013,0.3001409016,-87.7820300479,-1.0810465743,-869.0973849718,-0.5131556651,-9.8113762523,-0.254637245,0.0663750001,-109.4569116541,-0.6231653013,-5.3628487038,-11543.6727472636,7.94420024,-1.1896997349,-0.3818144529,0.5197539342,0.45648364,-440.2659728314,2244.283101849,660.5889822183,-0.0756516183,-0.632104324,-3.4009834014,-0.9611243257,-0.1839333311,-5.7939678191,-0.4190183467,0.6812016361,0.7922099579,-44.543558688,-0.4806299086,-0.1958630728,-0.5873983838,-0.5818166897,-0.8925099746,0.3438651546,-0.9330819636,-0.2001265267,-5.597072112,22.3037165226,0.2839850118,8.484311754,1.3918625406,80.1914164529,-14.203722641,1.2435628376,-0.3022993159,-1516.6681764781,13.4517978538,3.2565210853,6566.8262241905,-1.6401916509,-0.5335000217,31.1212513435,-0.3602579241,0.8457125716,2453.2871293658,-0.4430102881,0.292087783,1.7390250632,0.4441460903,-31.7055047683,-12.1599305795,0.3788324184,-4.9012260731,-0.7263842661,0.0652401071,-0.6438060329,1564.8208595804,0.8333822615,5543.6735616427,339.7071152615,0.6362818703,-24.4102502152,-0.124728146,0.6645594564,0.6119957468,1.2883378168,6334.4799702257,-0.3759162343,0.075946567,438.8361515354,3.8288875289,-1577.1573616428,-0.4355262389,-0.7464169898,-1408.6916288168,9978.1270408187,3.142434238,14.1798654462,-1.5886723569,0.9066070755,0.9903511592,-0.2075641405,63.3707787715,0.6636629876,491.6057698007,0.4250491405,-1423.6401459177,-0.2653695789,1179.6757970317,0.387141516,-0.9416838179,-0.0410924919,-21.3775002699,1725.5213198293,0.8439384757,10.0204015886,0.8718407317,7099.4656844526,94.8874382151,0.635963006,1591.2712315071,22.6218004815,26.2988789509,0.7656652775,1.4417260918,-0.9731712284,428.500571933,-0.668668115,106.9954471646,5.1876437318,0.9727831474,-0.1908745973,0.8485929509,-0.4207177886,0.5666051926,0.8335726321,570.3431599461,-0.0344399633,2.1353988609,1993.039414314,1.7195143154,-0.1865687059,0.0327893286,-129.8757553293,211.6965597176,-13.0201664453,138.2381095111,-2140.0017502005,47.9768293299,-2815.4738503265,-1.2784175279,-16.4702880728,4582.1125016248,877.6145439769,-28.5343009881,8.9632781458,-1834.0922611842,4.4978554232,-0.5129781882,-1.2393996222,0.3055673711,-1.9137963294,50.7382577038,38.2475339125,202.7051257576,-1.107500324,-0.8828383068,-1.6046521801,19.8391963649,-150.6237926965,-274.6849181433,37.7662752826,11.2019493675,46.135688825,-0.3034376165,1.7990119575,-0.7123332875,-5.7136344761,-2817.4607200618,-4383.3523875764,-1.0421397723,-0.5776445688,1005.8131555766,0.6974934883,5.6430241944,-1.3464356547,-2329.6629213776,-1.4115376227,-286.8699050385,-7.178473366,0.0776245082,-0.1775693531,-1833.9114101211,-1.4606786585,4.0401395827,137.1391349753,-8.0131371261,0.5581621837,1374.2936834075,3639.6316607842,-0.0495146836,-532.4881049315,6269.7958207081,-159.7304008803,-0.7492669128,-1013.508555962,-0.6402422754,1590.404108514,2.4658213067,3019.2561436338,-7693.5370557219,-142.3064200247,-1.6937675871,-0.6235295976,12.4683732193,-1.397069833,-2239.3265127288,-0.2481014878,0.7070458588,-1546.1858073332,18.7306368764,3081.8636327928,-11.797999718,22.7281681142,0.3438413438,-50.7057379589,-0.6639679219,-5889.2977147933,-2814.722560692,633.6525024616,-64.4528791865,-1.952552542,2.5826228104,0.4946128476,0.4535165315,-1.4339178815,-0.7245284248,-41.1605769938,-1.1601896131,435.509739793,-4007.6223344153,-1.3607376112,-0.1106782936,0.8010715735,4.138953817,0.909224454,0.0168062193,0.7734662027,371.2503243256,-91.6481122013,744.5007004868,0.4836811907,-0.5844715891,-662.6864904567,2658.417102454,0.8618598154,0.0429444009,-0.8980943634,-2530.8835636613,1.4279296338,302.0075746131,-0.0829539803,0.7528906483,-0.5445298976,1.3405647711,0.6464990389,-0.5521426904,-0.2033981463,-0.6219978068,-0.0312153479,0.7749225131,-188.7820625419,691.3336838394,0.0041611965,0.3418469095,-0.9233301013,-0.095699626,0.4353210745,-1999.4173445869,0.2306116145,-3746.9196912956,20.3661817155,2.9999660012,-0.2387095783,-0.4114017321,2.4420432109,0.5012623838,-0.6039827879,-462.7524739855,-1.2131720842,-630.1932126285,-0.9861362245,-17.2768547597,-3198.9603119499,-0.1011077142,-2348.6581926388,-1945.6643118778,0.2387613105,0.177635557,1583.5874240371,-2264.0134292951,-0.9658101386,-0.6329890187,0.3057489336,-0.3633015082,0.0396133746,3.6709556333,1.033132692,-293.5473813017,-0.108626303,144.8866262435,-0.2699169993,26.6769597556,-2160.8542919287,3315.5004129583,-674.5411561086,-110.8610871339,-0.1499233426,0.5571879919,4.4312646276,0.7323699966,0.9090243938,-8071.1569048159,9.4881164175,-0.1270753922,0.8715237023,-0.4327696492,2.5405305844,-3.509633747,438.134694508,-11.0977130288,-2228.5574172629,-0.0815274488,-0.9150187106,-0.2485047343,0.2294041889,0.6366008133,-0.3147043158,7.4186675981,-3291.0627999391,-0.9596427335,1.4176671781,-0.2099498253,0.2401821582,-0.1105097454,-42.6402381284,-0.0746908858,-0.291456432,-0.8363191204,16.6255952562,-3.1333523614,-3.4138160976,-0.1224574375,-1.0904197038,426.8190175251,0.417030755,-5.3113661306,-1.7598090118,-0.8998710979,-22.0034081757,-0.5660637251,-489.9765479393,0.0198370714,-0.1266958328,0.0726801608,1.1410307315,0.336719451,3.2533738323,0.6565659812,-0.0076874081,0.843272457,-0.1301155766,161.6505422455,-471.2932696638,-20.4887017728,0.8724874951,1.8971724324,-7.0312474261,-0.5880377381,-1.3937243443,0.0529939855,1720.8467469217,-0.5764168778,0.6608111202,1998.9618484236,0.4391356872,-526.1118387019,0.4217962928,0.4206469306,116.1574931163,-9.1405104351,-0.250378917,-2.5179540868,1.1814326771,7.9513871344,0.889613903,-74.5129386064,-460.5059215925,16.1787474783,-0.8142241303,-3977.408081593,-2593.5084235107,0.5659337095,-34.6158808077,-1.5353885592,-3.1189424807,-0.4981757105,3.9868136737,-3.7977020437,6.4007245319,0.7942213248,-267.9073637411,0.8431971898,-5.4596298163,-0.7079068336,-8.2881915191,20.5091510109,-0.002206217,-57.7082768752,-1.8309622147,-1859.5637134344,6.908150687,0.197062311,1975.359374007,-11.745152128,0.4756620794,0.2236480622,-0.727006934,0.6777650029,184.2240487231,5.4824824725,-759.0126484897,0.6088904234,-3904.3121353119,-0.506748384,-0.5147486703,-1.2021170841,-2.1126542537,0.2025941925,13.3598248057,0.3298338912,227.7590987385,-1938.6645952513,-12.503002884,0.0425388548,-0.7362889823,459.0006427572,-0.4612986605,-0.7891545173,-0.5981012348,0.630776227,0.5724572214,1453.3219859602,0.1761074205,-1.0568279743,-1.2681871967,274.4511625174,-3.9079056402,4.1397359757,-0.9669260807,-2696.731768045,-2.0588673102,-38.9556632224,-0.6479416766,0.246665342,0.8857195986,-2.2514546844,-0.0418920604,8.8149498796,-0.659631763,-0.9757884015,-0.873505561,0.7697578451,-1740.372144357,-1.6190121167,-1.5656434658,-0.1204627077,0.4511440585,3.4693393379,-1.2446022893,-126.5720848275,-0.2352273006,590.9601273992,0.3953198176,0.0214226844,41.3961865273,0.0012181179,0.6359512467,3.9609201377,4.9427768464,-1.3412712728,-0.9826967038,0.6178135991,5.8782970353,0.4629345307,-218.0243621598,-0.1698776894,-463.5739082619,285.7496840903,-3.2264442979,0.1613865006,-1.2034167361,-3012.5131471866,0.0602265224,-1025.0440042381,-1158.0450737027,3.8060376942,-1.242410577,-8.13955146,-0.8672371382,2551.3176757025,-1.0948648792,-8.3355226383,1.744842497,-74.6707644344,-2.6376704878,13.3844997502,0.4091908012,-0.1715542514,-0.1687073723,-1.2781633694,-370.0724965733,-37.2419110486,-0.1213226681,1802.9831255637,-0.2809598039,0.62929779,17.9013728631,0.5245922715,-0.3335550359,-188.7716898088,-55.5374854363,-0.3452552656,-0.3249335688,0.9631844985,-0.1846861436,0.5048552014,0.8663708372,-1.4313899811,1.2992824785,-43.8952871113,-32.3015876576,-3.4194109813,0.0359832631,0.3615556041,0.7698040909,11.6774625328,3.2424866724,-23.8973136096,-0.1996696934,1.462944236,-82.5669503051,-0.2974621842,1121.9042676307,-1.0239220777,3.139729114,-11.8951895961,-44.2763544745,0.0270213988,0.6459546082,-781.3616478748,0.7419857987,-0.6207781153,-51.4984107628,-0.8676070116,0.7384027448,0.4614013413,-14.4264479331,1.0852335359,-1.2146181046,-0.6819114405,-0.426859005,-0.0945107747,-3.6599439415,-1175.5424917409,-172.0801282954,-0.9936551293,-24.1753638069,-0.5597974373,-1.8281652404,-0.6182838325,1.4945672159,0.2838089857,-4430.5111956617,-1.0141657675,0.7470583494,1350.7885984074,-0.2714544213,0.2200192505,0.5941873687,0.2899692435,-3.7138179597,-5.4967868347,2.2218108463,0.0664056645,-0.9751748025,0.0546116236,0.2838064399,-44.2333579751,-0.1830647622,-0.3106218261,1.7887499166,-3547.4601924515,-1558.9670167103,0.3688299345,1.216540474,-1154.768378438,47.2123064183,-0.7022822017,1707.3841580967,0.8927850267,96.1249106173,0.4570114582,21.9672560659,0.212271092,-0.0434459971,-0.4060146197,432.2967463778,44.5705598514,-0.8826658944,-1128.5672146806,0.2857013897,-2.5493112018,565.819889615,-0.9041127769,-2114.7753137042,-43.8303874828,0.6639034127,-0.5337693816,-0.0874577984,-0.0131425733,5.305425312,253.9943192489,1.6499234776,1.2306864061,-0.6178225944,1.0253886679,-0.7385534355,-1.8488826866,2190.2311927776,15.7218960079,3.8249789956,-3632.6650968344,1463.7620033638,34.7583950646,-998.3504857863,-46.4541598788,1.9823073884,-2095.2380263269,-381.0650086436,-0.9207187718,-1.3056386374,-0.6244164037,449.8163942264,-2930.7303785662,-1.3487962617,-1.4784372736,888.5366912881,1142.8369828955,30.3753050182,2308.5931687962,-2015.2564702806,-5966.0123502162,-2998.345513423,3.2451448109,-1.5745934843,-0.2404444685,2.8558093579,-385.1706010802,-16.1191543621,-1.1545252175,0.4547747836,-1.029771465,2.4823576892,-0.2202683763,-47.5116902051,193.013813887,-10.9273182825,36.1250614259,-147.5334816487,-587.5825030198,-0.2813187877,0.4383149382,4222.8678774236,213.7490643263,-0.9693756653,1542.535336241,884.1938317688,-0.6910148064,-4204.451530547,-66.3121997784,2914.4231802639,71.8590121259,21.3162394971,-2.5121301526,2290.9304495876,-1.4841059137,3535.9283694096,-0.621691645,2315.4358139228,-3890.3298755478,88.5277579311,-11.708516235,-2653.0419590495,-38.4249741003,-0.1770221367,-3686.0161970934,-63.956261031,10.2833122653,-0.1953724667,6.9140170055,-0.3115961653,715.2045477275,0.5000817561,-3539.4771066269,65.6960324947,-6283.4197304178,-107.0452088203,-1791.9804590633,0.5662139821,-0.8168141131,-119.1746476506,-1.5066584245,-1.2138854196,-5.7761032213,68.6593044593,3878.7253533876,-0.8084477386,-3118.6016560705,-622.3998049066,-1.5348838681,387.447008766,856.0440879779,724.3555670226,-1.861238831,0.2148871084,-0.7336107412,-280.1552554364,-0.5059411512,-1.2177854079,-0.233232774,-1.368637729,159.7485963296,-0.4210661856,-6.0059393972,-1170.9781998636,-1.2491286948,-0.6898019186,-9.835920163,0.33388139,-1.2144386099,-0.2983100377,-0.3300024925,-3.1043634285,-0.6384309044,275.6474072639,-1.0880378853,-14.0315487108,-948.2370050662,0.5524911387,-1.1386124892,-7.9930020007,-0.784618979,-1629.2059192445,0.0353478861,-0.9305385101,49.9852278948,-0.0920359226,-1.4367999685,15.5612048973,-15.9790076058,-2981.0338020021,0.6986611192,-0.5876211697,5.6127482601,0.4663678322,6.5043754334,1575.8719234461,-2.0430872344,11.4637719258,-0.4059213657,-1.2018976518,0.6730925822,0.4861319203,0.7497193359,-1425.2152070404,0.4996625053,3158.6330663336,0.0970781142,-0.3625964604,8.0403582133,-1366.5451918195,-3053.0032971835,-4490.24445097,-0.0857878142,-0.1454995829,-48.8598970984,-3.2440573285,-5.5109206685,0.2085465491,1.348504368,0.9878916353,-17.4201037366,0.0514382339,-26.7030992605,-10.45595815,-0.9262506774,858.2564357595,-33.7674438477,-0.5739880546,-1.0520189536,1.0177039573,-0.9285052039,-0.753685586,-0.3340911808,-3.2075218419,-9.2066459354,32.3703014447,4.0349226511,32.5770172027,-137.3043257205,0.1855110447,-0.7893435568,-0.5204255353,-1654.4047416452,149.8479827874,1.1384941362,-4157.3326011218,-0.1870026863,-9.5517966795,-0.6315444762,-2.1000094884,-2467.476937884,-1.0993421249,-3.9045142149,63.1258396593,0.143320555,-0.5973347682,-0.8612582079,0.4884550303,-0.2939607197,-295.8981130103,-624.8622559825,0.9294242192,0.3803023646,-0.1059676795,-1386.3207897576,-0.7015748889,-2.2037499355,0.4489485784,-4.739503941,-1.4238109079,0.0551546187,1.5939285185,-15.2731710453,-551.122114981,1584.9986973938,-0.6466682307,-0.3549734427,-1.3477652975,-28.0466573169,-121.6965200099,-0.8155563131,-0.9105330585,-1090.518086132,5.5224126519,155.5783279466,4.7625739138,-0.1820010835,1.7473660482,-0.8637698906,1.8799163588,789.2114148062,-0.1520561362,2.9397381968,1.6939615241,-0.8079130779,2245.9610265073,4.5442846337,-0.5973850541,-0.0839918415,0.4905806708,-0.2137078109,-0.9041407518,84.8535574513,0.4765159662,3072.3526472321,-3.4805191008,2.5558061265,1.1291552605,-0.5038843408,-0.9353699136,0.0939944935,0.6411954543,-0.4582031187,-492.299826224,-0.6719900944,-1.2785604041,2546.6652472954,151.1338575751,0.2357882541,670.1677867267,-8.4904515292,1827.5289007068,-0.271231322,863.8377580736,-2656.0611468447,-1.3449479498,-696.9631093142,-21.2060813255,-0.3186840189,0.6100948992,84.4631749841,0.3860375916,-593.9326924563,-0.9424234232,-6954.5867671576,1.1387377829,204.2484006862,-34.7194361519,0.0542548899,-0.0066667694,0.8641289606,-615.5889709944,0.2165821635,474.2081489192,2.1974289766,1.7911892498,-3064.0905725031,-0.7261971462,-1.0674334833,-0.3234424314,0.5773253327,-1.6622099288,5617.3545339854,67.9282335053,594.7055254074,-0.4119828565,-0.7839412851,0.7746600722,-0.6957899969,0.525355019,-110.3721874205,-1973.9885976331,35.1750922662,2.6430800671,1762.2930490719,-2.4336171337,200.7087625756,0.5188007895,-20.6753158766,-267.3663988177,12.8517590488,-0.3265503551,-0.9589419075,-0.5879838307,-749.8564015781,2898.8188902147,2.0842954071,2.7989120767,-0.0302730204,10860.2964202942,-9.654806614,-72.8957353432,11.1725977097,1613.8967392528,-3770.3778926013,2418.2315374781,-0.2163670136,-0.9172984254,-1207.1006615532,-1773.1165927716,-0.4002923917,0.166572449,-3.7286091649,-0.2097577849,-0.350620266,0.8651528464,-6.7023720055,-0.4895254066,-401.238515064,0.2707162752,-1.0181500044,-23.407238348,-0.2142671398,-14.1238620463,-2.123771025,-2699.2877108648,-0.3845364243,2.3133515951,0.8853153874,-1.0418763916,19.730659309,898.1585090832,-0.2920909174,4323.5759345229,-740.5509308545,-3242.4802079537,681.7913368818,-0.3902596933,-7091.3551421751,-3196.0439968431,-15.3573603746,703.6532965731,1.9610942793,-1.0663627727,-35.2949803377,-809.2857704655,-1.1935234459,-1316.5182933339,-1002.258766986,0.4446215182,0.4670213539,-69.0682594187,0.9690959291,198.0170720682,-0.9036565631,946.1808961483,1.2314569097,-2.7525603009,-7342.4552115066,6.38818569,38.8988958719,-0.1036214807,0.7203886206,-0.1856351733,-0.0881898354,2353.5491728499,-0.0563055102,-3303.965874939,14.6223253697,-1.0957970802,-0.6077258152,-2.5747424594,747.420134722,313.1975078428,3595.388985268,-0.8528873565,-6733.4895042799,-5.7808117841,-357.5314959945,-0.4905518901,0.9009341113,2502.7159380623,10.3386842248,-1.1628439767,5247.0642666227,7754.7635730595,37.9932982415,12046.0503667196,-1.1345591737,0.889139163,3.514420645,-0.5064374297,0.0418067712,0.1900285639,-125.1382767136,2.3748543406,-2621.9698432995,-0.404233811,1.1893335247,1390.9468210825,1460.6131930927,0.7335560035,3089.0899680453,5803.6349264716,18.3078785136,1.3275981415,-189.9165119062,-0.7688260733,1.6766512241,0.3483349114,819.1112558563,-0.0474583356,-0.7618242809,980.1727663791,-0.7886264077,0.7434445899,-0.4217042251,-113.2920178026,1.0379951222,0.295568154,803.9760508431,8052.9000474155,-1941.7112800955,-0.1672786712,0.425127601,-0.7941133852,-519.5092399781,0.6101688953,-1.6518360321,0.4513516501,223.1985824437,-1731.2430800084,2905.7320343101,-4398.6391157889,0.7637322474,-2.6502420068,-0.034181764,-2.2637027358,0.2788738265,1022.2760980199,51.8412551537,-221.4667921411,1941.0762730056,0.0417799065,-0.3842076521,468.2488376117,0.0863559172,-0.7018797694,-8656.9018946637,-2202.4547626575,6.6069583872,-0.09867669,-2601.1942887519,295.6245507364,-980.3358034475,915.1407418294,-858.9505638423,-0.5873020895,203.9676245247,90.0280180736,-0.6272956309,35.7556596553,72.0761530951,8.6255690616,-0.4160475,-379.3213065247,-2123.3053280912,1.1135260415,3984.7225463785,0.290967958,0.4416756579,810.7399619643,0.8247471513,-0.3993252187,4150.5606181067,1355.9189963347,-3949.9855969377,2.6334040783,-0.4807999961,-0.2624743133,0.5941770818,-0.0042381009,0.3539491491,196.1274719696,-1882.0557833047,2408.7653318737,-215.8983485028,1.1413391884,1.9206149192,1.0836895061,6.947885048,-0.5276639643,27.6070692898,-0.2955013343,1.5754763024,2288.3422969893,0.0475199474,-3992.8421899525,-0.317913188,2401.5067246999,917.0325596348,-1.5403289405,4.5932060978,0.9265871694,-1.7229256382,594.2203196042,-1869.8348770633,-0.4387819207,0.2534407588,-0.7035814139,0.0126778807,-2.7046139179,0.7460540348,0.3285039428,40.5115808533,1.1613304352,-0.276615235,0.6139877331,-2.4442569382,1.4825728462,-0.1835363479,-0.5613703329,0.716859556,-32.8888988109,0.6090233296,13.6468721699,-0.4112502787,7500.1719414239,0.8470642544,-1779.1190987498,-5.1151903624,0.8565064184,1.6850511359,2762.5287634102,-854.8383105911,-1216.5359897293,-1.9103013036,0.429948966,2156.4343634455,0.9092823309,1338.9063972993,0.5454494893,0.4186330045,-191.4328574184,209.710373912,-0.1806531885,1423.9173390358,10023.9854326158,0.2695509902,150.6407144987,1352.226169459,0.536123542,0.0382606721,-271.7868113458,-0.6373503902,228.6818892304,1.1840109471,324.8356623426,-0.6668410965,928.7285838857,30.3729326489,-4758.9021656513,-0.0278448181,0.1829615895,0.0460063915,0.0789195356,3017.1814275946,3309.6774865454,0.1210167621,8616.5839973656,-0.2113121325,60.6415377346,127.7446072739,-1.0136975938,1101.6714996244,3.8673995625,0.2598995441,-410.4817168102,0.563085968,0.6610956974,0.8226663599,-0.4432546049,0.389665157,1.3034884694,-0.6775083101,0.4764157169,957.0130684567,2.663413981,-69.9528919248,1.6142499755,-72.5068136832,-9.0894575774,-51.4335460924,-2952.7949827837,-20.3489080337,3937.0349437443,-3886.0638485573,0.0263398166,-19.1319587224,-0.9323687218,-5090.685542082,4557.8442403178,10710.313879049,-1.853951923,67.4595303225,13383.1854783982,-3000.3575777365,-58.8905203071,3288.4433001597,0.2167354236,-0.0903524022,-0.0012192709,1.0083696675,-0.1447100959,1.0233367506,0.3569774281,-2902.7539381991,-0.9973235523,-2019.8908581402,-2631.3680524099,-0.9028101368,0.3042610536,0.1469551949,0.4708869326,5.5320964486,-3799.9808208844,0.2602360728,-1710.9576121831,-3562.615928769,1.480603373,1787.3732392431,450.3876271063,-0.6023561528,-1358.2627729618,-7.7781978862,-1123.4835659237,0.2502946643,-16.9219957454,-67.0748872487,-391.3512637465,-0.4254896157,786.1019504095,-2.0302623038,-655.2558921175,9430.0559244101,24.9852839036,2.5698563249,86.6026313204,3829.5945669276,-3709.5191611005,-3088.5363567942,-5652.1238024513,-0.6709975294,0.5513446669,-889.8004944501,-1.6839205635,-224.5596767521,-1.0765570818,-2757.2241907471,-0.3755990042,-754.1643858834,-0.1422452155,-0.3225103113,1.7898200111,-0.7123659349,-900.6401207792,-0.1730178935,-0.4062961746,-3900.8336338707,-0.2007249302,2280.8566895746,0.9586098279,-0.7466516669,1.1480911568,0.43005199,-150.8297744853,12124.6053966789,0.2906530559,0.1426578292,0.3133766107,0.5919332578,-3.4121293507,0.1344223658,-0.6254057533,-471.3456065797,-1913.5547252953,34.7216966231,-1.2237828297,915.5405558599,-3060.2152186114,248.4501852878,-1.0171307652,-381.9728094917,510.0218589477,-11.3636545691,0.0990684563,0.1090048005,-0.803074664,3.2871398275,-0.32045915,0.4194151403,-0.2543198466,-28.067227278,1191.6686946324,-4.5680116763,0.262821503,0.0835275306,280.2050760889,180.1944975886,457.0332348076,0.4096880908,0.0386342926,-1246.2249740641,-1.7278215336,-5.0059848702,-1628.1319928562,-15.7717595086,0.2622218382,-168.2558253173,-1.1403917625,68.0423503223,0.3583445492,-1984.9547484752,-756.0371821275,-1.3191544021,-4.0006001767,-0.0262982248,-7.8454589806,-22.1427572934,-2704.298134249,1.990878903,2868.951858088,-1.0343719987,0.0288741155,-0.5993060459,-0.2587746402,-0.9838028208,4675.1700962647,907.0903940433,-1.4497134182,1707.3286510992,-0.7703813624,-950.519247998,-22.8830898243,-0.8765128571,-2843.0886608558,-4741.9744268373,-56.7464606802,2079.0452650754,-1039.7456300517,-1.13090825,-1171.859877056,-5697.125443025,77.8688212981,-0.574346087,-2705.8095924873,0.0680230141,92.4475556297,-0.0103644335,1224.0915732422,35.0690937975,-614.9086439481,-549.3899536389,-0.2025370731,-1520.1198202043,20.6353064521,-452.9129191253,-1.1370508869,-1.3272674892,-2.1348728653,1.0662976728,-564.9063034492,536.6912863411,-5654.6528241069,-250.6212398186,-0.7857516091,0.8709260837,-8.8920863395,-834.4753900783,4.2981336223,-1379.3057194766,-1.0784679183,-0.4683931329,-0.6716252198,0.84189876,9604.8750440078,0.6515732819,-501.916677672,1773.7003936143,5231.3235873037,0.2947344748,1.8224092927,-0.1170478082,1.2533030524,-0.5248763217,3.4335202517,-0.1365691727,0.4657566115,1602.659226699,-4.0691587393,6.4758601578,0.2714089384,-0.2483839727,4831.9894892863,11.7183201487,0.6554930405,-0.1328805544,1808.1898280485,5727.4257365879,0.9631821495,-2023.4977159592,-3.8819500009,1.9700653523,-1.3614377468,2.0792489802,13.9224126803,2.7955572303,2134.1912098009,-0.5173952686,14.3982002221,-0.2500961555,2663.0173170319,16.5674999632,0.0282409355,-2.3391088491,7172.4332035246,6.1446404255,-0.2273272593,0.5105238346,-67.8282261361,-2211.8183725035,-0.3625190547,8.3346289639,397.3101900645,-0.4896116918,-0.300119516,2.0674091574,-0.1420102905,-0.6674628274,0.0136319251,-0.6290013477,-2.9229327218,0.2963714686,552.1994800246,-0.7540660064,908.0881345481,1811.4562425694,-1.0060866573,0.5295642984,-1441.0402282904,-10.2885223716,0.8902169736,-2899.7689955364,2803.2119273777,0.2441157378,0.3719848421,-2389.7294380082,0.6971374778,30.2632255202,0.5515785631,-882.6796456076,-0.5091782105,0.571573446
   -0.4928116689,-0.1295474977,5.7027876645,0.2686236363,-44.5250039058,0.1279277029,-5.8586129202,-13.6067016074,9.2727752132,-607.1358673588,1.174749322,-1.1364343894,-4.5959548753,-0.8702833651,-0.3580460431,5220.9783011294,5321.2951225105,0.4839619694,-0.0203658096,-0.611137978,-0.4135044267,-0.7367819426,-0.5398028695,-10.2805943198,-0.2761238417,0.5599318222,11.0943765141,0.937373799,-9.0794124227,-0.5286195913,-0.517812303,3.91786172,-11.2527763191,0.4479667282,0.2041868884,-2.5484310582,-2.4050457411,-4.9162425857,0.6058661726,0.2812889319,0.0935910034,-2.1653348531,1576.7161097751,8.1197104506,0.1817390146,0.4970693907,-2011.2316203633,0.2850126588,3.6654775055,-0.3121459949,-1.2998446274,-3.4689815954,-0.3858483202,0.1099325773,0.8148539161,-0.637873653,-0.4087130039,-0.6916326144,-0.3237388016,1.9914885033,0.3005386413,-0.4204947337,-4.455989214,2.3982746508,0.2067891367,-0.2427007529,-0.3311060211,-1.3063390479,-49.9565321156,-0.5242923654,30.8440271888,1732.9039116233,0.670967432,-0.3609387862,0.4305554858,1.0867008172,-57.4667803075,0.8809814428,-0.4056066125,0.5750390937,-0.3462791161,-2563.5999189368,-1261.0692813558,-85.2738274607,1016.6296136304,-0.9460430344,-0.7518468457,1385.089135474,14.3610349395,-0.9211093555,-988.3824268514,-210.780431639,-1.8991754409,-1.0159730943,338.4143931198,-0.4538056174,912.7316145399,-0.1160915662,284.0463594724,-0.0692283168,1091.6726979474,-4.5727762472,-3.3840094485,1.0225105926,-3.0865211133,-95.4220966706,-0.8516634781,-11.3697066673,-1.6387488036,-0.3031921677,-275.5167095862,0.4998598468,-1.9105648142,-2.8385271811,-0.5940473341,0.4733427202,1414.4787188786,5.8852590573,6.4910064155,-190.9444497691,-2.8358032695,-0.2426884229,-0.3310177458,0.1966592581,-339.224340763,0.5803625815,-0.2852719398,-2305.8056453081,10454.5094931591,360.6220194176,309.9786449725,1.1170158981,2409.1708915349,24.1917577667,721.4762743585,0.7170088673,1757.0809463682,-148.5899585517,-7.1056228543,-4395.3858893502,0.9389876921,4760.8204801576,0.8067802013,138.5205980503,4.7302043088,2.2101947959,-0.8003930734,-1306.8425684686,0.2987249739,-12.4774717261,-7.9595925809,0.5030395473,1.0165610168,35.9343583158,15.5482835953,-3.7791314012,-0.8994532621,-0.449076517,-0.5170467646,1.7326439225,-1131.8469151912,-3089.8469704119,175.9101332923,13.4821718431,764.1489364667,-6.486810683,0.4710818438,-0.4759134801,-0.0055970196,-2747.266484655,-0.6291742486,-1.1524764885,-0.759483521,-0.3264313303,627.3854011737,51.8144752141,-65.4818542562,1.8076649325,3.7738536694,1.2517636469,-1.2875462021,-0.4002807274,-887.5547674848,-0.163528161,0.9287219896,3058.6701652908,-0.3795397084,1.1643077655,-719.9261969345,1551.2924688771,1.2129529773,-367.3837273033,69.2367586156,-0.2929325049,-1500.2710776118,2962.5873749683,9.3724004413,0.6917020334,0.9176057201,-3145.5324465778,-0.0605881822,-9.3873922236,249.1490815486,-602.3418563568,23.4791438145,11684.5622993835,5547.0134144887,0.5939790388,-521.7184060211,-1.6844870571,1.1291258231,792.4960601884,-0.6002990795,54.3380892835,3004.6893792986,0.7307985991,-3193.3117184499,-381.6741758447,4459.0597721283,-1.3379853827,26.3010062979,0.94678565,420.1042163885,0.459850007,1.0799649833,-1228.8082359404,7.6830210123,-0.1809908265,-7.5112505545,372.7603502991,3.1784134486,2738.5505350808,0.7617547787,945.8009975189,0.9271442651,-6.506758025,0.2295625869,-2.2877511583,-67.0242285602,1183.2432865778,-3290.0570436332,-0.0620314725,4393.2717868679,0.6548600793,-8.9956080296,71.3060564024,-0.8613298471,-0.4853705469,-112.145053573,-0.0892345367,-0.8803398635,0.8027008837,-0.8874387861,0.2263629284,6.5650575757,-0.4440635576,0.023876428,689.4583790164,0.2825834148,-0.2845612812,0.5936492753,-4223.6119139802,-13.2361701811,95.9053051712,1602.1345853411,-0.0128687268,-0.8081056627,0.7962818634,2.0104090329,0.4995401255,-736.9213374489,0.4916674206,4.1062006829,0.2485349773,-0.5475484136,-40.9261435438,2207.2213196425,-0.4631574093,0.8413331979,1233.8235649474,11.9382012438,-0.5092288604,-0.4080266,151.7035070555,0.344224248,364.9842965042,1826.6340030352,0.4087070694,866.7158913185,682.8802471392,1.7286587909,0.5055350483,-41.3694200551,-67.4402502046,3.4763392903,-3.323652202,1886.7949477368,57.4312375616,-1713.4473612879,1431.313267281,-2927.0035122029,0.8148357082,-19.3949475007,908.9045793687,-101.7809832603,768.3974839042,6299.6980926506,4.2763428965,1.0399248931,18.4917638912,-0.3673653516,-4.118063778,3945.6330144267,-10.06730919,1566.1913795336,3487.2388087515,-0.5036112286,-3124.0387798664,-448.8506121205,-13.2372887858,-1242.4503085301,912.8863611606,-0.0238253146,193.3181410878,0.9831475854,0.4136967571,-1007.2252646593,190.8352167627,-154.4635765464,-6.0906681836,-1383.3560379238,54.2243416058,0.8391931131,29.206904896,0.644644995,-35.2225615038,-28.6639201,-0.1790076501,2.1132494209,54.8967585916,-40.6735224527,2.5487646413,0.8012224916,1.3024576559,-0.492514082,6.7905832514,1.8041776429,60.0320088654,-39.0990605195,-4206.2094335441,-0.4547575044,0.6911659798,23.9257336673,-0.247767393,40.2580428846,-0.0848339458,-0.4064628608,-1786.1583831591,-4.1395611229,127.6317542908,-14.7451026029,-0.4953484043,-1429.1911651524,-2.9326491428,1.0038011586,12.0375150383,-2307.3072685722,7.2663076058,-0.6692655776,-1503.1228097141,4028.949291617,1642.7343297682,0.1734812922,-0.9101984034,-1.8180257241,-0.1319761275,0.2580366324,-130.7533258381,48.4429198748,-1.5811208124,-1.7258429591,-1.2027653085,-3.9675214585,-20.8196604256,2.6750705064,0.2916032942,-2168.3829594836,18.5032129149,-9.2501441084,7.7376951993,-1118.2753137587,-157.0267288279,0.0226661743,13.1808513082,-4810.998738718,-5.3450747442,-0.1920211854,8805.0128255851,0.1094803619,-82.0549574462,-0.3854928585,217.2260419701,0.7412289,-0.0281493935,-0.5926997135,1132.3206604961,-13.5929483462,1516.6940674253,43.0492878468,-0.2910682159,0.8011977211,7902.6897708921,-30.3732515793,-382.033488966,147.1201093854,1.8628810886,1.2941252158,-0.4103985119,0.3528237798,-1238.2339646775,129.2247003466,52.9750613473,-0.9435069588,-0.1954825943,0.9902168985,0.3964648745,-0.6468489123,19.6402116525,-50.5342005665,70.9995459114,5.3463863192,0.9578571383,-7.854660658,0.427335857,1.1296047476,-0.1013065063,-36.7263044598,-7.9900520599,0.4495998634,-0.3167085189,2456.4888754951,-1.51107738,-273.7060534458,-0.1467487599,1.8066183737,-2.9953965459,-1903.3171228419,-2.1197371747,374.3038031515,0.1970110967,3681.8787774711,85.2381309486,-1358.5903990579,-0.4483455773,0.5173595587,1.1417177723,3.6426105133,1.4995773702,-1781.9353476397,-3.6072654602,0.8903512109,19.637153067,-0.2026918665,-970.4984056416,-315.8998209877,0.7133801347,2.9916565861,-2179.2611184949,-13.5876987759,0.7818485354,-6.3459498205,0.9014052552,-1361.1164488046,0.2722493355,0.945460437,25.0724081302,-244.2943250036,11.5906173995,26.6938780209,-0.5845619747,-246.0446919064,0.313548201,-0.8120894833,99.6141606426,0.5570591805,-1.8201681439,0.3478653957,-667.2899974581,851.7215548956,-4.8104526382,-0.2153687244,1321.4033293515,117.6288784534,0.4070354076,2735.3202728861,119.1441563965,-2.4336244697,0.9914929653,195.6259914213,1.6191054705,-1372.8539561075,0.444411997,1336.8208045097,0.1590361331,-871.8856236454,7.7054548471,-3524.1927148054,-25.118102109,11.8156475909,1566.477580105,0.1651010265,0.100554913,-2294.7397391208,-14.6455102239,-182.697417128,-59.0659418268,1.0337718873,0.0078331791,-0.2696942583,603.8208057744,-8436.8768851192,3213.2082471686,-253.8813579789,-90.8391606884,-0.2967991358,-0.0152198985,0.6012018453,-0.4487742767,1.5291494104,1.0605784013,-13.4763827943,-0.2496040889,0.1359869,-676.3530773135,-0.3420265798,-0.8775536712,-0.9577524117,-1043.0103014111,0.315074065,0.6880978867,0.666713057,-0.3394202919,9.7330026956,1258.0552966251,0.6631557701,0.3974316419,1543.4359370496,-8.1133693539,-0.0580632686,107.9479071856,-376.7033538419,-2634.2990296955,-989.7785977352,-5.4059358516,2144.6049929195,-0.7458733918,-0.3222900092,-0.3303294876,0.2887008128,0.8898435489,0.5758799419,0.5595365562,-0.3207228192,0.8657069508,0.8275733047,-0.6092757775,6.6156951106,-0.9820950689,-0.6203671463,1.7259902626,-0.782571162,2.2541986359,3124.0431459817,-1840.2626734822,-0.2058961176,2.6690972951,2085.7050475465,1.4729490876,0.7737572052,-1.885499912,15.2585956587,-2.4676135128,0.2953826162,-0.0587008202,20.3457193931,0.5033772336,1.9179557877,0.6959043291,-225.2448240616,258.9842342119,77.0837872342,0.0761554494,-1133.6929395304,-1319.5976547367,0.2728468987,1730.9457105835,0.1066667768,16.8454864728,0.4821153585,3094.9911134973,-2.1466918906,-337.6203392875,0.8229578275,-28.42240218,-0.1210881917,1028.3183597149,-0.5078988716,1724.9970628724,-0.3295089728,-2.775434177,-0.9493243182,0.6798160943,-0.2345823033,-10.1869710134,0.688564498,4150.9273392075,0.0184938138,0.6402442479,-0.0052756377,0.6021224592,1412.7043337933,-765.68186927,1.39228497,-0.7252001489,0.7223295317,-0.7755563448,0.7180651237,0.4081161283,0.647886248,1385.6969695055,-3.3749210354,-0.128458968,-0.4948948146,-2608.050501456,19.5188422064,-756.6956810553,0.5648305512,1.0833294316,-13.6058858916,-3.5840069449,-1.1753773224,1.1563169705,-0.1807458044,-3.2084224264,-409.5217184196,1.3394416336,-0.039274199,7.3432405737,2369.5547406926,-6.0108323875,0.3247081917,85.9149134374,5897.8071728908,-160.7654855141,-2.8951080027,-0.5417127934,0.2791620248,18.0803190164,11.1059708389,1.5978382466,0.3296251785,0.466458714,0.7972013449,0.8753668919,-1.3209850967,-0.6472232394,-20.3507149802,5.5961629677,0.4101638377,-1345.2059680422,-1.8093083597,-0.1380978863,-0.0116915465,29.7301614945,1080.7275497143,-1.149824879,-916.439168266,0.6697063201,-1.2280589047,-0.4127405969,3.2760755305,0.0849627328,-49.754125694,-23.7540189903,5.7389625285,-1056.4587142486,16.2888662179,-5.166791093,0.3341748689,25.5098111681,-3021.2735169374,1.0571441842,13.8771286694,7397.0771116965,-54.2001132605,-0.8356630843,104.5188278164,812.5879238667,0.3686116021,-0.1592039007,2556.773135553,-0.2621263815,911.4985230941,-0.9956811423,1371.9969049959,-0.4946400219,-1.1414311793,2272.1165955766,-1451.4539721579,-1.8070236706,-3.7490059278,-22.1443170221,0.835354745,7.130555572,5858.2348955073,-0.470254667,2206.0526834547,9.7419066135,0.644239248,2245.5317799538,-0.6683052733,-0.4482889791,1811.207636499,-27.9042325722,0.6795621415,-0.2003419654,-21.7331734863,-0.9801159992,-0.5186571265,-0.6403824436,-2.7878614653,0.978487309,-7.4822958524,1.1238292755,190.058815182,1.224238308,13.635150637,0.5893403123,0.7370867958,-590.1001956762,0.6000131256,-0.114522161,1.1773439805,-0.5499051241,-2.46301722,-127.8158783907,0.8576402451,0.6871740827,-0.5229226067,258.4602751535,0.2480485523,-1.1279883212,0.2413273325,-0.9595553533,-591.956653151,1397.4244725271,-0.9402704381,0.4555443165,0.4508847459,0.0503041284,0.7000017919,-2.7911531469,0.0554591975,-0.4555009744,1.8526224196,-0.9730304679,-2.4479599277,-76.5697780903,-0.2438790867,-1.0053628156,-0.4516071239,-1.7121406723,0.0342938731,-0.3696922108,0.8803734363,-58.9484482538,-0.0983444546,2.2839260291,0.0523857214,-0.5915408758,-0.0485211255,0.8660951076,-0.4760542977,0.7725605569,540.2715651081,0.2530370567,1.2791785338,-0.9916621968,-0.5474353625,-0.1400570995,0.026756478,240.2636417564,-1.8350417398,0.7961770302,159.6599819491,86.7314713514,0.612199579,-3396.8934401932,-471.1592794425,0.6024857999,-0.5530619786,-3.6737402078,2.6717523803,-1.3106814842,-0.0498458265,-255.6045714984,-0.7705596431,-3438.8867024128,-0.1635950488,-17.6961347155,2.8776536359,7939.8689871029,-3.3154772833,-0.6108835995,-0.3663995703,-0.6137846216,0.7249755767,1.5382203527,0.8599904957,-0.9389461901,-0.6772650812,0.3233765413,90.1061273916,1530.399245233,7.7323905987,-1.4672561894,0.3804414038,0.7278578313,-0.0988664532,-0.2570709667,-2.6760094501,-0.4164689137,-6.6123917932,2.9733761982,-1.4547789446,8.8787381916,1814.1109315573,-0.1352250212,0.6102606012,-3272.7813729212,0.484227268,-0.0922731506,0.4350851371,-122.0946386491,0.0816878937,-1.7242575689,1.2646550335,-0.7273558653,-0.0982486006,-130.8481563757,-770.5968999227,-217.3127543586,-0.3341337997,-0.5354173213,1037.2131853817,405.6338862891,-2859.7883424026,0.0088151656,-0.1248291742,-1.6059814798,0.1365129759,1.1941298834,2349.6950896426,-1.9930741378,-0.4026670897,-0.0572071672,-0.6217125016,7.4930030905,-0.4181551273,-1277.3477927806,0.4553537972,-0.7258120419,-4.1274167058,-0.8236634659,-245.3375268546,0.2805022989,2262.485926009,0.1025159445,0.4600423766,0.4493743845,-0.6623472845,-7.1266678497,3.2106632486,0.4328071886,-0.3438062058,-2.250115615,-2.4537967238,547.3242931088,-0.8972141961,0.623770702,-6.3443434618,323.8495876021,0.9880450981,1211.9506738056,-14.7662522569,835.7088929547,-442.237403655,0.5314595002,-1756.5025517137,-3.4400828351,-0.4562556226,0.3625294367,0.5250170562,-1.4030028845,636.5358768406,-0.6079937504,-1209.9177676021,-0.4163953771,69.1771319627,-1761.4996590043,0.2102842733,-483.1626146781,1.0068234494,-0.6878221346,0.4473749011,-15.2776344967,-1137.5132639268,-0.8773427413,-378.3294724864,1.6601235771,-1.3788529725,-0.3860640854,0.0532319603,4.379732509,-1.4601497888,0.4456768436,0.6049070618,-166.8494101439,-0.8025408426,-1.2460439008,-0.2089581505,0.4790745784,6123.0256545953,3.2950179869,24.5748065107,-3.2120864294,-1.1028616834,-2.5738787234,-2135.2629790112,0.3415204638,-0.6853671994,31.6104082701,-13.7042149332,-0.6955436184,1.1704791528,434.1831010988,15.8836780894,1836.3207390529,3.6329472666,-37.8926359154,0.6787155742,0.1856339319,0.628494394,551.2189871624,0.1357556205,1047.1513521776,86.3379239667,-0.3183908603,0.6331182483,0.084081429,-0.6944778644,-0.4978234475,0.7733867467,494.5964737153,-0.737963344,0.6755801538,751.4253490871,-0.6913729808,1315.9573382449,-0.6265372317,1.0075315934,-30.345354258,0.2036750564,8.6680595663,-0.7477373312,-1.0878273754,23.7149289984,-2690.5049015087,0.1896068221,31.6996187388,3.0101355484,-0.3939807242,-5.8361105251,0.4035057459,5961.7996599234,8.801483784,-0.2119208709,-0.096145043,-0.7166368796,0.307667805,0.2444880039,-0.0644602695,950.8589989113,-5440.2085914082,-1.5793767192,-0.5439835219,2058.3595951159,6.5203900738,-0.5988016743,910.2192149618,2395.5198642548,-4.2083012091,1.0667345496,-11.840329981,-4.8931293519,-268.366558239,-0.7976386209,-1211.4123068535,0.8277945423,4.3940342345,0.2136438348,98.0296911574,-0.3899880716,-11.540853912,-1743.9846942426,0.7177091268,-11.6233352878,6.6048391111,0.2967417126,-1271.7102056008,6.0835478421,0.0206159338,-1.495034101,0.3770878618,1.0205046564,376.5466461014,0.8829284511,8.5903286568,0.2707306782,-0.5872665096,-0.0922180875,-0.4449590789,0.4317465182,-96.4269381049,-0.7134392063,7627.6231601661,46.2913339733,-1.1680401769,0.9282850146,1.0601958885,-0.1150402621,-0.2880088621,0.496343813,775.4472422975,0.9860908116,-0.665849501,-16.4808519158,-156.6957698281,-325.2040410121,-0.9582589029,0.3206925399,-0.6786099212,-406.3116692651,-0.8816835256,0.1209071225,-0.0249859006,-3820.5660514022,19.1141943324,-0.1445685436,44.9378665444,-0.7011184668,-1.49086499,-1.0467074147,-0.5678579494,0.3258808017,-0.4292338171,1.1267994409,-2.1695397149,0.6680591808,10.3049150543,-1.1765318275,-1.1038217573,0.5179432208,-0.9314513992,0.4315337235,0.7475363773,53.2928675981,6.2382234281,-444.9820904309,0.5759614311,286.8935350912,-18.1644723857,0.948817139,66.1384559001,-0.025098761,0.6057920538,1.1463480759,0.203976457,1.7302107098,-0.255190132,0.0227328871,-735.8431789354,0.6648665143,-0.2839076791,343.9371787557,-0.8553164514,-0.1571543399,-3245.2052485849,-10.8985774949,-0.8158814551,2643.3427741769,72.8942466582,205.3384363086,0.5313979522,-3.4325262344,-0.8021261955,-12.6798658347,-0.1236011566,756.5550781825,-0.3987795279,20.4743595009,0.0899382837,-2.348551506,-5.5092779007,0.6179435332,7215.6464779499,-0.7472404273,1.930040236,-0.7249674844,0.5778649146,-40.4924427291,3295.2269629431,0.6688122965,-0.9180402137,0.6548724484,1.1114247406,264.2572501104,-455.439725134,0.908468223,-0.7201787693,0.8591647015,-0.1712374549,-0.8046612475,-0.0672947345,-0.5073600459,-6.6337853069,3229.4642951657,17.2312959248,-1.4057420393,-1545.9634433299,-0.2933805371,0.5926483962,0.9929140046,1094.9737417344,-0.3513786824,0.1060591698,-0.6836937192,652.2418181002,-0.4725709337,764.771926023,-0.1983989152,-38.195795117,-2516.4834379963,2.7434416024,0.1054109566,-1.0012241202,0.8495922005,1165.5195803407,8.0178945957,-4.3246324494,0.8006145611,0.2382540803,0.7803877818,-0.1020044209,-0.4291195899,-0.8735536841,-17.7568812889,0.7201793594,0.2119462428,0.7999769445,0.4627088207,-1.5827749966,7.2507410581,-30.9202188255,0.3732809658,0.1489382565,0.4681917302,1.8201037187,-5.2788734413,358.4273991139,0.4827526852,156.6160171209,23.3815184719,-0.8633351629,20.776448916,-0.8268673416,0.3978160469,1122.5644731855,1.0260579225,0.3303332169,-162.2110527392,0.5242888008,-37.2550503834,-0.290702068,1.0108799186,-30.7329146797,-8.5958934732,-0.6593066502,-1843.4152152167,-2566.9968022756,0.0990163307,-33.1905203447,-2.6947325319,-0.0969130457,0.9965910234,-9.7094266184,-0.2744399563,1.2385189727,-0.3648050539,-66.772740622,-0.5322852111,7.1298644146,-0.2867513694,-0.2123056379,0.7903772216,-0.5988517123,15.9244448074,-0.0377444355,-2954.9435767835,-77.7688189216,0.2686429321,-11377.885314072,25.2343629531,-0.0394491745,-104.1314472818,-0.8285240445,-79.0110424551,-136.9299750844,3129.9504376217,-633.7135276741,0.588532618,-0.2126782157,0.8149828448,0.9913370241,0.3179471963,-0.081459098,0.7006574999,3090.1432724454,0.7759104458,-0.2523929918,-57.298244378,-0.1828751783,-0.8850885176,-0.6760559034,-0.9222272713,0.2663384564,-0.8935213427,0.224340534,-44.7936072591,0.0799746139,1009.6395250576,-0.6717453323,-3.8763659836,-917.9170839192,52.3018814782,1.0931208781,-0.4120743399,-0.5623724372,-91.1801234286,54.8539201594,1654.929509418,0.8156769714,0.5437105467,-0.1592862795,-0.3195204659,0.5524465083,-0.4250813929,-0.124494558,-0.6362306363,0.6330555951,-0.4706657964,-0.0525832868,-0.4807716924,-0.1767250588,0.8284694443,-0.2927295581,627.7245947386,0.1735216385,-0.8590037557,25.8572026307,-3940.4288465328,0.5307707775,812.8582497812,4.7487945553,0.9151746694,0.3898351514,-0.5618382308,0.6937693267,30.7084162354,2.6804510348,0.3588702965,-11.6447778018,0.0265450855,1.2443430482,-0.1453573012,-0.1138229054,-4.3021391436,1.5247353831,-1.253156712,-2216.0586629989,-6865.1023018755,0.4753583912,0.4864989976,-1648.8876148961,-0.0127029697,-0.8502276854,1414.7311717179,-0.5335398743,-0.0934851872,-0.013951584,-787.4470634675,-0.3652930607,-0.8571799198,0.2579778905,2480.1929057391,1.7329893961,1.5041753291,9.5422132969,-0.2741554712,-0.3668867232,1966.8269963683,0.7633862462,-1912.0772307746,7.1558329089,0.950770882,0.078938601,0.0281626774,-14.5968583707,0.6151064368,-401.4154659636,714.702340069,0.2484286932,0.2291703917,0.2798161741,-0.66047792,-0.0167649495,4611.7864569199,4.8519003152,-13.0657534955,0.5657187466,-1.1862736293,28.549666388,-19.6748541327,-0.9066075153,16.6341780467,17.294244731,-14.4112146915,0.2847609172,-0.2475496189,4390.43605982,0.333722508,1.4688274445,-0.8060076272,-0.5030714598,1221.3022172743,1429.2785926541,64.3126950302,-1.230383219,-1.0119464469,674.6941568015,3.9814844096,-4600.4156593954,-0.936609567,-0.278615412,-0.7676726174,-95.5144163166,0.4833127907,0.4147378336,0.3068812713,0.4717628144,5.4439750279,-0.3205809292,83.9471280401,-26.8474186472,53.6348441968,6.4177879275,0.2888660713,-10.1112827138,-0.024540021,-0.3929772379,-0.5620353227,-72.604520478,-11.2632620402,0.7096792802,-125.0842420636,0.0893863633,-0.2140863239,-1.0888645365,576.9343928859,-694.5842165144,9.6587259387,0.2860107389,-4.2001970524,-0.4499582112,254.0667602782,0.3637592207,2082.2153500675,2055.3861505314,-24.9709070308,3.0243401426,-293.3918271444,-49.3413349907,-1.0077551852,-310.8245456709,-3.8895994383,-11.3515041355,0.3738801708,-3149.7499798652,0.3877284446,274.2591072435,0.7766020433,212.3035783597,3.7614266536,-558.9069450975,0.7063341838,11.3112691846,20.5311609892,0.6133447536,1769.711659506,-1.0756161989,-2277.528047836,-2058.5844736405,-2.1115332036,-1.0452475162,0.211859183,-2.7031956133,-1.0803348725,-1.1484879105,-624.2509710154,-0.2091823066,3171.4723880117,4.2114688348,0.4435472816,1.6006995468,5.7770190874,-1.0970565842,-0.8338428939,3690.9892790218,0.0297971153,0.7410320045,-13.2903262561,-2.5872941577,18.4660307844,1.0242284105,0.353498174,795.8341835851,1479.9292193113,44.910746498,0.9896325667,-11.6722661329,17555.8011445477,-25.0329610019,1323.4793582431,-0.8213663871,-0.0981443618,252.4589782522,-1179.7639237861,67.7356428605,-1.4224747424,-2355.4972208167,7757.7468546131,1725.1449762606,1.3595783487,-248.3736801918,-0.553306424,-0.5355290039,1.8452814166,1.2962601948,-7.0092818823,-0.5811502701,1.1121591361,-0.7278614834,0.7320446393,2066.9999050268,-5.2232460151,-19.2053860528,-24.5052433973,0.1332164301,-1.2325966946,0.0200979994,0.249579349,-0.0077890761,-3412.901384603,-0.6088683236,0.8485342771,3004.6660366675,-0.2729478894,1.8385496761,0.2797107062,-0.714714856,18.3434163812,5483.754903007,4.7061046759,-0.4536892747,0.6187930263,-3.0488867902,0.4514162074,18925.9761235951,-3844.3577556894,-1346.1835448976,2.4541901693,1709.6430661031,-12.9493756788,0.8714815434,2390.3027936395,1685.3004473843,104.7772275521,0.0793383217,1.4009375231,-321.4115451801,5368.2061366768,-0.2112557353,1841.2643914749,1.4811581576,-47.8489496929,-729.6348526272,-2349.5587885791,11.3284848544,-0.2679971523,14069.7147533034,-0.707886537,-4708.3939473204,0.5517131453,0.4160292988,-7376.3605100309,-42.471821425,0.3161481589,-58.6900380893,0.4058261021,240.5252038298,-2041.4697651277,13968.3299411039,8193.5566718814,2.3910557131,0.9510929045,0.3760637772,-0.4032855166,0.7757280653,2253.918864257,-0.4098838797,5.5151839707,0.6725805527,-0.1967771815,-205.1684589884,0.9110558108,-0.9156862422,0.0493102871,98.0033059054,-700.1264269869,0.6400499085,2.3615887303,-1136.8650265915,-17.2508205435,1669.7541202059,-0.7839228397,-0.8978758688,87.674177716,432.1787547175,-0.4796984551,7.5823878428,0.1218525718,2680.7363121423,1277.5700901874,-812.3152823347,0.2171977744,0.7447158119,-0.4997841575,-0.7974721013,0.4220357512,505.5101465481,0.7861352484,0.4329151863,0.1027998193,-0.5197922067,0.449929324,-1.2502630439,-0.651862635,54.4393907361,-0.5829761682,-0.7822756062,-0.4524406219,-1.7593482405,0.5591896451,2007.4599784525,0.4637486026,1.7161655984,3539.3068137962,2.5870045648,-0.6593644951,0.9066332273,-0.7432132727,-0.430859948,-0.1540570378,0.7136343998,0.4897129521,-0.4390624838,876.7118146177,0.3816599392,2929.6670122882,-1012.3581609271,-0.7417679025,-0.216198121,2388.4832727741,-1552.0771262879,0.7390172,-710.2323407315,-0.6967552192,-0.3137902012,0.1376285171,-303.9054441761,-0.8732838304,433.0808586496,3.8137202282,-56.5126087522,-0.2775795126,-2367.7253366741,0.4326466526,-1415.727612865,-0.5693630259,-1504.46781517,-2637.6755796622,0.3525918487,-42.2138746667,-24.3906911445,-0.2660029323,-531.8119672781,-11.4090322023,0.4759640504,0.6452016302,-0.9324972141,3.7119276304,-724.6724874273,-2074.6324859451,4348.1923454178,0.3612887612,-0.9252499095,0.2975628302,-0.9722108741,-0.708075115,-1.3154630076,-42.8771482315,-36.6969850772,15.3444215914,-0.0320717705,-588.3244851178,-0.0978516625,0.6987786625,-2.7475094472,59.7559509399,-27.1942639115,0.4868351525,0.3276359027,-3.1496360424,-5.4516376599,839.2732588346,0.5001807905,0.6122515857,-2283.7188134294,1752.8048789521,-46.9922710896,3.2947060369,-0.9404893274,3529.7952859607,2099.6176448736,-0.6959701812,-1119.5060193224,-0.8592916923,-0.2782191343,-2.2040303042,-0.7723619434,0.7812196238,-0.5755309961,0.4433045677,21.3587687082,0.0486069853,197.2838349437,-0.4285329471,-0.18140821,-0.8809904848,-0.1024853889,1.3094325002,0.6471387787,2.3621763733,874.1377857992,160.4160659219,0.6968224165,-3714.63391469,2.0997375817,-0.5884184595,-0.0503570528,-0.1638933145,1063.7314523746,-40.2193657011,-6.0576904922,-1.0480684277,-1224.5911571965,-0.3261575705,-1.783225026,0.5710223303,-354.5892083584,-0.8284184126,-1244.5430117767,-0.0179976823,40.2476370935,-1.049744344,-0.1852663015,-810.3321231116,-0.4991897831,-68.2127484183,-0.3094484848,-0.5748273772,0.6553420274,828.1682492289,0.6353194508,128.1165709574,2.5264066443,63.7672254035,-0.2951603464,-7.407811761,-3.7981829323,-0.1729924681,-900.65785049,-0.8332250505,17.5482162259,6.9115521588,0.106262183,-1073.0383522923,-2.2233370249,-0.1715446938,0.0625930985,0.0313362438,0.0730151177,-749.7637948412,-0.4277569405,-2.8814712392,-1.486589216,7.7572930383,-1445.9602147276,-0.2190516791,0.7888284239,57.2070993657,5.5608008709,84.5208372697,6.234046923,310.6186985602,0.6629615717,0.3377343624,0.6286905859,-0.6680358987,0.5821330154,2.1115635413,-0.6134937762,0.4685225013,0.9826721195,-0.4148964023,3104.5931944207,0.0717353213,-0.652047008,-32.0361772062,1589.5255499647,1.9767088466,-0.4154978437,-6484.0436607194,-1276.9975984182,1379.7215271389,-667.0956831818,228.0570111607,-0.3681420764,-0.7801037715,-0.0322804276,-0.8102516288,0.9938835848,-0.5497818554,0.4577563506,0.9376780662,0.9101807081,0.927472244,1001.2753385781,-0.6307684437,28.0681085172,0.5349512488,-15.6149775652,-0.5197029602,0.2599511911,1.3921077598,-2140.6924420585,0.5871874633,4610.9260443101,0.4170775194,-0.5730945773,0.7819183852,-2.7842289053,284.8951760901,-0.007414026,-9.5839314296,-0.4125421821,1343.3522331574,-1.5609035387,-487.2455760756,-0.9011493027,-741.2270257542,-264.29030123,-373.537804751,-0.5894580573,214.0238675289,-16.484422619,0.2636305059,1954.0936857416,7.1658960829,-0.8581998895,-0.0697204489,2554.0155499262,0.9417135829,281.6060110405,-0.1605919102,851.9996590393,0.4400704341,3442.8230828087,-0.18608864,898.3731635734,-14.1699736314,5.3979953341,142.974909213,-0.4528599788,-1.0289370353,1819.9139589868,-0.4556993144,-1964.5442900832,0.3127965012,-0.0069927712,-0.1956521302,-0.9640280624,256.2274346327,-4032.374667921,-37.7157429204,25.0223636352,0.6989858963,0.4854241677,0.236561198,0.1966866713,0.3637798201,0.1688505848,1.4567715425,-9.0342907142,7.9314878669,-5.2741163429,29.2566555319,-1.5514594063,0.1542676631,0.9629076136,-0.8690815597,-0.5417666256,-0.7076590197,1.7372195377,-1.6506935146,1.0609371567,-0.8835627176,0.2455504795,-0.0526949702,11.3796447498,4.2958602178,0.8302618019,-1.1363720702,0.9516869335,7.202553849,0.088426623,1.2116040007,0.8577723387,0.5693784637,0.2744138332,5.0682994597,-3.4755583123,0.6721274304,-0.6972460729,0.7925492906,1.8668409428,-0.6005781492,45.2513220032,-0.461989522,0.5878543217,-0.4193767703,0.632985287,-0.1147862302,0.7391057705,-1.5807900565,-0.9657817263,-3.8126441735,0.4406222191,0.1711023167,1.1103863111,0.5118511932,0.6127002385,0.3802048782,-0.7211216865,-0.5879331403,0.0801328735,0.3294224769,-2.2068919649,-0.982026638,-0.6218171746,-0.5606692628,-6.1786569674,0.7727733114,2.7560172743,-0.6169389903,-1271.390025285,2.5511280099,0.0478277445,0.6708507433,-0.62184098,0.5894594967,0.1447436306,-38.0918066505,1.8461217975,0.6470489266,-1.9785735587,-2.8842887871,0.4118739223,-0.9813298469,-0.7134473331,-2.4778339257,-1.2031608337,-4.1536209456,-0.7478715469,0.5097380187,1.1607337426,2.5348767389,-0.3461934086,-1.7573970243,-1.1991293018,0.4942644095,1.2375091993,0.2867699505,-0.6045687698,32.3688668613,-30.7447798096,0.6207529356,-0.223799914,-1.1369167806,0.3341227712,-0.4482959054,-0.1469390056,3.8552982468,0.0832872453,-301.1516394251,-1.7185715581,0.960741162,1.3913923386,0.9222333699,0.3991725131,-0.6032423908,5.0094082625,-69.3733227695,-0.7247611388,0.9130144098,-1.3697061687,0.2903351754,1775.2196965677,0.3957945022,-24.8938314033,-1.1042787088,1004.6862257266,0.3604168321,-150.4549996974,-448.6821797078,-494.5377284691,1319.298881195,-3003.6799173679,-0.9939246257,0.8929477167,-0.6258479694,0.8163042545,2.3406639067,-0.9451667297,-0.1932684386,-0.4569114713,0.2923088008,0.6010029826,3.8396566476,-0.0263735942,-0.5029870675,0.2890989119,-0.950929641,2.7244408985,0.6477884119,3.9296938429,2.911263616,1977.0991142549,0.1550313077,16.0821874182,-9.8640997954,0.3126902927,-124.0629770481,-3419.0228732229,21.7125170278,62.182543315,-0.5015697699,-0.7598025365,1005.097480374,0.698559317,0.131219436,0.0385687488,357.8991463521,361.2412402225,0.0208255317,1.3398718017,4156.404364881,0.8364660729,-0.6069097221,-2164.2282359548,-0.1204297153,-12.2652130075,-0.6445803358,-806.8472370742,-1.165881893,-33.7105421697,-0.2753236344,-10.2412766717,0.5284646848,0.0013552741,-3.0011733438,51.37477419,14.0341923159,0.900302112,-16.6969442756,0.9807983469,-13.7246111413,-391.500988694,0.7365709822,44.4632341101,21.9523700686,-0.4535355534,-0.0779485966,-0.5831942178,-8062.3056178107,-405.3841194841,-1267.944960775,-14.3517434633,0.6010260974,-0.0373316089,-0.1224268233,-0.6921994037,-0.8518067694,17.8251481697,-435.0006682789,-2.7300944434,-20.6183981887,-123.6693038782
